{"layers":[{"0":{},"1":{},"2":{},"3":{},"4":{},"5":{},"6":{},"7":{},"8":{},"9":{},"10":{},"11":{},"12":{},"13":{},"14":{},"15":{},"16":{},"17":{},"18":{},"19":{},"20":{},"21":{},"22":{},"23":{},"24":{},"25":{},"26":{},"27":{},"28":{},"29":{},"30":{},"31":{},"32":{},"33":{},"34":{},"35":{},"36":{},"37":{},"38":{},"39":{},"40":{},"41":{},"42":{},"43":{},"44":{},"45":{},"46":{},"47":{},"48":{},"49":{},"50":{},"51":{},"52":{},"53":{},"54":{},"55":{},"56":{},"57":{},"58":{},"59":{},"60":{},"61":{},"62":{},"63":{}},{"0":{"bias":0.037633606867516364,"weights":{"0":-0.19986177673563363,"1":-0.025908888918590434,"2":-0.18605461879758772,"3":0.14982890378355312,"4":-0.05402789631661867,"5":-0.10571227893938695,"6":0.04449326486010954,"7":0.06265851648608077,"8":-0.1011531663292323,"9":0.09781113484968144,"10":-0.1890063222923788,"11":-0.04452051924872919,"12":0.22495784260858953,"13":0.01862134945364632,"14":-0.19011177350847105,"15":-0.06664847131872151,"16":-0.1111967663254053,"17":0.07352147444575771,"18":0.40796435717325114,"19":0.4915765251493048,"20":0.4400019510149341,"21":0.3101023902494811,"22":-0.23283143899977876,"23":0.02456351852934211,"24":-0.041065451615101625,"25":0.3548176437904267,"26":0.5535308565126521,"27":0.3520826622476959,"28":0.4084788096086439,"29":0.18159432011513116,"30":-0.051300103064802614,"31":0.14737425657933362,"32":-0.11884842095896603,"33":0.33052753675522106,"34":0.13756884582366544,"35":-0.13668828580281758,"36":0.29597532540538324,"37":0.052134015198763504,"38":0.14791423897359954,"39":0.11492727529257535,"40":-0.14684801561559865,"41":0.16525242565204412,"42":0.0005187375039564471,"43":0.4552622891019457,"44":0.4062963041200049,"45":0.0933999508561311,"46":0.09235933527228368,"47":-0.2003202082739209,"48":0.19682003504256715,"49":0.13062229209714593,"50":-0.12082054607643311,"51":0.2780461499326363,"52":0.3271867700020335,"53":-0.15456916524226724,"54":-0.02577270492047237,"55":0.012252128261925455,"56":-0.1412188826219762,"57":-0.23099194755977914,"58":0.011803318035396517,"59":0.04237883327473224,"60":0.2298610315986946,"61":-0.11608433188471662,"62":-0.2528071667760895,"63":0.12155295878015276}},"1":{"bias":-0.18093993613685722,"weights":{"0":-0.02206422993913293,"1":2.117795149560382,"2":0.07422482224443061,"3":7.703213319312786,"4":7.739364662083623,"5":17.170652579184495,"6":10.356089282652428,"7":0.06776699010684167,"8":0.1890432691449405,"9":3.2209669241483265,"10":1.3969737777963394,"11":10.593352955189776,"12":-3.645674144101815,"13":-11.221774362326496,"14":3.313998538053618,"15":0.3511443819394268,"16":0.20236197111499254,"17":-1.4864881107335275,"18":-9.574095470942138,"19":-10.349612546698234,"20":-7.514102910881002,"21":-32.55663344858555,"22":-11.410714641838878,"23":-0.2152886395443067,"24":0.15768730637440742,"25":-6.943741811519528,"26":-18.33043859574357,"27":-10.7498984758798,"28":8.207720794788425,"29":-18.08418296992909,"30":-16.870272475008488,"31":-0.12306391237204554,"32":-0.030573381576687098,"33":-6.860197161586714,"34":-6.360691087119622,"35":-3.2380890610439548,"36":16.312969115037962,"37":6.871519859384708,"38":-5.447784376962367,"39":-0.0860944675281644,"40":-0.06205886814346697,"41":-10.681276484693612,"42":-1.328146439183593,"43":5.780973423022059,"44":-0.32741850351136426,"45":0.8400857283886847,"46":4.88100327564126,"47":0.5491099973888072,"48":-0.004276283276227466,"49":-2.0583438240902163,"50":-3.9210654250034933,"51":19.137143430332745,"52":2.2746617128915543,"53":6.440496842017541,"54":9.471905319452219,"55":1.1131763652363755,"56":-0.16110979069139983,"57":1.6398019035060338,"58":7.723142946296464,"59":8.015900591023039,"60":-3.2114918759261903,"61":2.4189003249119123,"62":3.9806341472020805,"63":1.145061711840962}},"2":{"bias":-0.038677747171621424,"weights":{"0":-0.14224925367161634,"1":-0.23782746911416228,"2":-1.2831086124632936,"3":-1.2506658376201454,"4":-0.5799594693809735,"5":-2.0402227408923492,"6":-1.1337822186815292,"7":0.03863232316528822,"8":-0.16826594597253539,"9":-0.8160120216132475,"10":-0.857358348707934,"11":-0.3155813781296906,"12":-2.1956485564366632,"13":-1.011001944514492,"14":-0.6599974296317714,"15":0.11562780344499603,"16":0.08553490126515012,"17":-0.404283464847291,"18":0.6595383648621774,"19":0.3391533071546308,"20":-2.134111408058686,"21":-0.7085954210716517,"22":0.3020029299765483,"23":0.04806373908335685,"24":-0.06465365750713115,"25":0.30117696822876305,"26":0.17647635592943658,"27":-2.826304398606387,"28":-3.468556828713189,"29":-0.8915243245121232,"30":0.6072359203255553,"31":-0.16529881285015213,"32":-0.1026877298951149,"33":0.40165211433301656,"34":0.9808254660651085,"35":-0.8805537801154542,"36":-1.7672641643531215,"37":-0.2994384619507304,"38":0.10595123728332101,"39":0.05372253181412817,"40":-0.08904535826850313,"41":0.003955436089287064,"42":1.356310263967538,"43":-0.3514271827275565,"44":-0.43083625731263236,"45":-0.1279610508123607,"46":0.08134752293693864,"47":-0.004582110956341891,"48":0.08822491076452982,"49":-0.4014337667444384,"50":0.5483198708135447,"51":-0.7261184984178026,"52":0.35724322713838047,"53":-0.9580579937320834,"54":0.31739482949067943,"55":0.011596774526423752,"56":0.19134828088694772,"57":-0.2000159195583104,"58":-2.1043057767052846,"59":-0.6156921256295876,"60":0.10503180466911109,"61":-0.6937828072922925,"62":0.052778650714810256,"63":0.09262694564622513}},"3":{"bias":-0.12135058812915325,"weights":{"0":-0.1374908870086074,"1":-0.007109258745952263,"2":0.013579562469612777,"3":0.8257671480153046,"4":0.62993941318028,"5":-0.6979406944065717,"6":-0.3699454544276056,"7":0.1183727897289049,"8":-0.19645552222856316,"9":0.14097882782604532,"10":0.46983283659294045,"11":0.5085750834659977,"12":1.0250364194705572,"13":0.11696999834279477,"14":0.00733555498672564,"15":-0.04126415887496649,"16":0.19921542807641096,"17":0.05648202209462843,"18":0.37348840492052043,"19":-0.11606390196094592,"20":0.2783920403225609,"21":0.6828340621940371,"22":0.1575953054305109,"23":-0.15667676386797313,"24":-0.03880146876249754,"25":-0.2853964243973312,"26":-0.04360041107496281,"27":-0.8734188925675413,"28":-0.4475766235274834,"29":0.5714679699909654,"30":0.2947407186898769,"31":0.15139075558317208,"32":-0.0018887578509748093,"33":0.10188906514874901,"34":0.3939618256417672,"35":-0.23985349933248665,"36":-0.12798212329244013,"37":0.32072457087316547,"38":0.04731190516282351,"39":0.07091805636882781,"40":0.0775086693119712,"41":0.07999554469033009,"42":1.1775784540208163,"43":0.3954359752677058,"44":-0.616640486135439,"45":0.6805162000230351,"46":0.6294268337825237,"47":-0.0022646104628876937,"48":-0.013410498607881145,"49":-0.1333896772579706,"50":1.1468767995193163,"51":1.1638972278818898,"52":0.4662171207389031,"53":0.9143152952802062,"54":1.0967741980226402,"55":-0.0019908197060005614,"56":-0.16266717345431358,"57":-0.057027897964108266,"58":-0.22973555044959376,"59":0.47178616103437176,"60":0.9208801549571258,"61":1.0997886548451081,"62":0.6973914031818393,"63":0.12610190442307115}},"4":{"bias":-0.03344200164626296,"weights":{"0":0.08828780697658656,"1":-0.1261649942026338,"2":0.09782737018062007,"3":-0.45983012332805623,"4":2.0158375514937488,"5":0.516908448414237,"6":-0.02259502117205959,"7":-0.08600511988761855,"8":-0.19345607233704207,"9":-0.03479064066421055,"10":0.4553171024008387,"11":0.7973165778798047,"12":2.1647771965264933,"13":0.3217182228615097,"14":-0.8876415853781296,"15":-0.11213454138530171,"16":0.16742036251079323,"17":0.8154018053701206,"18":2.486181127503812,"19":2.142130078875555,"20":0.24588373296822646,"21":1.3287387272414313,"22":0.2904072636514331,"23":0.09960312759131101,"24":-0.12205227768705924,"25":1.550062584137425,"26":3.7686421911162165,"27":2.0843734870584814,"28":-0.07829039534133528,"29":1.6628009014962548,"30":1.3140464575052984,"31":0.1210947652576131,"32":-0.1266587278805673,"33":0.1469530367111001,"34":0.28554583953306584,"35":-0.11661930181333365,"36":-1.118757308938754,"37":-0.2565496296851781,"38":1.6823147762979564,"39":-0.15406174510717394,"40":-0.09827903279455225,"41":0.767179765668014,"42":-1.4996643329529342,"43":0.5376838988739935,"44":1.7698450670133266,"45":0.6063343492600631,"46":0.4665231276246034,"47":0.01268573595480989,"48":-0.037814169093642575,"49":0.5564501898063811,"50":-0.6165939832468303,"51":-0.31624989062467396,"52":2.0245107355796934,"53":-1.2307059759806742,"54":-2.063722120810654,"55":-0.11940972911559566,"56":0.010633801951281753,"57":0.05897052198456487,"58":-0.4294784637600792,"59":-0.02063310297210308,"60":1.227617264723866,"61":-1.6586545007721758,"62":-1.1911946303928818,"63":-0.14995468204412496}},"5":{"bias":0.10544151814573187,"weights":{"0":0.055520249251276244,"1":-0.14848952490690945,"2":0.0747083454987244,"3":0.21340848150854472,"4":0.15522083888199542,"5":-0.17561625752026033,"6":-0.1214082497547835,"7":-0.11380071883567625,"8":-0.17116313240364697,"9":0.21788873067659245,"10":0.25641905556995775,"11":0.06051676280257207,"12":0.4424609810629652,"13":0.4369936114432706,"14":-0.014634716100877925,"15":0.055858683664222135,"16":0.17096285518792206,"17":0.08930002622552358,"18":-0.09176331266778245,"19":0.3798160013491036,"20":0.8715569664674571,"21":0.7201471616570463,"22":0.2546847441232062,"23":-0.15570931361502524,"24":0.1641572288311375,"25":-0.16809879089625188,"26":0.0697747552848681,"27":0.6377044398258023,"28":0.4567991917523259,"29":0.4456556385182234,"30":0.44587059632984316,"31":0.14956682137628144,"32":0.14391926731914284,"33":0.2734306746628736,"34":0.02536983254777738,"35":0.08608171110773384,"36":0.3401577065987264,"37":0.31712103100230615,"38":-0.059404724792029746,"39":-0.04855995289981366,"40":0.1579650529926372,"41":0.4694004173036961,"42":-0.15328369284700372,"43":0.44895371734873674,"44":0.6283156694398057,"45":0.024460295239999843,"46":-0.3720513334372662,"47":0.09151715390615622,"48":-0.1032996085770229,"49":0.09988367345968416,"50":-0.0861276596885576,"51":-0.03726942297714819,"52":0.277608119669373,"53":-0.09175986380469327,"54":-0.25713489708934,"55":0.14091357260705864,"56":-0.12611238390809823,"57":0.07645916770116387,"58":0.03512683953270662,"59":-0.07212544336660587,"60":0.047729428105521624,"61":-0.022538843335914997,"62":0.05274021271112987,"63":0.22406609939794386}},"6":{"bias":0.16067253791602443,"weights":{"0":-0.11591346934437752,"1":0.14533499936449157,"2":2.998868372694127,"3":0.15852532798845248,"4":-1.8897046151097474,"5":-2.6811731502871825,"6":0.7121175469692547,"7":0.9270586600131483,"8":0.11958375677341695,"9":5.037691424051164,"10":1.80526352465913,"11":1.4308557709018284,"12":3.5074441832293237,"13":-5.942364565361931,"14":-2.143309177929001,"15":1.0776292047505611,"16":0.10988804947720875,"17":1.9830060601964652,"18":-4.922633264202264,"19":-3.5695371779649876,"20":3.388839172753242,"21":-7.345599463349747,"22":0.023617752140359848,"23":0.20653024606980494,"24":0.14644364272081445,"25":-0.02066827570879823,"26":-10.4959991512599,"27":-15.996821408981234,"28":-3.555404509943836,"29":-0.20848497762121343,"30":4.355273997768744,"31":-0.053991258654564125,"32":0.163660956453532,"33":3.837805801574679,"34":-2.384987017845816,"35":-6.92807082976261,"36":-2.3872636924311683,"37":-2.021055815053791,"38":-1.998545715181669,"39":-0.08470133617520333,"40":0.18304635195380387,"41":4.116164749155903,"42":-1.0008324680972527,"43":9.961581767354048,"44":-2.670130981666063,"45":-13.524008376412601,"46":-6.469454094996471,"47":0.07276523213317385,"48":0.22405267097354503,"49":2.700201010157785,"50":-0.9512442014797013,"51":12.056308333584886,"52":4.7498038340242905,"53":-1.597828935101558,"54":5.185730434055826,"55":1.239820442534345,"56":0.1146130867686414,"57":-0.41781129157818814,"58":5.293087976260516,"59":-1.5904498952012411,"60":-3.9123316813405205,"61":8.204820754098552,"62":12.280396125070121,"63":5.524578479872551}},"7":{"bias":-0.016853326580710884,"weights":{"0":0.022947569470852608,"1":0.018836473277095048,"2":-0.16560981534038485,"3":-0.05056907228005314,"4":-0.014066891857209406,"5":0.049436627235548584,"6":0.020242498906505115,"7":0.039652988391401786,"8":-0.18290317825595712,"9":-0.021447015850406287,"10":-0.11610014829012152,"11":-0.8892890129905308,"12":-0.10974980457710447,"13":0.5560719494187384,"14":0.21126744598806074,"15":-0.1406181788245221,"16":-0.04592013293365575,"17":-0.22118064008148072,"18":-0.8777745206291657,"19":-0.7374025641685242,"20":0.19934057223976864,"21":0.5080277564601425,"22":0.16601543231784857,"23":-0.06356090156625833,"24":-0.05908463231497785,"25":-0.14385296782114024,"26":-0.7861582620223677,"27":-0.412108107640186,"28":-0.17608315315653353,"29":0.45549274642379745,"30":0.3261962441353224,"31":0.13474119978011373,"32":-0.11980061000213027,"33":-0.2505041971580053,"34":-0.4215884799513693,"35":-0.05155549985895681,"36":-0.09984759315886245,"37":0.11053890518195464,"38":0.09550683932305098,"39":-0.011120839510113001,"40":0.09297466801244861,"41":-0.2648191427977926,"42":-0.8283885133315423,"43":-0.648758083938661,"44":-0.24018210217722116,"45":-0.2123538221723275,"46":-0.005737320069496815,"47":0.05518740803027795,"48":0.16230842691285793,"49":-0.10612624692008409,"50":-0.6445744469319387,"51":-0.4053014031923882,"52":-0.9670383099588172,"53":-0.2609093525460428,"54":-0.059239341342309744,"55":0.01678678379712049,"56":-0.12317947551418298,"57":-0.20877908362473602,"58":-0.17199158905294412,"59":-0.36750276282573047,"60":-0.5474720154433508,"61":-0.15254242083094668,"62":0.10115799530215182,"63":0.1293127427453096}},"8":{"bias":-0.16031088439531804,"weights":{"0":-0.14114745194092393,"1":-0.4657137937331396,"2":-2.991025902310833,"3":-5.764759575647885,"4":-2.540995455196967,"5":0.9130764822551884,"6":1.8371139609430258,"7":0.4431145805565874,"8":-0.07167394959061747,"9":-1.9213014350203708,"10":-4.155192217071687,"11":-3.3494092383892493,"12":-1.3093240716267203,"13":0.4730990966586642,"14":1.1667912137347125,"15":0.3333835119910143,"16":-0.1263626273436696,"17":-1.2665777418440933,"18":-2.0944160608237237,"19":2.7847741297063178,"20":4.2039055230836535,"21":0.34301410925224757,"22":-0.22237983708984252,"23":0.17570196814412015,"24":0.028314432067490614,"25":-1.3185615736358223,"26":0.37036051785601365,"27":3.5942790906316016,"28":2.3350440740728717,"29":0.5489491042655221,"30":0.1769448341248768,"31":0.11345353451110064,"32":0.1754285431466997,"33":-0.9004594359518213,"34":0.9099803246091607,"35":0.11876717923204731,"36":-0.9607918406225153,"37":0.41078346007796446,"38":-0.05863242381908079,"39":-0.19700618153437974,"40":0.04880617426164952,"41":-0.07513473203117299,"42":-2.8581640026302697,"43":-4.5137970892349735,"44":1.1726955860729826,"45":1.1063692572680524,"46":1.4780644831234075,"47":0.18052590570204952,"48":0.09699872119421611,"49":0.14356052932635552,"50":-3.3654267092501007,"51":-6.23846896060257,"52":-3.663879265349821,"53":-4.361110722409856,"54":-1.8819661388792976,"55":-0.21242729266165014,"56":-0.054407286464510186,"57":-0.3064671333042923,"58":-3.12630878557578,"59":-5.880373689578155,"60":-5.542453688306081,"61":-3.074396226438139,"62":-4.588766369613075,"63":-2.4070480961880576}},"9":{"bias":0.23540946080670783,"weights":{"0":-0.18195073353126645,"1":0.16999995525993955,"2":1.7030820401423559,"3":1.600141297812311,"4":4.409474298522014,"5":0.09023836315566168,"6":0.7514882618103836,"7":0.07907891070049851,"8":-0.02264237931414312,"9":1.1729935417322472,"10":4.297567893298579,"11":2.0160039561657883,"12":1.2889039901846358,"13":0.8360695400865971,"14":0.47244660013513157,"15":0.2174250837703005,"16":-0.017496959375974456,"17":2.2823057582119564,"18":2.856165293457944,"19":-1.5888803274511933,"20":-2.4704955688409638,"21":2.3660040997435448,"22":1.0972683261564145,"23":-0.04710233179639739,"24":-0.15287235494005622,"25":1.4212153778715584,"26":3.544868248144477,"27":-0.22787026639323849,"28":0.64683512167601,"29":5.180541448823886,"30":3.312713299898569,"31":0.06507380751021796,"32":-0.057764839194715034,"33":2.0218944480937844,"34":2.8760309890910363,"35":-0.9238247596152891,"36":-1.6824941583086603,"37":3.0479461805381667,"38":3.1558760248843245,"39":-0.19331337567418816,"40":0.02477440755443256,"41":2.2453771679251795,"42":1.8377441800757566,"43":2.1632834621570045,"44":0.05485834655012867,"45":1.2225152151194258,"46":1.2772185685985038,"47":0.022579024646285115,"48":0.010046738091788942,"49":0.17184282769251433,"50":0.7998458151409632,"51":1.0151422994042785,"52":-0.8901108512887714,"53":-3.7668672311743707,"54":-0.7851063466164854,"55":-0.6436378796792628,"56":-0.007711637826067273,"57":-0.299884237788787,"58":1.1014179248815714,"59":0.34371794882694445,"60":-0.015065601603385066,"61":-3.368207118437918,"62":-1.177960195938077,"63":-0.8274873338719699}},"10":{"bias":-0.027340741804266638,"weights":{"0":-0.12259396221488715,"1":-0.14279139959318088,"2":-1.2940530001355228,"3":-0.7813193395638033,"4":-1.13006493514361,"5":0.2745809738947044,"6":0.09730915045412365,"7":0.2411707436547878,"8":0.1651151562394668,"9":0.5056380048072807,"10":-1.2625657141965057,"11":-2.4464173531457214,"12":-0.0015730565861480786,"13":2.553417340690474,"14":0.712490402605641,"15":0.3433446751220321,"16":0.1850880310534444,"17":-0.4304831395915659,"18":-2.7245309522188554,"19":-1.766891394360831,"20":2.2817426230205426,"21":4.021877985983709,"22":1.2866617058238567,"23":-0.15345974746224791,"24":0.1273913427333463,"25":-1.5995352103050853,"26":-1.5524565952449356,"27":1.213884158494893,"28":0.04343130990510736,"29":1.5842154158374524,"30":0.051882089289660864,"31":-0.031151064392621563,"32":0.04349346728995443,"33":-0.7170945490618217,"34":-1.5556754960839276,"35":0.6605801728966684,"36":-1.1151665286850514,"37":-0.547800695716724,"38":-0.057685226835106344,"39":-0.07508111037313939,"40":-0.01864111723841182,"41":-0.10454457403356186,"42":-1.969117376030825,"43":-0.5574162645454455,"44":-1.0268164260205217,"45":-0.9895607535983802,"46":-1.1779685655492427,"47":-0.06336514976448666,"48":0.005453672478699009,"49":-0.3097258682594081,"50":-1.4770560822543595,"51":-2.7124884391302384,"52":-3.5151459383030272,"53":-1.4518856226211698,"54":-1.9503281446331415,"55":0.00591251395254847,"56":-0.004050105012160631,"57":-0.1828646469132385,"58":-0.978266305684292,"59":-1.7216038158398574,"60":-2.5415331937935624,"61":-1.3382012509591672,"62":-1.6442717249122587,"63":-0.35900714680748597}},"11":{"bias":-0.24924128813368812,"weights":{"0":0.013680766243487602,"1":1.5577629270118918,"2":9.737620395719581,"3":0.037736546772267086,"4":-3.0046048037409854,"5":12.592361525164815,"6":0.8111284155686269,"7":-1.4566618044529651,"8":-0.13187460933099446,"9":5.749912121497257,"10":1.7210174031145586,"11":-1.5469842948460277,"12":4.392021011263453,"13":-1.098950247289385,"14":-3.6402872439763887,"15":-0.7447208786744342,"16":0.3929303114103656,"17":3.8601007888093153,"18":-0.7425669406165586,"19":2.2423056240951897,"20":15.446195225490507,"21":-5.25392119243766,"22":-6.005223900475251,"23":-0.2064157115947053,"24":0.057887882669832594,"25":0.6888542490180862,"26":-2.7617154442923275,"27":11.921502474016927,"28":18.410076680074834,"29":-5.31240421541614,"30":-12.562385875449468,"31":0.16433603575500105,"32":-0.11473452262580396,"33":-7.220272881686822,"34":-8.349133824536423,"35":1.6770904460268288,"36":-3.835089518993569,"37":-15.75401409038998,"38":-10.925563538342105,"39":-0.17579480446875095,"40":-0.09756215392477793,"41":-6.884263538849685,"42":-14.452037033130244,"43":-3.74452114022735,"44":-9.172528720729684,"45":-7.7384592952827775,"46":-6.519140445980666,"47":-0.5593564734670926,"48":-0.04522308718575671,"49":1.2579313904446867,"50":0.8713495028341475,"51":-6.305057508064064,"52":5.599781986855404,"53":4.176859491702587,"54":-2.0680043022221146,"55":1.263432744987737,"56":0.04227041620454316,"57":1.5522055147439515,"58":8.713790716087109,"59":-1.8293499495436194,"60":6.632877846043656,"61":4.160447809260485,"62":3.107987789316969,"63":2.9735985795450963}},"12":{"bias":-0.20110854660831243,"weights":{"0":-0.0014824221841990837,"1":0.11525045314974218,"2":-0.37636241597836,"3":-0.05668694094094768,"4":-0.049840630567007785,"5":-0.4019596189536092,"6":-0.07605319700682625,"7":0.16345891707697774,"8":0.17129039213172959,"9":-0.1844978154782453,"10":-0.08057032755825375,"11":-0.06522724870395774,"12":0.02731925846452388,"13":-0.2332997382772785,"14":-0.008074385391137405,"15":-0.10019053678631429,"16":-0.14147751809766834,"17":0.07624550467268669,"18":-0.06711648645960216,"19":-0.5559554282591107,"20":-0.3752385906168481,"21":0.23638239098074984,"22":0.27462628832142444,"23":-0.11383369810530632,"24":-0.1311376488144363,"25":0.17870053486067997,"26":-0.3554084283412834,"27":-0.7240753006395441,"28":-0.42923002781253,"29":0.2923094679789157,"30":0.7320244374791437,"31":0.08323184952399194,"32":0.04826648170128464,"33":0.19753172277791242,"34":-0.08754565676340753,"35":-0.4563796681507848,"36":-0.4575911809132708,"37":0.21666623379060765,"38":0.43969180363800553,"39":0.17277289498597387,"40":-0.04551323542423896,"41":0.039775921770363355,"42":-0.11309818682471104,"43":-0.22203727852080482,"44":-0.2599220535408961,"45":-0.5466715644360522,"46":-0.10667919586247647,"47":-0.11873963102888836,"48":-0.15846126369439584,"49":-0.09530795657400895,"50":-0.36026387565440593,"51":-0.3328302220529411,"52":-0.4053520762792786,"53":-0.4859045465756399,"54":-0.16242061211555198,"55":-0.10215727169126974,"56":0.1375432040459833,"57":0.1366570200695595,"58":-0.15047414926917194,"59":-0.5398773680649193,"60":-0.43058493380287555,"61":-0.4304359434282378,"62":0.047693891932371967,"63":0.19854701589778756}},"13":{"bias":-0.14029381116384754,"weights":{"0":0.14589850418269634,"1":-1.3347890057224425,"2":-3.801405457571109,"3":-11.674157127924598,"4":-5.5364540614870785,"5":3.4293121599853182,"6":0.3069170508151666,"7":-1.5627454005740398,"8":0.09551075155963858,"9":-4.067355051169023,"10":-13.743012347670886,"11":-4.31547947705917,"12":-8.507909615215382,"13":-6.254878160547704,"14":-1.428060948276744,"15":-1.064948887736779,"16":-0.17533680533695953,"17":1.0663812463200837,"18":13.248209206762056,"19":17.080070110597447,"20":-4.813659808686044,"21":-13.37059486036018,"22":-5.223950147522928,"23":-0.7552563579304815,"24":0.09834945254902709,"25":6.87979347856269,"26":24.14673763715096,"27":19.59181046146946,"28":2.8213186313542966,"29":-2.111828314163199,"30":-7.523375181634398,"31":-0.07326234125881537,"32":0.02881143195554614,"33":1.37025589278971,"34":3.864176004260061,"35":4.437591596386499,"36":-1.3629361063766008,"37":-1.351818283981716,"38":-5.454417302277841,"39":0.19042868688702586,"40":-0.1175090568865905,"41":-4.594517617223618,"42":-6.101299113120194,"43":6.335734648221125,"44":4.631141439833778,"45":-1.33170500248161,"46":-2.5530539897625504,"47":-0.05216097695986241,"48":0.1625860747434734,"49":-4.0783291825840955,"50":-3.5463685116607655,"51":-3.1708084780504824,"52":3.9719231714835956,"53":-1.864214252293342,"54":-6.6180234914495895,"55":0.36828896600243594,"56":-0.17245022351976355,"57":-1.2387548620536903,"58":-7.605191311514063,"59":-3.914248683653771,"60":1.4782842968678183,"61":-1.4750623146064172,"62":-5.395096233376712,"63":1.168770576732707}},"14":{"bias":-0.20099541690270667,"weights":{"0":-0.13412430696189404,"1":-0.9638009171835272,"2":-6.7797328173943825,"3":-3.156466894356104,"4":-10.920483127142633,"5":-1.8633728103478397,"6":-8.192437199314394,"7":-1.4767871758785844,"8":0.15524946869855755,"9":-1.2501702042043346,"10":-3.9447474835992584,"11":-6.239448387749849,"12":-3.9920057935645334,"13":14.076122234973694,"14":1.795206743598454,"15":-0.9012815246001394,"16":0.16116436582406246,"17":-0.476961250853652,"18":-2.3124623783314364,"19":1.6479047383651446,"20":6.494633726457586,"21":4.504197702384949,"22":-1.2859372357625032,"23":-0.33757637494540776,"24":0.018204762839205045,"25":-3.877154266047653,"26":-13.310322814636551,"27":2.7360752692519736,"28":-4.211288736290818,"29":-5.5252989276822655,"30":-14.868686650321754,"31":-0.053170653574446725,"32":-0.14194881739094856,"33":-8.646581986824147,"34":-5.385070167968055,"35":1.9657277447041341,"36":4.658839775931199,"37":-15.934119039263477,"38":-13.368826247624874,"39":-0.06240544794127345,"40":-0.347611183511146,"41":-10.459370103538928,"42":5.950360192400913,"43":-4.717740684163243,"44":-2.4034407702218132,"45":-4.907461397045146,"46":1.3506764843391446,"47":0.0006529345187440467,"48":0.27721021980046157,"49":-1.2292804275526221,"50":7.162954707494998,"51":3.8246283370842544,"52":11.649497740989986,"53":22.16614105253913,"54":10.374506863578661,"55":0.25995450936712505,"56":0.21364594352774843,"57":-0.1018078082067652,"58":-7.93275361903097,"59":7.613931617636777,"60":15.646560550913602,"61":20.187202383686863,"62":4.404717897837191,"63":1.1554993807676202}},"15":{"bias":0.07266211213757072,"weights":{"0":-0.012760493252426397,"1":-0.11496287252707693,"2":0.038693916265116896,"3":0.18726985512244043,"4":0.16569613830242058,"5":-0.1623445438831687,"6":-0.09708664279021538,"7":-0.15925653029044962,"8":-0.13723658293180951,"9":-0.08490401469455972,"10":-0.03610434736579002,"11":0.2845968486445414,"12":0.2753459364085022,"13":0.008999538074795449,"14":-0.045617285855263236,"15":0.07835852459757962,"16":0.18490512369330855,"17":-0.013574656699331455,"18":0.17765756056010915,"19":0.5016244352140025,"20":0.1612559288598341,"21":0.2681707847347892,"22":-0.11493762733245906,"23":-0.13657059744384425,"24":0.09082775491958343,"25":-0.11149209787118826,"26":0.2573648636999321,"27":0.0813909720744382,"28":0.04823097895436576,"29":-0.11362365282125904,"30":-0.21968402504968773,"31":0.08655856382327332,"32":-0.035737000685185205,"33":-0.0363103150827528,"34":-0.07658817128384111,"35":-0.03957708132449037,"36":-0.04341947427520501,"37":-0.06976505881217945,"38":-0.19190974641686567,"39":-0.11067945268005133,"40":-0.004262245925525912,"41":0.15210062977055216,"42":0.034351112219843126,"43":-0.006929779068246879,"44":0.13558918980692977,"45":-0.12376028285665154,"46":-0.02945975948790612,"47":0.08155246442659428,"48":0.1380850252236958,"49":0.03475160129388807,"50":0.3970478500819344,"51":0.10018764572606997,"52":0.4821619933779806,"53":0.022806736419846905,"54":0.015145799372195286,"55":0.15195073859431082,"56":-0.18035842956710957,"57":-0.060517992758185445,"58":0.10913473316109526,"59":0.12982241416917517,"60":0.4093340063436527,"61":0.14251619567511417,"62":0.10363665135742495,"63":-0.07320566677765311}},"16":{"bias":-0.25072282687463043,"weights":{"0":0.0029778174124658052,"1":0.02531736862039697,"2":3.0372708946222073,"3":1.8709481062387394,"4":-2.0870883737440713,"5":-0.9315910729911039,"6":1.7410210228030985,"7":0.2934473891230464,"8":0.03084116764099053,"9":2.7269004402742065,"10":3.4484336133641436,"11":-1.5819050725882788,"12":2.068495600613931,"13":-1.0850744710620972,"14":0.18432515873122293,"15":0.1380191565483526,"16":0.064266796573605,"17":1.5102341166446513,"18":-6.271930541409404,"19":-6.718247488197738,"20":2.1356150447360926,"21":-3.1859645626926527,"22":-0.22147796528503558,"23":-0.09191459972818039,"24":-0.10878696610287568,"25":-0.9371685179385243,"26":-7.946212087146816,"27":-5.028347539590832,"28":-1.5445334020740364,"29":-2.5912875525956407,"30":0.9451747868738815,"31":-0.042851776015327726,"32":0.055762714240700006,"33":-1.694831214240925,"34":-6.095308320138255,"35":-2.9113596213401762,"36":-2.744074936691997,"37":-3.6497499394708877,"38":-0.9209058953629503,"39":-0.1738741301931441,"40":-0.005070774569967774,"41":-0.5550089400016609,"42":-8.132625611238353,"43":0.6097809768278064,"44":-4.135744175627756,"45":-4.17002675912471,"46":-2.4320541258058066,"47":-0.17177342752774818,"48":-0.09207006700961924,"49":0.39986833333708105,"50":-2.1143815883088943,"51":3.169008015633005,"52":-0.5942979239621866,"53":0.30086544819114924,"54":0.5839735613972865,"55":0.5305702317293273,"56":-0.05401141503015796,"57":0.4217371605436555,"58":4.283833369021252,"59":0.5812173426535601,"60":-5.255277827569309,"61":-1.7093246118699383,"62":2.0298954918138143,"63":1.7820952073476979}},"17":{"bias":-0.12364917515818678,"weights":{"0":-0.04888656875118613,"1":-1.0738609117502382,"2":-3.642189885630927,"3":-9.404364537312732,"4":-8.923749015918888,"5":7.234117352339908,"6":5.093457159532434,"7":0.5390367659990786,"8":-0.44196911030379443,"9":-7.085235132081086,"10":-13.255490736682297,"11":1.8162045518839958,"12":5.541378797419312,"13":-7.214798958794956,"14":0.35303860849403396,"15":1.129701898963649,"16":0.11051294582935646,"17":-0.9264699330723921,"18":1.976706482088096,"19":17.57473762643071,"20":11.40812883332849,"21":-9.645928335034922,"22":-0.5327363855862464,"23":0.7488910387858777,"24":0.022463376753384424,"25":4.483993806863231,"26":5.303762517474999,"27":-3.177099976148374,"28":1.2926461882385356,"29":4.0279614170506965,"30":2.1250912591980544,"31":0.20718067890267378,"32":-0.1363486128859222,"33":6.730209660414,"34":4.998552081230992,"35":-5.55165604135142,"36":9.792601995604993,"37":9.781508149917968,"38":1.4216538079362984,"39":0.1929867313243449,"40":-0.10248591886125552,"41":3.304853560657129,"42":-11.996346749862504,"43":8.492681443985775,"44":14.565462812662966,"45":-5.71657258593742,"46":-9.859795861462418,"47":-0.1766630726203211,"48":-0.14960844397520812,"49":0.00803208120241712,"50":-13.469901125508262,"51":0.7591271870511168,"52":6.702277777814425,"53":-14.064742893689587,"54":-8.882327743564673,"55":1.0993530471814719,"56":-0.19371594623398278,"57":-0.7484719285166227,"58":-2.8632368926467935,"59":-8.838617901726135,"60":-5.515669402951786,"61":-0.9487660246624803,"62":-0.42280976547134064,"63":3.9512201970505423}},"18":{"bias":-0.10829171203780415,"weights":{"0":0.13109328178688884,"1":-0.042466127362462205,"2":0.699278511693791,"3":1.2228191552009322,"4":0.5979563934597647,"5":0.644540512427159,"6":0.6318701820097831,"7":0.016063523600514936,"8":-0.12394106114532302,"9":-0.16217182230768548,"10":0.5918767086202138,"11":1.037385921552231,"12":-0.11647348251609063,"13":-0.15641448294292012,"14":-0.8462043133669347,"15":0.034109729807363945,"16":0.05772770663547079,"17":0.5794506404588201,"18":2.164741226415775,"19":0.8803802142662297,"20":-1.7883860265076121,"21":0.4513836252921443,"22":0.0010614731056732757,"23":0.043871640703551346,"24":-0.0010228000591396996,"25":1.2018621873327575,"26":3.8922087275889434,"27":1.5492596747989982,"28":-0.4279051147691198,"29":1.0313627781912074,"30":1.1664921396294154,"31":0.17087320136859194,"32":-0.08785088881850243,"33":1.3600543966287206,"34":1.8329929679727317,"35":0.03364053374732169,"36":0.3175343196868009,"37":0.634006804199414,"38":1.0681197465383447,"39":0.15183900548145174,"40":0.04332373580134423,"41":0.185248932789829,"42":0.16646816352930038,"43":-0.6886592874234742,"44":1.657643060158829,"45":1.2506363850527689,"46":0.6278039353493747,"47":-0.12804332625700787,"48":-0.1366227002137503,"49":0.015552261798609813,"50":-0.29697487173025655,"51":-0.43600496250414494,"52":0.975838906437943,"53":0.12829717647160424,"54":0.18855410572124354,"55":-0.06119222734246095,"56":-0.11552718572683772,"57":-0.07547931082369555,"58":0.5357589967465872,"59":1.0855708936068564,"60":0.8303774269206174,"61":-0.3588585549713487,"62":-0.3988536747185194,"63":-0.11376449233329858}},"19":{"bias":0.07505429422784439,"weights":{"0":-0.16778763178735973,"1":0.0940650093905758,"2":-1.1387860923319475,"3":-1.0004594718589632,"4":-1.1912970601904653,"5":-0.5181557830307976,"6":-0.30480310721225523,"7":-0.15641846753496022,"8":-0.08594348637935705,"9":-0.48586848339596517,"10":-1.552035924935557,"11":-0.7097102151256831,"12":-1.0642477310737561,"13":-0.976299879099771,"14":-0.23886506904711727,"15":0.041188610187308745,"16":-0.1363921285247188,"17":-0.4180075873978113,"18":-0.9922737631467503,"19":0.3385189332481891,"20":0.1905840141003679,"21":-0.023976382530467827,"22":0.039060036878786085,"23":0.047848004965492706,"24":0.18572391195316576,"25":-0.7340145636828284,"26":-1.0529278043311419,"27":-1.0244748955261176,"28":0.14774136314337113,"29":0.22049064060428086,"30":0.21235837687904688,"31":0.15723181524839924,"32":0.024669488612562407,"33":0.1055203659010203,"34":-0.5938039168092223,"35":-0.47895355242621385,"36":0.5160684300382147,"37":-0.2186774549323357,"38":-0.34864724564421995,"39":0.17288541663438084,"40":-0.1537272599445222,"41":0.1700430441437043,"42":1.0011096087277187,"43":1.4472001025048133,"44":0.17756846270684198,"45":-0.8092972337039738,"46":-0.5147258147749855,"47":-0.09566072504380044,"48":-0.1304621544457548,"49":0.2426038941775355,"50":0.03297173084553505,"51":0.12308288310967043,"52":-0.9383279684122405,"53":-0.362054026889848,"54":-0.21550497748864345,"55":0.06742972633484279,"56":0.17666290555920883,"57":0.11739435022970691,"58":-1.1325272640123973,"59":-1.282172505942829,"60":-0.6013695076283484,"61":0.2944185807826198,"62":0.24182843738774273,"63":-0.030433061196503616}},"20":{"bias":0.03581213222265365,"weights":{"0":-0.1406071623787284,"1":0.1701571503954161,"2":0.6825667949684977,"3":0.7262869270855761,"4":0.5008143820773844,"5":1.0554537875220527,"6":0.3523759669356716,"7":-0.07600165881504854,"8":-0.1666330093913706,"9":0.32618268416747287,"10":0.8965554951641274,"11":0.19715039228121156,"12":1.4061764023023398,"13":0.770412496603836,"14":0.09364032729110228,"15":-0.2301198771827622,"16":-0.12351769246471118,"17":0.26201598257116,"18":-0.3219044961903257,"19":0.5334194943662901,"20":1.520827532935798,"21":0.38524165580839376,"22":-0.017593491806529228,"23":0.04290881402995592,"24":0.19553559347810165,"25":-0.36208770719654315,"26":-0.3228472113853781,"27":1.549815480171469,"28":1.6907283624459433,"29":0.29458050574594774,"30":-0.9331412911900712,"31":0.11691137523075702,"32":0.12654718765988948,"33":-0.35265804175001253,"34":-0.490779386673486,"35":0.7106274746330286,"36":0.4112937552510327,"37":-0.7369161556228747,"38":-0.5324607046934198,"39":-0.14717908734455706,"40":0.1707809794400759,"41":-0.5158189642652228,"42":-0.4018833552758835,"43":0.604125074284073,"44":0.5235355352165755,"45":-0.2890856347835438,"46":-0.46825148735273947,"47":-0.1547689839604995,"48":-0.0029345968573968287,"49":0.060848810431470945,"50":0.1687223871049417,"51":0.8194626066666735,"52":0.6759335971832686,"53":0.299964900437244,"54":-0.2491330757851533,"55":-0.019625560045294508,"56":0.17076662657026387,"57":0.05670935877640085,"58":0.7474506225976806,"59":0.4521459181122337,"60":0.28542908201460593,"61":0.20700090515376904,"62":0.12672889804925272,"63":-0.05577407336131263}},"21":{"bias":0.10201407276948932,"weights":{"0":0.12154938764870166,"1":-0.10740226624716682,"2":1.1339184907117967,"3":0.011592020988863123,"4":-0.8763241109187547,"5":0.4915972402406398,"6":0.36232734011025985,"7":0.12626483732043645,"8":0.10340871330083054,"9":0.5989115696626537,"10":0.7257080249823892,"11":-1.330067039413933,"12":-0.2042689104872103,"13":-0.9433039347311647,"14":-0.3159527251407767,"15":0.1187581524500214,"16":0.021646072971596205,"17":0.5430824862482677,"18":-0.8715757158245572,"19":-0.8942311643329502,"20":-0.33556514577743235,"21":-2.1596105855835748,"22":-1.3626165773158312,"23":0.11671663998047908,"24":0.1922360230127146,"25":-0.11993793346851758,"26":-0.7123679490598457,"27":-0.5182098484234353,"28":-0.05141434698086981,"29":-1.1291445547864056,"30":-1.0151151987249403,"31":-0.20009602550628963,"32":0.17658809116110208,"33":-0.8629310740775605,"34":-2.1680109112649113,"35":-0.6858199773291052,"36":-1.2419386357405047,"37":-1.78335130734004,"38":-0.9532529369645882,"39":-0.08636012133210898,"40":0.0027599337377298863,"41":-0.8968862711926573,"42":-2.5516677860334176,"43":-1.3246505848455148,"44":-1.5374527440379135,"45":-0.9442371573200062,"46":-0.6513648339883364,"47":-0.18917792113688645,"48":0.16216272156892145,"49":-0.09833240559343304,"50":0.04556953545685415,"51":-0.28843029782291424,"52":0.227236544583046,"53":0.2965483961940709,"54":0.2876604378200463,"55":0.0646398547734951,"56":0.10810512215928386,"57":0.22831180810965998,"58":1.4306676859903074,"59":-0.1780720477122983,"60":-0.7398778218808831,"61":0.10814129289932982,"62":0.30823011910187936,"63":0.31465949285898237}},"22":{"bias":-0.19353801969437326,"weights":{"0":0.10270985662937165,"1":-1.436136436067301,"2":-7.01003171139977,"3":-8.052031118689886,"4":-9.747065211881809,"5":-8.55260128402477,"6":-9.081699282712071,"7":1.0362802412255983,"8":0.01525648796961657,"9":-0.8082029288246174,"10":-8.54361029052007,"11":-5.261518742864872,"12":-11.321831755917158,"13":-5.034674963274018,"14":-4.4649621023783705,"15":1.7463620330662326,"16":0.030426568777065333,"17":-7.026220970691445,"18":3.9508302219947247,"19":6.971465570898592,"20":4.175192886189886,"21":-2.099139907364243,"22":5.460474068085899,"23":1.7311626161244127,"24":0.22351830055940342,"25":-8.879707210903263,"26":-7.805242622551386,"27":-5.995418461238616,"28":6.702005245543807,"29":7.627173402192551,"30":3.2709010169792836,"31":0.11710617509206495,"32":0.14943657927215098,"33":3.1000396156772303,"34":0.6277358274123306,"35":13.377078639083859,"36":17.599998033148168,"37":0.014255745551416494,"38":-9.343854307864019,"39":0.13472971823066476,"40":-0.03905105713883015,"41":2.6845054742831804,"42":31.28111234360667,"43":37.66347671356489,"44":8.995106227717402,"45":-9.5473044816817,"46":-16.164027243505284,"47":0.1569507740678033,"48":-0.21649211257304007,"49":0.570369524538483,"50":5.533792635734556,"51":7.267036932040329,"52":0.6308785327007385,"53":4.996574319651203,"54":0.2874947033827886,"55":1.8465336412506284,"56":-0.10039871538068734,"57":-1.644878915301649,"58":-8.846416172817541,"59":-10.160321852538255,"60":-1.5564894536038676,"61":4.038748399746828,"62":9.347165027215652,"63":8.962193544947127}},"23":{"bias":0.3431235869569265,"weights":{"0":-0.06462950864806771,"1":0.5506572033424817,"2":3.3185100220138617,"3":6.465975414668362,"4":1.4826275992354239,"5":-5.073355036778951,"6":-4.106938899686383,"7":-0.3542063316287751,"8":-0.09723363737827931,"9":4.60472531652162,"10":5.338125502009986,"11":8.651167142831314,"12":7.276347975408862,"13":-3.671072645781568,"14":-4.176295268523422,"15":-0.4507631232717764,"16":-0.18227123370505846,"17":3.470846970224021,"18":3.727564381609408,"19":-3.6495934384966384,"20":-1.9840346829319413,"21":-5.960274515774455,"22":-1.824037150949417,"23":-0.006984371870678174,"24":-0.17347610408766923,"25":3.0385159277480596,"26":0.037894177334769845,"27":-15.728902362814772,"28":-7.613987823912311,"29":-5.1797208567967346,"30":-2.2418847625958436,"31":0.17016018974080768,"32":0.07874029679223893,"33":4.138970875829582,"34":2.7052879284565265,"35":-2.4648339768207452,"36":2.181965056084261,"37":0.40997611397484013,"38":-0.5814493304957542,"39":-0.07994828447699548,"40":-0.21431361267408708,"41":0.13991211069138304,"42":7.926013399058841,"43":4.680210046631276,"44":-11.025488155077952,"45":-2.273369912291036,"46":4.319359512540457,"47":0.3501593950014057,"48":0.0816935813768846,"49":1.4775147606425576,"50":10.633907573026347,"51":17.27256021303188,"52":9.471137063532591,"53":10.410352480437789,"54":5.948414472708141,"55":0.17307745012122022,"56":-0.10428461098793299,"57":0.8648372525044522,"58":5.6628443999726175,"59":5.1937604949813805,"60":6.003211411832914,"61":10.250247690002487,"62":9.788839184860766,"63":2.777033241423585}},"24":{"bias":-0.12984798645417756,"weights":{"0":-0.17071516765281558,"1":-0.12779055163944256,"2":-0.12909650976851236,"3":-0.15419523529091675,"4":0.07610552333359559,"5":-0.2957049436864261,"6":0.16731965214180974,"7":0.15793156689167953,"8":0.047342808385333224,"9":-0.41422182070313285,"10":-0.21432522005259272,"11":0.09462173871404753,"12":0.3609722998483323,"13":0.47656673214286077,"14":0.5693142058381728,"15":-0.07755558739088723,"16":0.024742235603115777,"17":0.04823857786659271,"18":0.052960407099597026,"19":0.5509986460095121,"20":0.48200151210652425,"21":1.0678975692951949,"22":0.6244333273891011,"23":0.04756641021246605,"24":0.0942633200979686,"25":0.03083877966248241,"26":0.7610006642112574,"27":0.8594591320190792,"28":0.7542517379451654,"29":0.6099553777151246,"30":0.599805536476152,"31":0.004116171278865327,"32":0.1708454881794751,"33":0.3919779498827225,"34":0.3502771482268857,"35":0.6082413064837419,"36":0.19526583486873306,"37":0.6869475968754218,"38":0.43139751517366726,"39":0.05321735804900529,"40":-0.175355079949926,"41":0.2682381974713619,"42":0.26957580439727286,"43":0.012876729109444533,"44":0.46919070828242776,"45":0.6757362736077062,"46":0.146864771307983,"47":-0.1920075195094094,"48":0.15348775158706143,"49":-0.11186915154890328,"50":0.08202573764417052,"51":0.10743951087331673,"52":0.06149586554557195,"53":-0.03165715121579769,"54":-0.1468040671277246,"55":-0.0677753299200201,"56":0.10728434470122168,"57":-0.003795801863939157,"58":-0.06400044147129623,"59":-0.08487872880988577,"60":0.3608766758958272,"61":-0.11296526727155672,"62":0.10988832336686703,"63":0.1910921235200191}},"25":{"bias":-0.2409300048714249,"weights":{"0":-0.19706955272704363,"1":1.0839563431515205,"2":4.797873864516083,"3":-6.332396924970105,"4":-0.7683613775788435,"5":1.000243944811515,"6":-3.355120914745878,"7":-6.3244932191046495,"8":-0.13718769904049358,"9":-2.2148744267152494,"10":-2.194779158053161,"11":-0.22311495881618362,"12":-5.679482518473036,"13":-10.801333341149716,"14":-9.138092842681367,"15":-4.193125619367393,"16":-0.03268692678912556,"17":4.680946688741482,"18":15.977560233857162,"19":6.565118269104313,"20":-20.195015105565254,"21":-18.899360288026724,"22":-14.666667787516385,"23":-0.5524327679959595,"24":0.06542869550615908,"25":11.607222839580595,"26":15.82563057616321,"27":-2.3949356287108725,"28":-9.80598979191063,"29":-11.02042293117418,"30":-0.8302833815903558,"31":0.08224344274997436,"32":0.09742106283083557,"33":10.437304606324382,"34":12.531273765127139,"35":-10.413343493727343,"36":-11.923185893468322,"37":-0.2903233823825399,"38":6.91952838791906,"39":-0.0956297135911882,"40":0.06367128967194083,"41":4.766912066475395,"42":12.554488993771441,"43":1.0290944449772073,"44":4.217068871138854,"45":3.725822312529271,"46":0.7244228424883052,"47":0.4850444071358071,"48":0.11042256764624718,"49":-0.255867368361199,"50":2.0728976232357432,"51":1.3208227247577642,"52":6.105651050394814,"53":0.8536224544659956,"54":-2.9827000761016995,"55":1.1597081309414596,"56":-0.07322682531997578,"57":1.4672523809215925,"58":2.0371309021456225,"59":-3.171756499640066,"60":3.2879948142289193,"61":-0.4792563730754374,"62":0.9365202228954761,"63":-0.07092523977680303}},"26":{"bias":-0.031076670798179967,"weights":{"0":0.09035331113263967,"1":0.04274622058062151,"2":-0.009580220452495222,"3":0.5337188758777948,"4":-0.31043247308905475,"5":-1.5329323265693189,"6":-0.6815451665324326,"7":-0.05951768479923133,"8":0.12334341600729447,"9":-0.11081627399221856,"10":-0.13003820696666243,"11":-0.29900537548536643,"12":-0.3695568904558103,"13":-0.48400794353838217,"14":-0.16385277943287135,"15":-0.02421728243089559,"16":0.09013116448838905,"17":-0.1785610678999901,"18":-0.19012744461166242,"19":-0.4799187942198264,"20":-0.03278614263697408,"21":0.9653257444517974,"22":0.25138539760928086,"23":-0.01898547048134103,"24":0.13110186979773059,"25":-0.5563917747447191,"26":-0.9194379830927982,"27":-1.2478356946098719,"28":-0.4310071306707299,"29":0.25204680545358804,"30":0.7595138322305798,"31":0.12645952250699466,"32":0.19718573596328498,"33":0.08502780344386399,"34":-0.43723068967341405,"35":-0.1861723212437704,"36":-0.46840366789462845,"37":0.1646511776799876,"38":0.4863493979493641,"39":0.04395650709047913,"40":0.15142968936907336,"41":0.5728306890189546,"42":0.5706251010031879,"43":0.3377831055127198,"44":-0.3138228830464943,"45":0.03581192496474203,"46":0.33576366534529695,"47":-0.07665366199164352,"48":0.004072323339877304,"49":-0.13771662127710133,"50":-0.1885784073415046,"51":0.11358525410399747,"52":-0.8355042463452377,"53":-0.7947787159243482,"54":0.1129799633729446,"55":-0.002345907690166528,"56":-0.11232336938102551,"57":-0.17277860941787115,"58":-0.2252936124555719,"59":-0.19083928549447912,"60":-0.7221668787632123,"61":-0.18759856921235027,"62":0.06393952729124476,"63":-0.020642345225353888}},"27":{"bias":-0.03137554587185837,"weights":{"0":0.11302684219554066,"1":0.041731474346411584,"2":-0.025315737232041165,"3":-0.19609840226892644,"4":-0.6446071443664447,"5":-0.2826901000404022,"6":0.009642821241391352,"7":0.053670419618991244,"8":-0.012902633985047936,"9":0.11341663179874892,"10":-0.1448548207809396,"11":-0.27052459572137455,"12":0.09844725896987493,"13":0.009300749090883973,"14":-0.13911226742691496,"15":0.015743437363536915,"16":0.19092118463471427,"17":0.10461728363738869,"18":-0.19035601283549955,"19":-0.24801440680281864,"20":0.014639816401936083,"21":-0.031855948115515065,"22":0.1052917592830994,"23":-0.007058161855725966,"24":0.14258209608773148,"25":0.11349360426517126,"26":-0.1566932365229624,"27":-0.4433614358495953,"28":-0.3972607483969328,"29":-0.0557118270190861,"30":0.22859964228401658,"31":0.09688837700154376,"32":0.1887326642870903,"33":0.20372510912316655,"34":-0.024508593905746293,"35":0.06705884933683326,"36":-0.46430648964388754,"37":-0.6661646743129328,"38":0.19498727437610322,"39":0.06305730873718857,"40":0.14581222677669733,"41":0.013274739255856035,"42":0.1573590074865849,"43":0.4900863759413711,"44":0.008906477134231976,"45":-0.47977147500690315,"46":-0.5418196131658627,"47":-0.05885170580298432,"48":0.049966672613988905,"49":0.15684887475942763,"50":-0.1395152544355253,"51":0.25275813894663646,"52":0.21901213262396135,"53":-0.3283752916607529,"54":-0.37932140698219746,"55":0.15019565818442876,"56":0.10610931206061404,"57":-0.16383362166284504,"58":-0.2312003789601146,"59":-0.13185029727745323,"60":-0.08516485904739036,"61":-0.39860459950605015,"62":0.07057191432011319,"63":-0.03681682863667582}},"28":{"bias":0.1384612339292889,"weights":{"0":-0.1187972515821457,"1":0.2048934206260343,"2":0.010909002277558023,"3":0.2949609618006297,"4":0.024529821585218957,"5":0.5621320601345551,"6":-0.6724311918188167,"7":-0.07345418952777075,"8":-0.19428863438009794,"9":0.30265085350000176,"10":0.9230285521486722,"11":0.45411622908201815,"12":1.9868163944376511,"13":1.1180269510176866,"14":-0.15238107971140838,"15":-0.0811299800505496,"16":-0.11908043890351638,"17":0.26693079503345113,"18":1.1003812226743344,"19":1.7235356907992265,"20":4.2576379161374005,"21":1.1491800794707852,"22":-0.5350533969858212,"23":0.054942097242952126,"24":0.18349498513177942,"25":-0.2316671206809224,"26":0.05924087772407529,"27":2.226087976862118,"28":2.6448004599226658,"29":-1.31003578132828,"30":-1.9411248657986808,"31":0.07356403070959835,"32":-0.01808671178296209,"33":-0.49076087732738277,"34":-1.096710367879022,"35":0.6058257605936367,"36":0.27001343640478737,"37":-1.7058103277691432,"38":-1.206804467904322,"39":0.0013820871710777394,"40":-0.019523912955750768,"41":-0.3856479670039098,"42":-0.3360250981248008,"43":0.8305876332380525,"44":-0.05331179401382736,"45":-0.21454230572982186,"46":-0.36634678467337667,"47":-0.06516445825422656,"48":0.008041108398991475,"49":0.08263241597527478,"50":1.3546468022738263,"51":0.10798671311565533,"52":1.5247831389754203,"53":1.344195823487087,"54":0.730282861092856,"55":0.23829269538368272,"56":-0.10822397836685486,"57":0.20576602886078862,"58":0.31828932806739685,"59":-0.1627426844467565,"60":2.6520489728204706,"61":1.9572752254129806,"62":0.636740377281287,"63":0.11370696300857557}},"29":{"bias":-0.11840703582605644,"weights":{"0":-0.05279164249077439,"1":0.09537206603463104,"2":0.27760952366686836,"3":0.25738875186574656,"4":0.46501586593373845,"5":3.0862597376262304,"6":1.0867125209883188,"7":0.34099120222496,"8":-0.09537930266961257,"9":-0.08400524889601574,"10":0.9240639191685602,"11":0.07986598595342215,"12":-2.2622401869430058,"13":-1.410097527435386,"14":0.49529126022149,"15":0.44351444340781454,"16":-0.03973932332991549,"17":-0.43420286997390095,"18":-1.6864504627647976,"19":-2.6904166151809443,"20":-3.2300461515950096,"21":-5.368102531720767,"22":-2.2365081301179943,"23":-0.06844008297808174,"24":-0.1780167264192122,"25":-1.0832144517977484,"26":-4.122174426754826,"27":-1.6340180074093218,"28":-1.4476138312512263,"29":-5.464468626508953,"30":-3.4076542111827015,"31":-0.054572292762927035,"32":0.04506986290216447,"33":-1.391489788806639,"34":-0.29295885206013267,"35":0.10164731654927707,"36":1.4498302045976221,"37":1.0563253273621995,"38":-1.8436762700242042,"39":-0.06871123928576708,"40":-0.10379655730123102,"41":-1.1499899614873828,"42":1.3886100476954313,"43":-0.9389719478470145,"44":-1.8532384471010956,"45":1.1337776869784943,"46":1.662329568152439,"47":0.0028012480836841526,"48":-0.06323540161665483,"49":-0.135804998327516,"50":0.12211250954933818,"51":-0.24793413429025218,"52":-2.135254511737057,"53":-0.32345191499110104,"54":0.9167243769627549,"55":-0.26392041012215456,"56":-0.05800334970557621,"57":0.20927342547038646,"58":0.770504430962671,"59":-0.014349394587902449,"60":-1.99882801877048,"61":-1.465868232745915,"62":-1.4308322952251535,"63":-1.0304640250330026}},"30":{"bias":-0.12783658227703984,"weights":{"0":0.1124179014004767,"1":-0.1884826619506759,"2":-1.854366390025604,"3":-2.1896251130120885,"4":-2.6405898833698402,"5":-2.6324458903601498,"6":-1.296236330573452,"7":0.19389660710765222,"8":0.19609908972024284,"9":-0.6716315707237414,"10":-2.3452587714962445,"11":-1.6592109139456594,"12":-3.2835073233861145,"13":-2.922099675705152,"14":-0.44075340909758604,"15":-0.06332329489062584,"16":0.14724971060507083,"17":-0.8176337892030999,"18":-1.0663683469812686,"19":0.0070953074473079115,"20":-0.7027359175991441,"21":-1.7423546785929365,"22":0.06580104086010778,"23":0.06777229589366236,"24":0.12729742512428185,"25":0.31027259123954076,"26":-0.17704653037490733,"27":-0.9809036820248461,"28":-0.4757331119374601,"29":-0.8224823252102358,"30":0.053952910070498114,"31":0.10380826485170047,"32":0.15360554317012431,"33":1.1269068033567216,"34":0.41590189822737694,"35":-0.0029330128763018094,"36":1.5774072259325105,"37":0.8785857307688973,"38":-0.28743875607533337,"39":0.18896829048171643,"40":-0.029834342415303618,"41":0.7101029194187516,"42":0.49888035124758834,"43":1.0603076218881364,"44":0.6825732003171724,"45":-0.6180642078282209,"46":0.31771908251906145,"47":0.057490304261878705,"48":-0.15362292822955692,"49":-0.038623159352876225,"50":-0.2975332903695709,"51":-0.37883261548224967,"52":-1.4286702649064191,"53":-1.3339296853958857,"54":0.995085326718694,"55":-0.17774393015745385,"56":-0.12793512661854492,"57":-0.139880933078497,"58":-1.936814128683599,"59":-1.6200236772390213,"60":0.0029946998620195273,"61":0.7064198000382611,"62":-0.002428141489688682,"63":-0.16191212435569902}},"31":{"bias":0.1426558312606644,"weights":{"0":-0.061997351143509155,"1":-0.04173166476070066,"2":-0.1938339302874057,"3":-0.4154322667381354,"4":0.1277984087790345,"5":-0.10516087408158585,"6":0.15494918229438512,"7":0.12808239898962007,"8":0.13713052599111378,"9":-0.18725537213397023,"10":0.02922317637164225,"11":-0.6162001947272582,"12":0.03392252908132594,"13":-0.1178524802074424,"14":-0.33311386459791603,"15":-0.11985953170593715,"16":0.1510028678633832,"17":0.30246512562140027,"18":0.4234433772803371,"19":-1.032019013301826,"20":-0.39620571251160236,"21":1.0018343635278053,"22":-0.15656437013146376,"23":0.11524063540810245,"24":0.059243106347643015,"25":0.1431117027525474,"26":0.03823162834366425,"27":-0.536376245835316,"28":-0.6698964783807414,"29":1.0006093732005743,"30":1.1386153221340525,"31":-0.18168903998860014,"32":0.11334048891440035,"33":0.15956592472610598,"34":0.022325069871890348,"35":-0.16671934560247414,"36":-1.2249128433620966,"37":0.08922679530342593,"38":1.1311278696552896,"39":-0.12503879964351655,"40":-0.1042569914904182,"41":0.2087221920413949,"42":-0.4669656534481908,"43":-0.3823931840158279,"44":-0.5687350864124792,"45":-0.7027269582404324,"46":-0.16718211987414522,"47":0.15361877115053924,"48":-0.12554981089664027,"49":-0.2358559355036195,"50":-1.1443885427897356,"51":-0.8705791404031963,"52":-1.1194277697308497,"53":-2.0599487871581124,"54":-1.5437535053561608,"55":-0.4782588921048156,"56":0.01334617852427581,"57":0.07639520051892394,"58":-0.27947328979903385,"59":-0.6156896772832032,"60":-1.2302865783753838,"61":-1.999145709841589,"62":-1.2411478034003054,"63":-0.5863906086258591}}},{"0":{"bias":0.8284298968182915,"weights":{"0":0.44713536818133637,"1":2.0531713904309585,"2":-0.9414549894881522,"3":0.6079763282332638,"4":1.1055069386702476,"5":0.48360001151153437,"6":0.22861619684258694,"7":0.14523683461463896,"8":0.24286011960861298,"9":2.503745368561783,"10":0.079736629293521,"11":0.6456217912899346,"12":-0.02555214100230195,"13":-2.597283503706512,"14":-6.697948465737102,"15":0.6017108799416966,"16":1.776994520880516,"17":-0.8260919453768925,"18":0.9339007387314644,"19":-0.943074421349209,"20":1.0945274903775335,"21":1.1848901935353964,"22":-7.010765520792146,"23":-2.577837974109405,"24":0.3534604910341506,"25":-1.274792777750777,"26":-0.0726963644179522,"27":0.24644076446687643,"28":0.3053710754081965,"29":1.0413215036779584,"30":-2.235596529182995,"31":0.8475876610537725}},"1":{"bias":-0.882073258364211,"weights":{"0":-0.37147187613633414,"1":-1.7438617845327096,"2":1.4320107960116963,"3":-0.27388259731127823,"4":-0.4181075809462272,"5":-0.5861764664880197,"6":-2.2913684961272183,"7":-0.2105341784354496,"8":2.702773104762398,"9":-5.88347347801079,"10":-0.26680735076114453,"11":1.0660821315187823,"12":-0.0728566926706493,"13":5.98395104708286,"14":0.6296373762905119,"15":-0.5481735549171541,"16":-1.4564245502266713,"17":5.665931032093266,"18":0.15936641725756387,"19":0.17976594052765435,"20":-1.8522749048188225,"21":-1.7090491068913662,"22":5.757599739474426,"23":-1.4548116227958738,"24":-0.012964879588811588,"25":1.9331215231469527,"26":0.2805245506091452,"27":-0.4058699755273309,"28":-0.49565515796582,"29":-1.715374544049744,"30":2.490767332766983,"31":-0.8434333555211958}},"2":{"bias":-0.10001635142043493,"weights":{"0":-0.17830751036529446,"1":-2.355212524058858,"2":-0.9642644422960001,"3":-0.15303482966906445,"4":0.023452811607917762,"5":0.11188155158682375,"6":-3.8558342904130636,"7":0.4200022427503279,"8":4.065568095802968,"9":-0.28498621264391893,"10":1.3962387374231042,"11":4.11170036208302,"12":-0.7482284549482121,"13":1.150071979271486,"14":0.5513645947975847,"15":0.1389154353651538,"16":-0.8596945028736599,"17":-1.5008234147494852,"18":-0.09919987156519491,"19":-1.319521338283074,"20":1.0087063165381358,"21":0.6137687046742626,"22":-7.832107811507691,"23":-3.2228606615286846,"24":0.016208247061697448,"25":-1.8559555381176314,"26":-0.11106101315425561,"27":-0.953261021730665,"28":1.100001155191988,"29":0.6800321634788917,"30":-0.7125169854864302,"31":-0.15281914236261682}},"3":{"bias":-0.2965937825781773,"weights":{"0":0.14513387866544258,"1":-4.979169054309652,"2":0.7718335150670069,"3":0.04541009474812392,"4":0.9939304340545018,"5":0.10829071834511539,"6":1.0476515766428622,"7":0.2696772344640529,"8":-0.18683614656669068,"9":0.8958461210942021,"10":0.34071900013760387,"11":-3.23965259842922,"12":0.6035057976835729,"13":-0.3544030263494404,"14":-1.9445797190220113,"15":-0.43165183994196454,"16":-0.3065579417717702,"17":1.9218154684168554,"18":0.18080499853435375,"19":0.13477434550801343,"20":-1.03339079433833,"21":-0.7935960783746394,"22":0.5121009156227729,"23":-1.4004113478247822,"24":0.19028481064498945,"25":0.4906572504727828,"26":0.5314854740575977,"27":0.3561149427361933,"28":-0.5757556599298919,"29":-2.403137960601523,"30":0.23421376931790303,"31":0.32466288930985815}},"4":{"bias":-0.5373281437147729,"weights":{"0":-0.4750420714988087,"1":-2.1019149972267277,"2":1.6130141306563095,"3":0.49982866432826917,"4":-1.6519251474701158,"5":-0.5747035906128667,"6":-6.880712387371233,"7":-0.254104382846723,"8":-0.5907698636520811,"9":0.5101626379990454,"10":-0.37806914827016125,"11":-2.2683478841480134,"12":-0.2589216714029392,"13":0.5717630700856442,"14":4.757760927415309,"15":-0.23320061230851818,"16":-3.1419761645974713,"17":-4.35359605540924,"18":0.07566988144451746,"19":-0.24305261030359035,"20":-1.1711775590776405,"21":-1.4981044840137212,"22":2.0541317278370665,"23":2.1602490460152457,"24":-0.23956776636002647,"25":0.5063075276164055,"26":0.5813809505725389,"27":-0.35829599336524304,"28":-0.4031870871788355,"29":-0.10394686656687054,"30":0.11084115373971141,"31":-0.036441097590229635}},"5":{"bias":-0.35776339988285416,"weights":{"0":-0.5237496189365913,"1":-0.06875943445181959,"2":-0.8383067382975756,"3":0.2356730787118441,"4":-1.6107778901611842,"5":-0.859995986354732,"6":1.4577579788559045,"7":0.015111767878914021,"8":0.5994960627193346,"9":-3.1178703617792305,"10":-0.11582514669647982,"11":3.4013157209742757,"12":-0.3176126032713609,"13":-0.2502338124785248,"14":8.845129593303962,"15":-0.27230927487214457,"16":0.3955281857784223,"17":-1.0487422492963028,"18":-1.7091633170284948,"19":-0.34543403272723533,"20":0.33590827017442476,"21":0.9630716124439933,"22":-2.6591743766590574,"23":3.0166116684884026,"24":-1.1626391467066512,"25":-2.1057796654731846,"26":-0.5096495014410432,"27":-0.5100474146780581,"28":0.9063397243563537,"29":0.20230041795140774,"30":-0.18091090808638044,"31":-1.3678445066524392}},"6":{"bias":-0.1455228293258709,"weights":{"0":-0.4195240162334818,"1":2.1438518277690295,"2":0.909145466231325,"3":0.0972754338478167,"4":-1.37651584496726,"5":-0.2996294780369914,"6":-0.09687520951045028,"7":-0.12833900566313297,"8":-0.21907448650417097,"9":0.37886075066319763,"10":-0.727766190555565,"11":-3.4216739742165636,"12":0.08624445091876658,"13":0.13649346754161024,"14":0.02148771210100277,"15":-0.2597495264854072,"16":-0.41862983924641306,"17":-0.2928896291681244,"18":0.3624324028975549,"19":0.21100484352174054,"20":-0.9663454560565303,"21":-0.5172286118897469,"22":0.8899580531855555,"23":0.49222771941439675,"24":-0.1357563274086821,"25":0.9171234802806723,"26":0.22228404325681764,"27":-0.0441260067666404,"28":-1.0242359125970222,"29":1.2459020447083766,"30":0.48752467102174996,"31":0.03782628544647335}},"7":{"bias":-0.12515651659860727,"weights":{"0":-0.043919168816084035,"1":-0.3508491390730686,"2":0.8408038497864543,"3":-0.11365759426601049,"4":-0.40598531329736903,"5":0.03201510263226928,"6":2.457254806921453,"7":-0.1155496006677106,"8":0.48759818228582424,"9":1.7822349169284328,"10":-0.626053812144779,"11":-5.908228867913214,"12":0.5112242526083735,"13":-1.7410174021696625,"14":-6.758803896322985,"15":-0.12871292297907888,"16":0.6181120963879836,"17":4.6371350641777465,"18":-0.1979882687789637,"19":1.063732356867109,"20":-0.907190019160858,"21":-0.21105824297022657,"22":2.580011600965524,"23":-0.38140045827230445,"24":0.18634842470023072,"25":-1.5697076699758716,"26":0.46897841074478785,"27":0.3906404095089051,"28":-1.5568783902492898,"29":1.0082978136547702,"30":2.2587062610596154,"31":0.5747865417968878}},"8":{"bias":0.16409283179384762,"weights":{"0":0.08613436263850927,"1":4.08696600137431,"2":0.08558973290529295,"3":0.17964716262780042,"4":-0.8175307382503433,"5":-0.028434087474681166,"6":0.06015649298281531,"7":0.29122588153054435,"8":0.01818471846593825,"9":0.5550063648905061,"10":0.9792200972055204,"11":-4.168668751204797,"12":0.2332835410488458,"13":-3.0250947119006715,"14":-3.704454563180655,"15":0.034654266205174464,"16":0.8757378301702884,"17":1.191815426435669,"18":-0.10843312432086787,"19":0.7408937301157628,"20":-0.08872227702720771,"21":-0.07439447641455048,"22":0.3790318215003259,"23":-1.1749628702234172,"24":0.15335536034327724,"25":-2.798574514430994,"26":0.32466671158736515,"27":0.16613167078622107,"28":-0.808178777431426,"29":1.7475371074892891,"30":0.4321743252274258,"31":0.1655017169675412}},"9":{"bias":0.5525349208242142,"weights":{"0":0.2792968336024164,"1":1.6775337854089576,"2":-2.883575328380806,"3":-0.5625952514456851,"4":1.722865822029538,"5":0.6609173861133029,"6":0.7511692098121338,"7":0.8531768265729601,"8":1.3527660636415457,"9":-1.2253081013595564,"10":2.1508697303022153,"11":9.371150533291715,"12":-0.0919753298104429,"13":-1.752139239310132,"14":-1.1532861948809927,"15":0.18359884013710118,"16":2.9528784327515774,"17":-0.2150527394950539,"18":-1.2336838027430777,"19":-0.4676136073181846,"20":2.6876028334832496,"21":1.9247967621951076,"22":-0.5940563505389995,"23":-1.9189262959414344,"24":-0.037983456928084774,"25":-5.786882097978092,"26":-0.6764277116608876,"27":-0.10474439719029056,"28":1.4481218738154473,"29":0.603741127915658,"30":-2.4923389193410364,"31":0.1739401750428192}},"10":{"bias":-0.10775441196700075,"weights":{"0":0.8447839444286849,"1":-1.46257240708703,"2":-0.7248565703619408,"3":-1.4564944178573207,"4":1.9602269698755026,"5":0.37076675215855126,"6":-1.3188430095415404,"7":0.1723834484042519,"8":4.69707750386883,"9":0.5893013034398363,"10":1.2982832623088412,"11":0.8672434646017464,"12":-0.02942528383725475,"13":0.19724601517575882,"14":-7.022130507164313,"15":0.43940201377768495,"16":-0.5857411679367691,"17":7.485277963047076,"18":0.9609028816116119,"19":-0.33617889457526573,"20":1.3522952205245582,"21":-1.2253378209789252,"22":0.9326208977246395,"23":-6.284713676557382,"24":0.9850517067267434,"25":-3.521078941080286,"26":-0.8221810986136066,"27":-0.2928793873866772,"28":0.6223986681514966,"29":-1.3317653114779189,"30":-0.05045070550924703,"31":-0.19101229954836713}},"11":{"bias":-0.5852579882369857,"weights":{"0":-0.8669379184609345,"1":-0.49016390545172994,"2":1.929063379594334,"3":0.07070295638955647,"4":-1.8885421041077533,"5":-0.9269615102027693,"6":-0.9300822132758206,"7":-0.3370654429013611,"8":-2.8370095480509407,"9":0.3261025611570115,"10":-1.4001775831792582,"11":-7.926590528737222,"12":-0.03680106113744298,"13":-0.5719011846137714,"14":1.2082222973025998,"15":-0.6158677453417124,"16":-2.573936128005923,"17":-0.34522284027900557,"18":0.11217718654269757,"19":-0.018601578069538886,"20":-2.0372267677043703,"21":-0.7708179388330154,"22":0.8560058286130542,"23":3.2451084529879117,"24":-0.5689981672097809,"25":6.13574449256843,"26":0.4357986343740008,"27":0.2579279054974171,"28":-1.6289486253573433,"29":0.049738180997247264,"30":0.6378750645308211,"31":-0.1244424979129186}},"12":{"bias":-0.8859336398186968,"weights":{"0":-0.16755557305599558,"1":1.2500605841506676,"2":-0.4230121283991518,"3":-1.5745126381740515,"4":0.793441371884996,"5":-0.8105869179207982,"6":0.8350609358462617,"7":-0.835733383786462,"8":-0.07892956448684627,"9":-2.3378168268546586,"10":-1.601299814506464,"11":0.42897001277436503,"12":-0.5110427977373021,"13":5.216292025547298,"14":-3.2862434342081888,"15":-0.34356483715444147,"16":-0.5984962904009792,"17":5.543476800578116,"18":0.42185984339132754,"19":0.04888606782063559,"20":-0.731140897345991,"21":-0.2720692341633979,"22":1.2520347969594245,"23":-2.8467102893362006,"24":-0.8886639860149446,"25":3.5991176333781825,"26":-0.9657399893027426,"27":-0.17215001503561067,"28":-0.7575521498969164,"29":-0.5621434140566531,"30":1.6635294831729803,"31":-1.131707083942119}},"13":{"bias":-0.9463046007104189,"weights":{"0":-1.2423683275491397,"1":4.092505195212436,"2":-0.021169781494385413,"3":-0.7640373313762934,"4":-1.5100723944863226,"5":-1.2751903611288045,"6":-0.24142679624863372,"7":-0.8184079027762603,"8":-1.0440308631474324,"9":-1.9479595582083185,"10":-3.46850187008806,"11":2.750889406592678,"12":-0.6508909896119408,"13":4.519714020344755,"14":-1.0394780807595456,"15":-0.8040937003223433,"16":1.0849472160855695,"17":-2.268177394973438,"18":-0.3404827354451927,"19":0.21194448896178655,"20":-1.0535667260214565,"21":0.7572518823103837,"22":0.38339073445420074,"23":2.629376122110361,"24":-1.3611273790113,"25":4.996303241972556,"26":-0.2203965389056343,"27":-0.23158925765033597,"28":-1.3212184410028134,"29":1.8421646499295472,"30":0.5664352167294964,"31":-0.7847803223721941}},"14":{"bias":-0.6493054817251407,"weights":{"0":-0.5191017479047244,"1":0.5452601485822212,"2":1.3986001749630637,"3":-1.1923549271278067,"4":-1.2045985708818518,"5":-0.651790715733892,"6":-1.4639229096886173,"7":0.1711279098826585,"8":2.2649224214135644,"9":-5.917916454531864,"10":1.800969178863805,"11":-0.5360242777342215,"12":-0.3858289649954223,"13":4.027173064276105,"14":6.581406139842995,"15":-0.7621206553547109,"16":-3.081694976838133,"17":0.7975331279907022,"18":-0.07108559102347928,"19":0.34481179077509566,"20":-1.3882006633542583,"21":-3.3028645774657397,"22":2.8850834887294075,"23":-2.1735568580013336,"24":-0.005242604983696287,"25":0.027318182177395248,"26":0.21843930759014785,"27":-0.6675096957103627,"28":-0.5816986070876689,"29":-0.4491273300080706,"30":2.059098823385168,"31":-0.6418392550330018}},"15":{"bias":-0.2770817232568419,"weights":{"0":-0.644861982982368,"1":3.792799404271573,"2":-0.48008995184646996,"3":-0.28114598999075263,"4":-0.4126137148764388,"5":-0.852786917865146,"6":-1.9978848439767936,"7":-0.3418150228076348,"8":-0.39085683965353085,"9":1.0037689965108378,"10":-1.3067533515188854,"11":5.156324974709086,"12":-0.5438902178251546,"13":-0.2821946018736351,"14":-1.0919429034686292,"15":-0.20128409324760746,"16":1.4120014778107275,"17":-1.4679062349075211,"18":0.6422192166663605,"19":-1.3584509229153237,"20":-0.039826960947245305,"21":0.27401727155886135,"22":-8.808095893757976,"23":-1.6832969802352773,"24":-0.6731632673816261,"25":1.5462742092960666,"26":-0.525211979125511,"27":-0.6320245787918358,"28":-0.37425243478276793,"29":1.7893221075379997,"30":-0.7731534460375384,"31":-0.9137809089290085}},"16":{"bias":-0.6611768604614103,"weights":{"0":-0.5983165678080933,"1":1.9705639502076364,"2":1.2913108051029054,"3":-0.2740874315872983,"4":-0.3214619800382331,"5":-1.1859549624762424,"6":0.0783561001715369,"7":-0.5216557889797143,"8":-2.9558278204673853,"9":0.46490877426600397,"10":-2.8268461178601387,"11":-3.012584100952507,"12":-0.052881432405687864,"13":0.5964117522252808,"14":-1.2036672508401514,"15":-0.573346108988646,"16":-0.6832045599620403,"17":-1.7761743148757758,"18":0.8834565306490874,"19":-0.4488849288911791,"20":-1.6962570485984614,"21":0.47752367141079466,"22":-2.481616488462063,"23":3.74026904288954,"24":-0.617462672142617,"25":7.662774168409501,"26":-0.07502658090229983,"27":0.18876374668333265,"28":-1.5183071662594212,"29":-0.30469923236409696,"30":-0.34933437129269496,"31":0.309788273108599}},"17":{"bias":-0.6076344630108134,"weights":{"0":-0.7214082239906152,"1":-0.2640468837113316,"2":0.7577969562365892,"3":-0.6924099580185452,"4":0.7659840582831865,"5":-1.354227794836247,"6":0.07120915460045167,"7":-0.5488232024069047,"8":-1.2572224719924001,"9":1.8082008815650439,"10":-2.2703251928575234,"11":-0.915107031675682,"12":-0.2392074683895314,"13":0.06158188223502564,"14":-3.1708081853040664,"15":-0.2797680498035418,"16":-1.0107150606716133,"17":0.4502307493473168,"18":0.952974118855966,"19":-1.1659590325507672,"20":-1.4525377526277716,"21":-0.034438368442724694,"22":-6.6494683890025925,"23":1.7019784971277474,"24":-0.8193448378696724,"25":7.74889356332234,"26":-0.11581876555748315,"27":-0.1373666577944942,"28":-1.6727908506228617,"29":-0.17680149559654643,"30":0.14263997654873867,"31":0.3512203647218117}},"18":{"bias":0.10186752856100208,"weights":{"0":0.060010076801725674,"1":1.7500821346750728,"2":0.15506901189884503,"3":-0.07678529195013464,"4":-0.19604479979678138,"5":0.26659117036359903,"6":-0.33710564164248974,"7":0.08165645584199654,"8":0.7133838028062588,"9":-0.5473304227523281,"10":0.8603886090483288,"11":-0.7384057818720955,"12":0.14396936295005552,"13":-0.49846965257969755,"14":-3.733150039036042,"15":0.07405530367483928,"16":0.2820354092047861,"17":0.3184639738441329,"18":-0.16089218436512046,"19":0.2446056035700922,"20":-0.16641368910182155,"21":-0.3351948861858515,"22":0.6888939450211637,"23":-3.252939765648587,"24":0.16192058563818953,"25":-2.702984465996609,"26":-0.09743184555688068,"27":0.0639768953121501,"28":-0.10782552316048707,"29":0.07635925819610444,"30":0.548087321819061,"31":0.05513391924556497}},"19":{"bias":0.46426188797992024,"weights":{"0":0.6379230530112621,"1":-6.3121166125494526,"2":0.08791830621697125,"3":-0.016021474762968196,"4":1.7932616416259886,"5":0.8745308169207205,"6":-0.4131911269949041,"7":0.8542164786167108,"8":0.35832486259400176,"9":3.081688158062077,"10":1.1432257587905188,"11":-4.725642514712907,"12":0.6601251504305433,"13":-2.295392213475506,"14":-1.5379029975705423,"15":0.30746761216963986,"16":0.6298333716532202,"17":0.22620642302985622,"18":0.748104406055319,"19":-0.29585041739137463,"20":0.043754195032619334,"21":-0.5199037748344858,"22":-1.87717366694369,"23":-2.5076016845958518,"24":1.220507151694105,"25":-0.55723154943277,"26":0.563864537947622,"27":0.19585733956640666,"28":-0.3288138046151057,"29":-1.5971952675649261,"30":-0.01851539876395646,"31":1.2217931082717337}},"20":{"bias":0.0384448009169508,"weights":{"0":0.3083303532914222,"1":-3.7426248642868654,"2":0.6671376940071092,"3":0.336656781845291,"4":1.0526538492440949,"5":0.6943783552701931,"6":0.11860136722574809,"7":0.38869196497531167,"8":-0.03922917984017693,"9":2.576069806796432,"10":0.953916478527651,"11":-2.4650715065431656,"12":0.7935729291860044,"13":-4.2240950737585585,"14":-4.039880660133297,"15":-0.024839192848311733,"16":0.21909179634102616,"17":-1.05356214309917,"18":0.19816604032893337,"19":-0.3418486229524501,"20":-0.7909916849017414,"21":-0.6562554708790141,"22":-2.7419291641823675,"23":0.36723696975312514,"24":0.853404312182212,"25":-1.565704423490076,"26":0.8572579645671717,"27":0.3637691209078753,"28":-0.6705375632061271,"29":-1.736259693501003,"30":-0.038379181332949645,"31":1.0351357404730497}},"21":{"bias":-0.15437462060867435,"weights":{"0":-0.22875644803648976,"1":1.2321990440254709,"2":0.2846111701327736,"3":0.059177546023556724,"4":-1.500248530613704,"5":-0.21494625606416756,"6":-2.4607111054327753,"7":-0.15513028641627113,"8":-0.7924758550629118,"9":0.027093087908060844,"10":-0.2737555390970033,"11":-0.7709075649619269,"12":-0.25636831422695583,"13":0.7963180465464413,"14":1.1149210069451096,"15":-0.21693878142775536,"16":-1.8124410340965567,"17":-2.6327551993450635,"18":-0.3448641007219778,"19":0.056686335518016544,"20":-0.14361353036811902,"21":-0.8678701570355002,"22":1.26407727231909,"23":0.3042251647047477,"24":-0.14031958042008835,"25":-1.4788516262995814,"26":0.1491849855389175,"27":-0.4269496090607405,"28":-0.1634210048566575,"29":0.738966483383575,"30":0.24923157672788016,"31":-0.25973268114151016}},"22":{"bias":-0.21366262267655567,"weights":{"0":-0.78202910438458,"1":-2.946620587351929,"2":-0.23240999311092342,"3":0.6869483716475363,"4":-0.5653588944927447,"5":-0.1190652909265541,"6":1.0028493324508712,"7":0.684099128202224,"8":-2.762325806419172,"9":0.46229161209375574,"10":0.5278508215819802,"11":-2.0059251104210603,"12":0.16412561408994605,"13":-5.5952747355128585,"14":1.9271059362834642,"15":-0.3186872374717949,"16":2.5274029700881804,"17":-5.608291741029001,"18":-1.496019526879092,"19":-0.6354001820395254,"20":-0.3339937766761341,"21":-0.22712764819905465,"22":-7.277187898164162,"23":4.804781781864127,"24":-0.45008035861210327,"25":-1.353189638235132,"26":0.5053988327673596,"27":-0.0778697937236769,"28":0.5500930619349313,"29":-0.8786374155293077,"30":-1.5914511440730061,"31":0.33090806421963165}},"23":{"bias":0.9000723946055299,"weights":{"0":0.659946343744687,"1":-1.8071150378649374,"2":-1.368047813447399,"3":1.2329990640884052,"4":0.2806187066399896,"5":1.3924104544139375,"6":-0.539602658183498,"7":0.6581159834343894,"8":2.0791997340121067,"9":-3.0014133861597063,"10":2.1999499658190222,"11":2.6800515261597426,"12":0.2756472131263414,"13":-3.081772919539634,"14":0.8225199254011499,"15":0.5999073320481564,"16":1.8153149786282121,"17":0.5739872542265735,"18":-0.8639829453380805,"19":0.22046223724641603,"20":1.7587592118608726,"21":0.2672087383679398,"22":-2.683236750339866,"23":-3.597695732220404,"24":0.6956260671461327,"25":-5.404422827480384,"26":0.250678551620549,"27":0.18534947554224343,"28":1.8082484404010581,"29":-0.38649791128165817,"30":-1.22083231906853,"31":-0.0974394441688612}},"24":{"bias":-1.728108136691196,"weights":{"0":-1.607007569893613,"1":3.2041266413958005,"2":-0.06087307076910385,"3":-1.412849382136148,"4":-0.8489260948380272,"5":-1.8212743282711175,"6":7.022133715677484,"7":-0.5533061178601275,"8":-2.6091641735965303,"9":-2.881014025157307,"10":-2.3192405369365807,"11":0.05194889277056708,"12":-0.16561506296770112,"13":1.3669865693368715,"14":4.156195909045728,"15":-1.430720213292236,"16":2.690749118217878,"17":1.1248627942495881,"18":-1.784775496487434,"19":0.15749119533341396,"20":-1.9302747008037524,"21":0.5865363100142196,"22":3.456730381895838,"23":4.732163056043872,"24":-1.9925042571590674,"25":1.9543885339506883,"26":-0.4225804148681642,"27":-0.023863019512313448,"28":-1.2866750927278765,"29":-1.661682717653646,"30":0.6886742875204244,"31":-1.2837771764831263}},"25":{"bias":0.19147437463493627,"weights":{"0":-0.5630951986670916,"1":9.524962348097482,"2":-0.46773314511378083,"3":0.6305246777752824,"4":-2.7976349629688935,"5":-0.11999784031214661,"6":0.8280253832423079,"7":0.27960526689400084,"8":-0.09190833954013372,"9":-3.5385735958619358,"10":0.7006102328102123,"11":-1.8268463099443668,"12":-0.2648186610981406,"13":-2.1761445322266257,"14":4.0061254152899926,"15":-0.4115289395664119,"16":1.254878998619612,"17":-1.6124610345066748,"18":-1.750704490699084,"19":0.7629825514911501,"20":0.3806743465251949,"21":0.14203702006522456,"22":2.3827166531322432,"23":0.5720588286357411,"24":-0.3533690809463403,"25":-3.894469721174469,"26":0.12921036122733165,"27":-0.2445996931432892,"28":0.312577655512461,"29":2.362176151981314,"30":0.5599617783271117,"31":-1.0362055655678455}},"26":{"bias":-0.5144659648265637,"weights":{"0":-0.31394154783416384,"1":1.5564759509274384,"2":-0.11820530342339779,"3":-0.020997817227766735,"4":-1.97471364195688,"5":-0.7098573380030493,"6":0.09520485334632665,"7":-0.24731670789352178,"8":0.11581374489632272,"9":-5.231103873335594,"10":1.0963321407124644,"11":2.094596153262905,"12":-0.28236958038959026,"13":1.7321330001787858,"14":3.307586202653441,"15":-0.3913822861767928,"16":0.3651374647870846,"17":4.52488724490848,"18":-1.5837678008309426,"19":0.5588489183442132,"20":-0.6186866239964766,"21":-0.8653783991109203,"22":0.42262172441230783,"23":-0.15576150368550948,"24":-0.7773883781141118,"25":-1.582463061684043,"26":-0.06283448728292368,"27":-0.09799310919432022,"28":0.31457786120627373,"29":0.07254127893366394,"30":0.9292463896501215,"31":-1.766811656482327}},"27":{"bias":-0.7727824144971064,"weights":{"0":-1.0442397777711678,"1":5.915529830077038,"2":0.13632505774635256,"3":-0.875192509046945,"4":-0.9327595361599749,"5":-0.8779958882604469,"6":4.919237073193726,"7":-0.4214778704972716,"8":-0.6958643881447409,"9":3.1931789168214975,"10":-1.2180667204651132,"11":-0.14961900592720362,"12":0.22975407381094515,"13":-6.620418463284679,"14":-0.7643285155347791,"15":-1.182228853483124,"16":4.351460838158851,"17":-3.4658542773591017,"18":-0.8824903290027286,"19":-0.041870638573929204,"20":-1.1202223397284625,"21":1.0392951675116302,"22":-2.1613039714201943,"23":3.2231491040010196,"24":-1.3193356014559143,"25":-1.4579404205225037,"26":0.02618363697443214,"27":0.2087968634670934,"28":-1.9522814421844654,"29":1.321602507263263,"30":-0.8280949416612807,"31":0.5836194720571594}},"28":{"bias":-0.16889020669449806,"weights":{"0":-0.045937161564345484,"1":-5.814735739787564,"2":-0.7875320830998724,"3":-0.02137156846016273,"4":0.32433496020136615,"5":0.2847560128572988,"6":-2.0959758570242046,"7":0.32712690025273056,"8":3.522425705907023,"9":-0.6947018026492472,"10":1.3850136825539618,"11":1.5710005442430368,"12":-0.11876989987005802,"13":-0.18830060770659507,"14":1.1097150980218424,"15":0.3111405473014228,"16":-1.9730928209377034,"17":1.758850048400138,"18":-0.23227507795708502,"19":-0.6387814182481211,"20":0.5066212390203492,"21":-0.3913357545684078,"22":-5.1706398163864025,"23":-2.312530416318292,"24":0.06641553703473335,"25":-3.3120734057917325,"26":-0.2972677785982505,"27":-0.18443794524646712,"28":0.8776510297566283,"29":-0.7229452116299248,"30":-1.0286711811975549,"31":-0.47083676147235815}},"29":{"bias":-0.7505966479424305,"weights":{"0":-0.23854997954693594,"1":0.1010340250495407,"2":-0.1342305875716102,"3":-1.3444076191976266,"4":-0.7796287147925415,"5":-0.2635694036961183,"6":2.5817844648267902,"7":-0.3342223126572995,"8":0.13539765655541416,"9":-1.073872030915406,"10":0.19837103211232376,"11":-0.4961863389335638,"12":0.183848199406042,"13":-2.207864494862383,"14":0.42107204436526435,"15":-0.7569859206711469,"16":0.7406212262436932,"17":2.4060133336164093,"18":-1.2428758647857137,"19":1.7590967116879308,"20":-0.6953033326607777,"21":0.1608913699047912,"22":4.68420811547901,"23":-1.084627250137527,"24":-0.4927753549089229,"25":-1.2510310412315777,"26":-0.17250665101830934,"27":0.6887572618201029,"28":-1.3569419182091973,"29":0.21997381525227375,"30":1.648843740898129,"31":-0.26079500345731127}},"30":{"bias":-1.0923058445907523,"weights":{"0":-0.8490407059359981,"1":2.297900647633301,"2":0.06902318766072928,"3":-0.8721431405460155,"4":-0.539050282639403,"5":-1.3067399128444925,"6":5.7918585049296265,"7":-0.6210027541746348,"8":-2.829710896057432,"9":-2.107200759172619,"10":-0.6036851620912911,"11":-0.74384412002526,"12":-0.1328126085929131,"13":0.8922158681704494,"14":-1.9102352425392288,"15":-0.543477388239976,"16":2.5484394840895552,"17":6.2192953533987545,"18":-1.0280809437313796,"19":0.2878984134198319,"20":-1.3129468093993781,"21":0.2832139742709958,"22":3.6097611512139887,"23":7.469350194095214,"24":-1.3889367855032742,"25":0.9559933248898853,"26":-0.4086603618833791,"27":0.27574183471265296,"28":-0.44531100847113825,"29":-1.3345755199977707,"30":1.0335016579104295,"31":-1.3428493466649398}},"31":{"bias":-0.8609126577973806,"weights":{"0":-0.7609788100328774,"1":-1.8223425176434496,"2":0.05980396832248474,"3":-0.5655630784579666,"4":0.024901300974315893,"5":-1.0825398418492413,"6":3.3194887228894405,"7":-0.36909057424303016,"8":-2.7316040213051527,"9":1.6930993653837272,"10":-0.5943079888811994,"11":0.6793426048089624,"12":0.29071589712393814,"13":-1.8071463110098416,"14":0.34899725785466523,"15":-0.8354277188095353,"16":2.3603886709740016,"17":-1.8912583101310676,"18":-0.9388189829308636,"19":0.02514196286681412,"20":-1.3176169645641747,"21":-0.1540866347432662,"22":2.7998974691844407,"23":3.6519137957518457,"24":-1.307646283518501,"25":-1.3919509663242529,"26":-0.09701243590542619,"27":0.5060327832279049,"28":-0.6080971011514293,"29":-1.5852926791283357,"30":0.23775466030490927,"31":-0.25550335985399747}}},{"0":{"bias":-2.548959564320042,"weights":{"0":-0.5022120972274258,"1":-0.3215095209427624,"2":-2.961896002873435,"3":0.47242299631683443,"4":0.9646875436197282,"5":-0.036690051618819816,"6":-0.6010612515432777,"7":-1.1208947113904908,"8":-0.8335513962321779,"9":-2.69495067585442,"10":-3.6047800803535215,"11":2.776000083394213,"12":-2.863736496709338,"13":-2.848921274651911,"14":-0.8523612286950014,"15":-1.480274054863573,"16":1.4934415785594046,"17":0.8742660605317335,"18":-1.4107939586879374,"19":1.1588795211483562,"20":1.0433776616748438,"21":-0.6773880656359473,"22":2.7189827631136816,"23":-2.6856124917810575,"24":-1.0740189204453752,"25":-3.9256820948857465,"26":-2.114660564068653,"27":1.179240706102992,"28":-1.1246263699476235,"29":-2.773595397929169,"30":-1.0779598201969898,"31":-0.07927716009006035}},"1":{"bias":-4.534842619035728,"weights":{"0":-3.7036950124798342,"1":1.2137960138405588,"2":-0.4256243182872928,"3":-1.2095548089697732,"4":-1.1004861222546047,"5":1.8843943848438254,"6":-2.1392116148330045,"7":-2.926992657846619,"8":-1.3469097317138832,"9":0.3386176856366113,"10":2.246556435260536,"11":-4.587665980645107,"12":0.7067037399779277,"13":1.785310728314369,"14":1.3467384388371533,"15":-3.2017180127135823,"16":0.7966276951298128,"17":-1.3854476071433914,"18":-0.5153250687411002,"19":0.4262060582911223,"20":-0.3165273163600049,"21":-1.6203015607141094,"22":-2.6979783649532627,"23":0.7923516766476718,"24":0.42645559702399727,"25":-0.33853441251694294,"26":2.085773874451599,"27":-2.8385941835557933,"28":2.9004665005217296,"29":0.7157513879115669,"30":1.108824410469516,"31":-2.5594516177510025}},"2":{"bias":-4.63365627932616,"weights":{"0":-1.9952509227477868,"1":-3.28026329957221,"2":-3.482875145862249,"3":1.7049845347593688,"4":-3.127320920983116,"5":3.40436351059983,"6":-2.101025587967795,"7":-0.0756970005723719,"8":-1.0447157771277966,"9":-0.023587533008533158,"10":-2.854367268753119,"11":-3.863635957773164,"12":-2.23299250658334,"13":-0.5929950325712323,"14":-3.7971483813525078,"15":-2.518984974286831,"16":-0.49920073070332965,"17":-1.7803176264468301,"18":-2.020086354003439,"19":0.8892434993084508,"20":0.1250963879914882,"21":-1.5220827006305202,"22":2.1099787909994627,"23":-0.649046850635206,"24":1.4261565383771602,"25":0.6411325811041191,"26":-1.5237180031805115,"27":3.0102639395857147,"28":-1.5921524835078238,"29":1.2878430660401332,"30":0.9200871457345138,"31":1.0505752557157637}},"3":{"bias":-2.7828575193309706,"weights":{"0":0.3174251812201433,"1":-1.7414392800843868,"2":0.08951886686672471,"3":-2.133890271249374,"4":-0.3671101897386314,"5":0.5423413255124651,"6":-0.435621527482529,"7":-2.512332066116782,"8":0.09342569592048651,"9":-0.8636407795431701,"10":0.2453128475862915,"11":-0.8741519912463145,"12":-1.7662473686316265,"13":-2.448182251894111,"14":-2.6651156957736766,"15":3.120041788383178,"16":-1.067657989616266,"17":-2.3604862306434313,"18":-0.4522702173580009,"19":-2.436212731534237,"20":-0.4557582250984147,"21":-0.20823471753424774,"22":0.59390721998527,"23":0.8286526667631194,"24":-3.6265296487437757,"25":2.372864549848216,"26":0.44301390771409416,"27":1.691821235798595,"28":-3.4910324208034966,"29":-2.5567561662812786,"30":-1.7980482054809401,"31":-2.6297041841437374}},"4":{"bias":-3.0863104591522603,"weights":{"0":-2.5210712915232683,"1":2.8331576012905706,"2":-2.043969786102908,"3":0.7870869874341551,"4":-0.7227065882373642,"5":-2.7620080128688786,"6":-0.1476213316255242,"7":1.799244165322215,"8":-2.444631580709495,"9":-4.245621973380571,"10":1.6714692408665837,"11":0.8825845242299927,"12":1.3026529916420126,"13":-1.116314096189926,"14":1.0915258539279056,"15":-2.0139288448801724,"16":-0.6836592211966054,"17":0.37563656992618644,"18":-1.2211974818727112,"19":0.8488824433259083,"20":-1.2510812137918697,"21":-1.603558979713018,"22":-2.6425976701146374,"23":-2.013257293153333,"24":-1.0585070635068625,"25":-2.6026600762984424,"26":-1.2153434131775798,"27":-0.8500290142491198,"28":-2.3896490167399365,"29":-0.17285656512558192,"30":0.37785152842562797,"31":0.15079004598647236}},"5":{"bias":-2.8577684336333147,"weights":{"0":1.7590396495955345,"1":-2.7204532608223313,"2":0.3659296283275394,"3":-1.9304111097173575,"4":-1.3814188577937663,"5":-0.1591132735078801,"6":-0.3226865806749174,"7":-1.158020313517189,"8":-1.5266987054170227,"9":-0.6473018850480534,"10":0.1072742335420622,"11":-2.4345495448362238,"12":-0.2904406358831446,"13":1.5822914436356597,"14":-1.9102128011749866,"15":2.848003306631276,"16":1.928677226431742,"17":3.333539637520409,"18":-3.0365643456596247,"19":-1.533448809583733,"20":-1.5518059404073394,"21":-1.2355244763082323,"22":-2.5321007249474654,"23":-1.826847591408124,"24":-2.4181836718839307,"25":-1.7955667085398694,"26":-0.4672199783946355,"27":-0.8360613445098221,"28":-0.5609369227061015,"29":-2.1592484220392927,"30":0.9693242743329546,"31":-0.997903165789064}},"6":{"bias":-2.738413407132228,"weights":{"0":-3.4298232816936864,"1":-0.9043760014777615,"2":-1.570789867410969,"3":-2.363451075039605,"4":0.8372608384585993,"5":-1.6155476945810716,"6":0.6644109846869292,"7":-0.757746567641197,"8":0.000017953731351236833,"9":-5.282683523868253,"10":-1.9422341205346534,"11":1.9302572083220333,"12":-1.7149622601233225,"13":1.7311125777339784,"14":0.3174869599539906,"15":-1.2133939932455573,"16":0.43739364700495365,"17":-2.1678437717526506,"18":-0.6451896450457779,"19":-3.0075481843899214,"20":-2.623254069131216,"21":0.6582873343477886,"22":-3.4738425235203714,"23":-2.5683220455713407,"24":1.1605662805069852,"25":2.235459948635168,"26":1.251424411557762,"27":-0.2266860809504596,"28":-1.7495453368785936,"29":-0.6663250957035609,"30":1.170820036373602,"31":-0.8669460845817141}},"7":{"bias":-2.6601685739967778,"weights":{"0":1.456371555318028,"1":-4.2223668981136475,"2":-2.399571707281484,"3":-1.4108373742882796,"4":-1.0090902827948316,"5":-4.477696676290525,"6":0.24696017577065577,"7":1.8644574368253575,"8":3.0202409132087635,"9":1.7562832474998749,"10":2.236775852026182,"11":-1.1547567944940367,"12":-0.8166812727848001,"13":-3.3374138204605535,"14":-2.4630580701188256,"15":-4.163467776987099,"16":-1.0971626537177328,"17":-0.4475601421638723,"18":0.3184518755950788,"19":-0.25430686817012094,"20":0.7157128861905329,"21":-0.9156025651521149,"22":-3.754059898213187,"23":0.46434834398833646,"24":-2.0284194436831173,"25":0.5762179999245773,"26":-1.3016629297369855,"27":0.26267189185332834,"28":-0.685679691596889,"29":-0.5396909709469755,"30":1.084291489532336,"31":0.32984346172219453}},"8":{"bias":1.8401329588726711,"weights":{"0":-1.5911628657545505,"1":-1.588885125835612,"2":-1.8297828356500117,"3":-0.2593060743203878,"4":1.6986329392932846,"5":0.6653572070484082,"6":-1.0217274128091773,"7":-1.0710884974474433,"8":-1.5653778617123797,"9":0.7572542083987394,"10":-2.4180439387951336,"11":-3.23108293575952,"12":-0.5569529265987727,"13":0.6496867095772002,"14":-0.6338369839374692,"15":-1.317740216848352,"16":-3.8697422988628984,"17":-1.7917200868811765,"18":-1.1585638089522454,"19":0.09641129568485653,"20":-1.7169745603639885,"21":-0.11172894505843245,"22":-2.6934563775041327,"23":-1.5780711376651342,"24":-3.417973411041807,"25":-0.6732128792633412,"26":-1.2103851740146219,"27":-2.941902866736603,"28":-1.950399741991643,"29":-0.3834377138432189,"30":-0.779587725093861,"31":-0.4551864585820457}},"9":{"bias":-1.8608990421503786,"weights":{"0":0.9039905071898469,"1":-1.2391894597877915,"2":1.5101221809944743,"3":0.14872791799375884,"4":-0.3804285300318855,"5":-1.2700066208577416,"6":-0.5416786869655986,"7":-0.07837458792201392,"8":-2.8120519306227614,"9":-0.17882578660177276,"10":-1.1587741343273958,"11":-3.435167556235573,"12":3.4431535397137725,"13":-2.6135887705680876,"14":-3.8260261118262777,"15":1.0511553098666728,"16":-3.501011390688634,"17":-1.4654935770607267,"18":0.9777759381881864,"19":0.7668623561455247,"20":0.11195106345714215,"21":-0.10761360404177008,"22":2.877936163176505,"23":0.35776233803667545,"24":-0.8212282781701395,"25":-4.010063008073627,"26":-2.571054560633621,"27":-3.416628050578549,"28":1.9067853339261926,"29":-2.3361388932122518,"30":-2.775970028280628,"31":-0.7712562808065523}}}],"outputLookup":true,"inputLookup":false}