{"layers":[{"0":{},"1":{},"2":{},"3":{},"4":{},"5":{},"6":{},"7":{},"8":{},"9":{},"10":{},"11":{},"12":{},"13":{},"14":{},"15":{},"16":{},"17":{},"18":{},"19":{},"20":{},"21":{},"22":{},"23":{},"24":{},"25":{},"26":{},"27":{},"28":{},"29":{},"30":{},"31":{},"32":{},"33":{},"34":{},"35":{},"36":{},"37":{},"38":{},"39":{},"40":{},"41":{},"42":{},"43":{},"44":{},"45":{},"46":{},"47":{},"48":{},"49":{},"50":{},"51":{},"52":{},"53":{},"54":{},"55":{},"56":{},"57":{},"58":{},"59":{},"60":{},"61":{},"62":{},"63":{},"64":{},"65":{},"66":{},"67":{},"68":{},"69":{},"70":{},"71":{},"72":{},"73":{},"74":{},"75":{},"76":{},"77":{},"78":{},"79":{},"80":{},"81":{},"82":{},"83":{},"84":{},"85":{},"86":{},"87":{},"88":{},"89":{},"90":{},"91":{},"92":{},"93":{},"94":{},"95":{},"96":{},"97":{},"98":{},"99":{},"100":{},"101":{},"102":{},"103":{},"104":{},"105":{},"106":{},"107":{},"108":{},"109":{},"110":{},"111":{},"112":{},"113":{},"114":{},"115":{},"116":{},"117":{},"118":{},"119":{},"120":{},"121":{},"122":{},"123":{},"124":{},"125":{},"126":{},"127":{},"128":{},"129":{},"130":{},"131":{},"132":{},"133":{},"134":{},"135":{},"136":{},"137":{},"138":{},"139":{},"140":{},"141":{},"142":{},"143":{},"144":{},"145":{},"146":{},"147":{},"148":{},"149":{},"150":{},"151":{},"152":{},"153":{},"154":{},"155":{},"156":{},"157":{},"158":{},"159":{},"160":{},"161":{},"162":{},"163":{},"164":{},"165":{},"166":{},"167":{},"168":{},"169":{},"170":{},"171":{},"172":{},"173":{},"174":{},"175":{},"176":{},"177":{},"178":{},"179":{},"180":{},"181":{},"182":{},"183":{},"184":{},"185":{},"186":{},"187":{},"188":{},"189":{},"190":{},"191":{},"192":{},"193":{},"194":{},"195":{},"196":{},"197":{},"198":{},"199":{},"200":{},"201":{},"202":{},"203":{},"204":{},"205":{},"206":{},"207":{},"208":{},"209":{},"210":{},"211":{},"212":{},"213":{},"214":{},"215":{},"216":{},"217":{},"218":{},"219":{},"220":{},"221":{},"222":{},"223":{},"224":{},"225":{},"226":{},"227":{},"228":{},"229":{},"230":{},"231":{},"232":{},"233":{},"234":{},"235":{},"236":{},"237":{},"238":{},"239":{},"240":{},"241":{},"242":{},"243":{},"244":{},"245":{},"246":{},"247":{},"248":{},"249":{},"250":{},"251":{},"252":{},"253":{},"254":{},"255":{}},{"0":{"bias":-0.18270819421126136,"weights":{"0":0.2843711900509569,"1":0.3004941725798471,"2":0.10155364682520977,"3":0.39696929663267116,"4":0.2970461002902669,"5":0.33690273570625767,"6":0.15672022712165548,"7":0.1327843005885303,"8":-0.07813485822370723,"9":0.16094730447659292,"10":-0.00791142871424944,"11":0.013578148643078507,"12":-0.0021737988263740163,"13":-0.06685347431103322,"14":-0.2659219788772852,"15":-0.3086987535924658,"16":0.22058698012497827,"17":0.14476865722234955,"18":0.19047183548514712,"19":0.015433567725820324,"20":0.12975772940152192,"21":-0.0845353922492707,"22":0.2858178656974729,"23":-0.02191408128569924,"24":-0.10595981078451908,"25":0.1338858723059646,"26":-0.2001953171406135,"27":-0.06231431123447285,"28":-0.24292551748652655,"29":0.23629404182509367,"30":-0.04585508106363091,"31":-0.10881197602305631,"32":0.2087544411315829,"33":-0.07611088311071275,"34":-0.07605141203437078,"35":-0.12669757058116807,"36":0.22209919509772116,"37":-0.055598314270589276,"38":0.08424197442081588,"39":0.0493830739353927,"40":-0.10161937441107602,"41":0.1825826797732671,"42":0.17975962773412685,"43":0.17029303266307028,"44":-0.04158500049341836,"45":0.012965462996600735,"46":0.1451919729358068,"47":0.15799551816708654,"48":0.02564859754633044,"49":-0.11688781119235739,"50":-0.028081273716456388,"51":-0.17694917526363013,"52":-0.03938438579750031,"53":-0.047373568077872685,"54":-0.08367400691079109,"55":0.11883912436942827,"56":-0.0080468995262195,"57":0.15529351659476734,"58":0.19976323355742834,"59":0.28799939996521884,"60":-0.025892627707276492,"61":0.20977977514348342,"62":0.15321377377410322,"63":-0.10432043023802128,"64":-0.038119202211420004,"65":-0.16821829497109586,"66":-0.3975819837225163,"67":-0.08225921955600457,"68":-0.2591478776976382,"69":0.0699543576948241,"70":-0.057618672298827375,"71":-0.2236721780787313,"72":-0.0004756808733624216,"73":0.09001782921681625,"74":0.20688517562873296,"75":-0.1989601665102183,"76":-0.12426063725621163,"77":0.10628628125281987,"78":0.22482174496460186,"79":0.14582374314390673,"80":-0.3295280363020409,"81":-0.31350836063439774,"82":-0.29082234154932224,"83":0.03248593934399308,"84":-0.24666697231056117,"85":-0.27903983844543956,"86":-0.04258455463349527,"87":-0.15144253141721387,"88":-0.20907293644831115,"89":0.055075412283214845,"90":0.09019687994376022,"91":-0.21280650390792577,"92":-0.13016804565608514,"93":0.08966054322672,"94":0.12221214162833435,"95":0.11820872323470284,"96":-0.2734605331973976,"97":-0.19766518237237465,"98":0.1397889526321286,"99":-0.11207486408265618,"100":0.014991889954062459,"101":-0.10785558543537943,"102":-0.16442783570746092,"103":0.07299191807047085,"104":0.10220872745598454,"105":0.060130455300835516,"106":0.10252361102006807,"107":0.03355804723798177,"108":-0.251091078228892,"109":0.07058044875463292,"110":0.17122930256287827,"111":0.35388656263044593,"112":0.018360523732477967,"113":-0.20389897193575185,"114":-0.0015892008936575642,"115":0.11797153141115953,"116":-0.001962625929921413,"117":0.08276881407681759,"118":-0.04515167390249364,"119":-0.1254006234128082,"120":0.10538018061571763,"121":-0.09938306442216917,"122":-0.2579280478788838,"123":-0.2353294627240193,"124":-0.024022712608463535,"125":-0.15745151011214392,"126":-0.1435714825053491,"127":0.0016250972503991331,"128":0.07742568295011343,"129":0.06645917606095851,"130":0.1631998347237613,"131":0.14442801906911606,"132":-0.2229816933531697,"133":-0.25445683732064245,"134":-0.015240999569788992,"135":-0.04712802575637845,"136":-0.12687364197183484,"137":0.09263768526925173,"138":-0.008189382615318493,"139":0.18263806647831224,"140":0.22693473345311221,"141":0.1981743927003211,"142":0.2883796461009513,"143":-0.06348234093217989,"144":0.24692033134663427,"145":0.12220825674799997,"146":0.12957604530908637,"147":-0.04660968743899905,"148":-0.08857976530875916,"149":-0.29542055468431966,"150":-0.2499860402294537,"151":-0.023937551148869918,"152":0.1760332958793722,"153":0.17191693087388515,"154":0.09245127473516276,"155":0.3502595875010803,"156":-0.2075867290537301,"157":0.051214996051995226,"158":0.18549924319205108,"159":-0.036349793672281874,"160":0.009183498567552299,"161":0.05357713089820338,"162":0.3055909482310919,"163":0.20158451160631186,"164":0.21577454947388622,"165":0.19896051671487,"166":-0.18110312185070152,"167":-0.13392745104635537,"168":-0.10693597073251628,"169":-0.08186383527132546,"170":-0.029841824549415728,"171":-0.16221849677750197,"172":0.13543393330115328,"173":-0.042531287315272705,"174":-0.002466569753246307,"175":0.1720923496275664,"176":0.10688860976913876,"177":-0.019780553257080596,"178":0.14069590616234864,"179":-0.09390103043201979,"180":0.061185644585854536,"181":0.0201093097976288,"182":0.14252671587525542,"183":0.09287760576045848,"184":-0.07835933104440408,"185":0.010217555228815326,"186":-0.08115257386146423,"187":-0.07530163211249816,"188":-0.19862685510999462,"189":0.09327940812382841,"190":-0.10647219786374137,"191":-0.002700193361251391,"192":0.21439003229988324,"193":-0.20786559234376467,"194":-0.10647388366305044,"195":0.1806291825909979,"196":0.039007756547127494,"197":0.016436380146706443,"198":0.04290139302309496,"199":-0.005549197449280577,"200":0.19465068332142954,"201":0.16896918732847915,"202":0.03978732873618061,"203":-0.10296296469146776,"204":0.14322218330420178,"205":-0.10782913675764458,"206":-0.194521574555434,"207":-0.10631603175418564,"208":0.05253218371103695,"209":-0.173518845689198,"210":-0.07883324188550632,"211":-0.09255098090123469,"212":-0.18028856628458959,"213":-0.007262452003003147,"214":0.02019948487355526,"215":-0.1364095316092296,"216":0.08822668982792585,"217":-0.0381328482827397,"218":-0.12415715910455821,"219":0.023827343304610896,"220":-0.08359157047246725,"221":-0.18927710289031363,"222":-0.0795417516800002,"223":0.025554299470365197,"224":0.0505741433726382,"225":-0.2887329862315873,"226":0.1687559077536892,"227":-0.16327642875915424,"228":-0.3384548210256445,"229":0.14765555946812198,"230":-0.22087557862964047,"231":0.0006568080682140397,"232":-0.07329840247173937,"233":0.27560077379370473,"234":-0.045291819332746855,"235":-0.09410625211196587,"236":0.15493892270762455,"237":-0.12803430538259358,"238":-0.28857650256725886,"239":0.013222453378402908,"240":-0.059613303390782725,"241":0.12491876341507228,"242":0.02042367601894631,"243":0.22797712523675784,"244":0.08085410844160265,"245":0.22777309959730702,"246":0.10674265000881167,"247":-0.2633104351687665,"248":-0.2688548132411288,"249":-0.14434947695364458,"250":-0.1566465374784286,"251":0.09273026114689291,"252":-0.01590819709917143,"253":-0.13515921026112135,"254":-0.2524222976393495,"255":-0.042124334832606435}},"1":{"bias":-0.12216802561730288,"weights":{"0":0.1459879057008251,"1":0.30372107087893235,"2":-0.0415167303735772,"3":0.11839587927212855,"4":0.25250211548148593,"5":0.1537485757540957,"6":0.2858185916573209,"7":0.16138271922891193,"8":-0.21799040476376258,"9":-0.06390449309322867,"10":-0.06146611358397393,"11":0.11901164492242758,"12":0.046138100127379206,"13":0.18517437595429675,"14":0.11206839451437187,"15":0.23967208854599403,"16":0.06371257899344522,"17":0.28556292510035464,"18":0.02110731102825069,"19":0.022782561595513916,"20":0.1348191777860334,"21":0.11334300791867143,"22":0.30885270710966634,"23":0.08700281700765765,"24":0.14432988794596457,"25":0.3053840483498202,"26":0.043836972103008916,"27":0.009581860866144891,"28":0.21446742869379176,"29":-0.03901116992538233,"30":0.053107846559799256,"31":-0.13558613873943906,"32":-0.014700701649513937,"33":0.051309095893793025,"34":-0.1303341836201562,"35":0.05172400482738096,"36":0.21287072882630345,"37":0.18555596094448812,"38":0.24958190249589504,"39":0.10127475205596084,"40":0.147125042629679,"41":0.3145740186213144,"42":0.1967491390675728,"43":0.09592039580233058,"44":0.10432901397694627,"45":-0.0035025089767446362,"46":-0.12451490524272758,"47":-0.2623618632614939,"48":-0.07949113355802345,"49":-0.06728490107197341,"50":-0.2518583057572092,"51":-0.14082555980571643,"52":0.07859981344812336,"53":-0.07727120804416003,"54":-0.05539348997974797,"55":0.06154430951763703,"56":-0.2204443542923291,"57":-0.1689277031028456,"58":-0.2165779161065194,"59":0.07330533669273888,"60":0.028183107750777994,"61":-0.19436245552278422,"62":-0.2598946277443942,"63":-0.0017404728667309397,"64":0.1126841374364935,"65":-0.07575220686154419,"66":-0.2126653557366207,"67":-0.03804274600905373,"68":-0.10309537097664809,"69":-0.03500630252874916,"70":-0.3311484209034779,"71":-0.4142410506579663,"72":-0.20197445413566617,"73":-0.17800870776359046,"74":-0.15244713322574588,"75":-0.11328703285323172,"76":-0.2035601568426324,"77":-0.14085309310444172,"78":-0.14256527918912046,"79":-0.13039126114363458,"80":-0.22422688150802841,"81":0.02674186074330119,"82":-0.35791115463156375,"83":-0.03519896947164261,"84":-0.14158163338385565,"85":-0.23138960028063327,"86":-0.4063777306879953,"87":0.0044905529847393605,"88":-0.3026180681228164,"89":-0.05356354481657736,"90":-0.035510959957610055,"91":-0.1840915937643497,"92":-0.11044239464167378,"93":-0.13443909477252422,"94":0.07983807263392265,"95":0.1543071256951086,"96":-0.11956904179361028,"97":-0.13702176659864984,"98":-0.219803784712143,"99":-0.08507888683575274,"100":-0.10746031597148738,"101":-0.08936921476403442,"102":-0.0878806431313147,"103":-0.2310870955900242,"104":0.04137671743101197,"105":-0.08681745977476203,"106":-0.17223629993373868,"107":-0.2761974960257667,"108":-0.2199073879243066,"109":-0.2296091267905773,"110":-0.09088759787535225,"111":0.031953103369385935,"112":-0.06447025108104437,"113":0.09860291690484542,"114":0.1527526971130137,"115":-0.1748030297571001,"116":0.09147068842088324,"117":-0.22575034600806312,"118":-0.4057683499477555,"119":-0.16935333365377403,"120":-0.2194609198001858,"121":-0.1287174842418094,"122":-0.03779134865346208,"123":-0.11771150180184137,"124":0.19649002393770854,"125":-0.09807813572045958,"126":0.2902015345632921,"127":0.16420778938591335,"128":0.09775296558495489,"129":-0.05722098521140483,"130":-0.2068148781827538,"131":-0.052073529572795464,"132":0.03185972455054163,"133":-0.23630961876549061,"134":-0.12317835878951426,"135":-0.0050463201261719,"136":-0.03801359621470895,"137":-0.11041222524557934,"138":-0.08603135959111367,"139":0.23518626054986397,"140":-0.16775778067886005,"141":-0.2349866287776909,"142":0.14838904924301796,"143":-0.014233744571778902,"144":0.26246247349538676,"145":0.1451647596465736,"146":0.11710540919650253,"147":0.06753593608995272,"148":0.11995208679009191,"149":-0.1415041022836902,"150":-0.22336473893682865,"151":0.1268050719400009,"152":0.00032869576861464697,"153":0.03071022482926168,"154":0.10533107127072565,"155":-0.07290128202748283,"156":-0.20302000077976376,"157":0.057473470153236644,"158":0.13234509647652815,"159":-0.013893289238717917,"160":0.21813268573740174,"161":0.22151023776901965,"162":0.256554265609529,"163":0.14386196653593997,"164":-0.010882782686772778,"165":0.06357932379068242,"166":-0.1255142418688084,"167":-0.015922449949529214,"168":0.053348711977258725,"169":-0.06684187125082226,"170":0.0020921827218278307,"171":-0.3179326411186738,"172":-0.30608025252357773,"173":-0.1751503617393198,"174":0.07556502805445775,"175":0.02176182931367846,"176":0.022443190409387925,"177":0.17743314917354144,"178":0.22431961618830631,"179":0.08059931030315112,"180":-0.014901682828292986,"181":0.13139318156292737,"182":0.13082747620219023,"183":-0.23931818640275598,"184":-0.39802679159136267,"185":-0.2687356688419159,"186":-0.2702983832769303,"187":-0.13653252270748165,"188":-0.30246698387168175,"189":0.0389643252306655,"190":-0.16865096177136105,"191":-0.05534832245691899,"192":0.04828566859045637,"193":-0.12681287840200484,"194":0.09993043903502767,"195":0.2803475391854166,"196":0.16873866645245114,"197":-0.11801562576981182,"198":0.3324157116918819,"199":0.06781333770641226,"200":-0.21004602940813155,"201":0.0032870029055318915,"202":-0.07773365289550256,"203":-0.042027952632783847,"204":-0.15636556977519664,"205":-0.06424932860643338,"206":-0.12357351086192771,"207":-0.08914699598266278,"208":0.19297955126292354,"209":0.012414422049030663,"210":0.14939794568453707,"211":-0.02820451375484881,"212":-0.03223907590427714,"213":0.24887555685096754,"214":0.13198696186925757,"215":0.14211902687427103,"216":0.09246210068069538,"217":-0.05328147103744131,"218":-0.048281485120940645,"219":0.20202190613314266,"220":-0.19740823192560275,"221":-0.34105589703661743,"222":0.005637897823722119,"223":0.15840778252221277,"224":-0.12718766788930513,"225":-0.019465277912633736,"226":0.16571940636896576,"227":-0.09254259475106166,"228":-0.06395901372960584,"229":0.2224529079840723,"230":0.2799579543268674,"231":0.2599473823483873,"232":0.2618262061996336,"233":0.23465995940843196,"234":0.18807644087017716,"235":0.020370822375761165,"236":-0.03404217170574166,"237":-0.056921407536896444,"238":-0.04655138071855413,"239":-0.20586707949414587,"240":0.099257626340903,"241":0.065333555061945,"242":-0.015113089016336418,"243":0.14709698355112694,"244":0.28949453597013064,"245":0.43767565608188763,"246":0.07110724875632712,"247":-0.05004752307650918,"248":0.11075481483516529,"249":0.11012147117859197,"250":-0.19713875483793683,"251":0.05398613933505728,"252":-0.08069661841021705,"253":-0.08463894508888506,"254":0.0346963314391915,"255":-0.2314752892789698}},"2":{"bias":-0.126352209914929,"weights":{"0":0.027602529264073604,"1":-0.07960967836290957,"2":0.24505399475993717,"3":0.21431292394185275,"4":-0.22125710287106481,"5":0.23700343664507184,"6":0.07827538523205728,"7":0.15456835864573204,"8":0.05398330349662766,"9":0.17336094587137946,"10":0.03685070437817668,"11":0.313158790483144,"12":0.09048817824579806,"13":-0.1828466584415975,"14":0.13743202466937304,"15":0.16087541992002846,"16":-0.06099276111839249,"17":-0.08634873573533568,"18":0.07240368916798799,"19":-0.06887252411091732,"20":0.05588205539187468,"21":-0.11572771267539059,"22":0.20597435540468204,"23":0.2489961721328843,"24":0.07731259976727288,"25":-0.04142205063513702,"26":-0.10163618732188134,"27":0.09091713022161062,"28":0.023698611335348178,"29":-0.15714948063880527,"30":-0.014453957097450832,"31":-0.1513210575985662,"32":-0.1763417302656465,"33":0.20873294008409202,"34":0.14765686108319254,"35":0.16254678499370062,"36":0.05438583361636506,"37":-0.21151301625628524,"38":0.12470860980538435,"39":0.1263941458271662,"40":-0.0678897974870616,"41":0.22426879326095098,"42":0.04577897999533976,"43":-0.27616888494681063,"44":-0.12385124926094794,"45":-0.02479084832016557,"46":-0.0031669399959503752,"47":-0.04570195741479548,"48":-0.1688206231355773,"49":-0.08379621469844022,"50":0.2390241178065655,"51":0.006345567713655386,"52":-0.03879170029577708,"53":-0.03609238789634819,"54":0.05166355545634819,"55":0.0068746508373599075,"56":0.08005849225292923,"57":-0.09352008949772972,"58":-0.28499753642483155,"59":-0.27989452768991097,"60":-0.071072404494744,"61":-0.2773093638270197,"62":-0.12028922263951897,"63":0.09791657701476497,"64":0.056641162973011375,"65":0.34086256934205983,"66":0.06667089542630524,"67":0.13059290672957866,"68":-0.16569803064901834,"69":0.03831154708116396,"70":0.07377356369214312,"71":0.1744563212019118,"72":0.14030881155232144,"73":0.09794497721502728,"74":-0.014395657656817206,"75":0.21936212135082905,"76":-0.008507963524404322,"77":-0.07594784448297066,"78":-0.08264981060095554,"79":-0.015618363690166292,"80":-0.03541402143574654,"81":-0.023407490590824667,"82":0.2001999164138223,"83":0.1167265851123095,"84":0.09241218089718399,"85":0.014901632536668343,"86":0.0681402398345366,"87":0.03251591443891273,"88":-0.06107778947759061,"89":0.178653085312916,"90":-0.13444167260466525,"91":-0.11027502093186368,"92":-0.11530227374769084,"93":-0.23788604920805068,"94":-0.11586147450188826,"95":-0.3787675902065482,"96":-0.17857620473092253,"97":0.02095532051672878,"98":0.09340145646693487,"99":-0.12100425801717862,"100":0.24389853226124497,"101":-0.09704932904773034,"102":0.12490015059645769,"103":0.22503563372090293,"104":0.049050366145435204,"105":0.21634084660767397,"106":-0.15686121687408489,"107":-0.10008455074937074,"108":0.10594931672340278,"109":0.019055124534571505,"110":-0.014856033067910498,"111":-0.09651267659436205,"112":-0.1319420380851334,"113":-0.08138212621431824,"114":-0.10607252402565803,"115":0.056651626374980175,"116":0.17090354130801005,"117":-0.07855661184217817,"118":0.03296109285320013,"119":0.020177885278097225,"120":-0.09844623901743985,"121":0.05416434255772252,"122":-0.053021350908353894,"123":-0.07490327643556499,"124":-0.09447511755580879,"125":0.016044300709448872,"126":-0.2981700672122912,"127":0.05400178002973156,"128":-0.1289631740144952,"129":-0.11838833022158518,"130":-0.14482297965947405,"131":0.039398917113083444,"132":-0.1528336667962619,"133":0.05896652094123238,"134":-0.09939597210716922,"135":-0.08637465083710219,"136":0.06208630421996509,"137":0.08226229679581433,"138":-0.1342332271310017,"139":-0.019928669256252952,"140":0.09083561728783893,"141":-0.08448485769938514,"142":-0.01958864121134677,"143":0.06463612457717893,"144":-0.18180917022978635,"145":-0.24144730441141468,"146":-0.22397878092075094,"147":0.00715968435330206,"148":-0.160253284828948,"149":-0.038436669385384876,"150":0.1094079091630239,"151":-0.02990569020133999,"152":0.016862841106729837,"153":0.13243569754565052,"154":-0.10731483703172018,"155":0.05329470436678812,"156":0.20357082384405717,"157":0.16580176754803072,"158":0.07202016091844822,"159":-0.034836336108881254,"160":-0.3888444820637158,"161":-0.4132796512194187,"162":-0.3968834600266241,"163":-0.19744285913501616,"164":-0.21163896374717742,"165":-0.2499035417894716,"166":0.04127168383231909,"167":-0.09186823122152149,"168":-0.26650235119663834,"169":-0.04514956617480944,"170":-0.13579069612295444,"171":0.10278807275952179,"172":-0.10695033567174458,"173":-0.16933911956428419,"174":0.03698850708611223,"175":0.11107393685854733,"176":-0.2533642894027275,"177":-0.46836504932169165,"178":-0.3120726363580512,"179":-0.47268760974266966,"180":-0.39212010902913963,"181":-0.36325365291778267,"182":-0.3713886078969516,"183":-0.18389481910649633,"184":-0.18978240415212627,"185":-0.0014387650084459222,"186":0.008784860247757771,"187":0.0879375989010073,"188":0.04959583876935377,"189":-0.10886421652299162,"190":-0.03913941193999004,"191":0.26910738512452026,"192":-0.3846928484600596,"193":-0.055539301158891385,"194":-0.21479376354438579,"195":-0.10463457992249516,"196":-0.2446787673552639,"197":0.07083525611853136,"198":0.011764519679145751,"199":-0.06971262770235473,"200":-0.21030984104808634,"201":-0.016605768793025423,"202":-0.1970985035630689,"203":0.2404715332716595,"204":0.19761551101580235,"205":-0.09056687728647324,"206":0.01318771597880069,"207":-0.12310958384706894,"208":-0.004353820375841211,"209":-0.035385204104226395,"210":-0.008726746611159306,"211":0.0673485475020299,"212":-0.1673518831338527,"213":-0.11305681378070523,"214":-0.005631643745156045,"215":0.21752841201952453,"216":-0.07675292555076348,"217":0.07354275864493807,"218":0.06448662940988471,"219":-0.020527742781429124,"220":0.06307456500743715,"221":0.1613824520295732,"222":0.012328681178916202,"223":-0.1231137692418186,"224":-0.017164743605431212,"225":-0.0548574229547397,"226":0.11759132392197429,"227":0.12206179168031996,"228":0.24289766909906083,"229":0.04646757353724017,"230":0.06497908234450012,"231":-0.15390691855817984,"232":0.03502253535819917,"233":-0.00877660062801309,"234":-0.09285688757573138,"235":-0.07957715189470506,"236":0.152895410771968,"237":0.10633106154545731,"238":-0.12527258937510943,"239":-0.07711251868197938,"240":0.44425529057280516,"241":0.11916534506000039,"242":0.03413260693250627,"243":0.22740770880123937,"244":-0.24198443357696034,"245":-0.25998610704275504,"246":0.13406545307421924,"247":-0.1639467687662758,"248":0.1339554132668093,"249":0.10555000143750509,"250":0.03018187328091162,"251":0.010794737170278663,"252":-0.10698493895745115,"253":-0.120015977405729,"254":-0.22870910204875944,"255":0.16473107249116678}},"3":{"bias":0.3119237574847061,"weights":{"0":-0.17584352313409382,"1":-0.09522697209709309,"2":-0.020177643224016804,"3":-0.13521619167079427,"4":-0.19971834011077522,"5":-0.036919655671048476,"6":-0.2125559962932941,"7":-0.25151331908643554,"8":-0.20569105083476902,"9":-0.280613902677787,"10":-0.26052956687667844,"11":-0.22970939519842584,"12":-0.2650021454071979,"13":-0.16855147013367563,"14":-0.28678881532906075,"15":-0.16851143958923093,"16":-0.13246408045631627,"17":-0.07175712608488194,"18":-0.012812651039961027,"19":-0.1618223637795153,"20":-0.1420892182012708,"21":0.06240402156101876,"22":-0.12796851722473906,"23":-0.11280573480730692,"24":0.049186598599000424,"25":-0.1054581630909938,"26":0.028740407807801627,"27":-0.021896437178827128,"28":-0.10322429300643844,"29":0.1790171863553545,"30":-0.11332043932216278,"31":-0.061595266989525006,"32":0.0008688343592117858,"33":-0.030494579338474832,"34":-0.012072097456344234,"35":-0.15479670093643863,"36":-0.3210517370706794,"37":-0.28661990963968653,"38":-0.1629938763463891,"39":0.14017720013784915,"40":-0.08906034961403614,"41":-0.04208993890821615,"42":0.04324458765929945,"43":-0.2335705145598375,"44":0.174175431020618,"45":-0.21606693316335665,"46":0.06958026956961602,"47":-0.3746981176686286,"48":0.04638673489414758,"49":-0.2988406066988252,"50":-0.2607886035655069,"51":-0.1214632701424759,"52":-0.021585027529309145,"53":-0.02361136119279387,"54":-0.005029135781762367,"55":0.10615663233302512,"56":-0.03822364327712777,"57":-0.046960325300153316,"58":0.15834307885379664,"59":0.09918430807300041,"60":0.12288480367152592,"61":0.11516621272841455,"62":-0.3038723415513739,"63":-0.14684352548090793,"64":-0.20384155412927607,"65":-0.09969962711245046,"66":-0.006493409508351749,"67":-0.1828111186670327,"68":-0.3045036508607536,"69":0.05974060605285125,"70":-0.15498376311089715,"71":-0.07993275515685333,"72":-0.10066180961679948,"73":0.14208797427891182,"74":0.1566165023456117,"75":0.11492974214928067,"76":0.10221485450874437,"77":-0.2181780916798896,"78":-0.1660553673723116,"79":-0.03912713337658997,"80":-0.1567568276689905,"81":-0.06010239146893462,"82":-0.2286852789385274,"83":-0.05316274089432665,"84":0.11911840200811041,"85":-0.00978243561558818,"86":-0.1019813879121676,"87":-0.033857162763372375,"88":0.17794949641381963,"89":0.05210992217123321,"90":-0.03475978089239575,"91":0.16166580794873628,"92":-0.020496200901905008,"93":-0.13700836731819266,"94":0.2579847711629135,"95":0.010200681704735025,"96":0.08576135889120931,"97":0.06707834886335051,"98":-0.10646270562981465,"99":-0.22233564639091988,"100":0.0018055272354339914,"101":-0.15647822760489172,"102":-0.12768244587397148,"103":0.19288417505849303,"104":-0.020249203301799204,"105":-0.07612697692035032,"106":-0.09382735873008435,"107":0.046290887162306726,"108":-0.09439641377202,"109":-0.008571863829871133,"110":0.12513823030681917,"111":0.03295775400444519,"112":0.09161505146424517,"113":0.04889582814985488,"114":-0.1417990519937966,"115":-0.22495146604098865,"116":0.06679896946430973,"117":-0.20858432091755189,"118":-0.04022638242996344,"119":0.12180451705065058,"120":-0.020503798788045625,"121":0.09342551424279531,"122":-0.15914929966651722,"123":0.07242366042323188,"124":0.1148259162611857,"125":0.10587890672469706,"126":0.2640519766723858,"127":0.1563226772559082,"128":0.00014637246037421333,"129":-0.10665349534241633,"130":0.05710111128895365,"131":0.12744352287575683,"132":0.014861852401121232,"133":-0.07191542440307377,"134":-0.14228113508327947,"135":-0.12012448458027612,"136":-0.12469992971616703,"137":0.284581649946699,"138":-0.1920843906603116,"139":-0.00861543121483962,"140":0.029838351488021712,"141":0.12411867639564274,"142":0.08751963112146718,"143":-0.10766968967251367,"144":0.22019810574704768,"145":0.06694993735766756,"146":0.024199037968583147,"147":0.10657239525675835,"148":-0.08332412218432937,"149":0.06966542398234812,"150":0.004425862969293201,"151":0.1142333583929513,"152":-0.1504797843764351,"153":0.11527229058211427,"154":0.1805522843964864,"155":-0.17950996520254886,"156":-0.048072018838139094,"157":-0.19455593271778307,"158":-0.14183960172384807,"159":0.07199527145088665,"160":0.145791188733864,"161":-0.0659473951351274,"162":-0.19074041189125063,"163":-0.026235507576873308,"164":-0.03518772151277,"165":0.31188601140309175,"166":0.18163691687790653,"167":0.08158048962929051,"168":0.31325055590582557,"169":0.000410591674266991,"170":0.01778253113037197,"171":-0.0665392636996487,"172":-0.03925370537897875,"173":-0.31273843376935895,"174":-0.17556424941555826,"175":-0.01919180073436407,"176":-0.037183527153309054,"177":0.08179735744726156,"178":-0.35252703580883704,"179":-0.04942092162330886,"180":-0.1777066800619662,"181":0.19216604318116687,"182":0.2779354214954813,"183":0.026478007277030254,"184":0.19886071011516923,"185":0.19528442715385375,"186":0.15155589417164939,"187":-0.21102164977038435,"188":-0.2284097136838266,"189":-0.05253998416687388,"190":-0.27199916273881425,"191":0.03908782161965148,"192":-0.3272442907495074,"193":-0.11987719998207703,"194":-0.0887506313813062,"195":0.1741739759748355,"196":0.20809887112218672,"197":0.1026453224113894,"198":0.07245444635844892,"199":0.18788951968916112,"200":0.1732935164422713,"201":0.08067465444865854,"202":-0.07958543918952844,"203":0.1614401357995854,"204":-0.07600859134532563,"205":-0.015467652943377984,"206":-0.3516467114522109,"207":0.052377520444503195,"208":-0.04704411047733199,"209":-0.13663730659025689,"210":0.14397012117602706,"211":0.04127486886617849,"212":0.137003535165486,"213":-0.06804035494961928,"214":0.2314134315806385,"215":0.1449902002287757,"216":0.16407486240756355,"217":0.15208446184435506,"218":-0.0369376887925815,"219":0.37260192604142933,"220":0.1966616622091338,"221":-0.02951189538982973,"222":-0.014102053704531062,"223":0.13054474131429974,"224":0.04870729342647905,"225":-0.14501410266097203,"226":-0.05866619512742195,"227":-0.18273595620542327,"228":0.04070015010312343,"229":-0.05056885420430037,"230":-0.30639205464235714,"231":-0.10546282083512576,"232":-0.0126727850570197,"233":-0.14013870727360678,"234":-0.024434169745114573,"235":0.14566938410491617,"236":0.4403744228314691,"237":0.3671408083161532,"238":0.1482390906244442,"239":0.16226492559771902,"240":0.0363073351290643,"241":-0.19728217606373474,"242":0.03331905412012153,"243":-0.09967209127486666,"244":0.04636366568178646,"245":-0.14268524772416266,"246":-0.10210645884739872,"247":-0.06702946745742636,"248":-0.0334431819918614,"249":0.08983125224092083,"250":0.16046740717174143,"251":0.08913993815060216,"252":0.248593306017992,"253":0.3575958675565908,"254":0.34908175814824816,"255":0.2643422496921262}},"4":{"bias":-0.1744945403185176,"weights":{"0":-0.19129671265707113,"1":0.1737266378887577,"2":0.07124652826137168,"3":-0.0333780855593602,"4":0.150893155999354,"5":-0.08304040284743132,"6":0.10254873654959529,"7":-0.16137876421519112,"8":0.32266700127388925,"9":0.3303576341153612,"10":0.017409497821772788,"11":0.08625523581680923,"12":0.13840287224466824,"13":0.22185422860186296,"14":0.11350279383137253,"15":0.1438423445557634,"16":0.15297678798494352,"17":-0.023580574954125286,"18":0.20638639332600495,"19":-0.12666715982663582,"20":-0.13016410219886132,"21":0.06734966177036024,"22":-0.06584932451661768,"23":-0.261631059513981,"24":0.3597249727939669,"25":0.19099368502111574,"26":-0.11362657918688185,"27":0.03517235154278774,"28":-0.06258498587440511,"29":0.03501236459046645,"30":0.06225743573516039,"31":0.12438203462902638,"32":0.11538675035113946,"33":0.15626355083435606,"34":-0.09083068811874749,"35":0.13922302566303268,"36":-0.17590239768681193,"37":0.09556353321470126,"38":-0.08634465665136364,"39":-0.1477239461100015,"40":-0.1831668008251211,"41":-0.09507389658689148,"42":-0.11203815866515841,"43":-0.005605165518362632,"44":-0.19043435771776093,"45":-0.2502640039422118,"46":-0.03361029892258995,"47":0.04072701601190307,"48":0.1025221357947056,"49":0.23411796148384584,"50":0.07617818819199104,"51":-0.30214575035190055,"52":0.018292103211935962,"53":0.02657767152184512,"54":-0.10676972312165979,"55":-0.15264235684317928,"56":-0.3717555618555352,"57":-0.12150325960232987,"58":-0.27619237788915857,"59":-0.33457377000468663,"60":-0.1364160495719648,"61":0.04676023824930004,"62":0.278071201055156,"63":0.14486900576709685,"64":0.14634901816082954,"65":0.11488710369870044,"66":0.0066203148947795295,"67":-0.23284572817847887,"68":0.09386252936102929,"69":-0.04657810356745073,"70":-0.07283720121483801,"71":-0.19597523958008606,"72":-0.19509730013051907,"73":-0.33799542362023377,"74":-0.16815350391421643,"75":-0.25063824497849707,"76":-0.08252750267411488,"77":0.04588891733126194,"78":0.2446466609687767,"79":0.09742222170375321,"80":-0.21465469658156983,"81":0.1941146657542472,"82":0.021960918611696804,"83":0.135926097694755,"84":0.08947110068845382,"85":0.1250468813130911,"86":0.15699106804890203,"87":-0.18111731975454942,"88":-0.13479941016598612,"89":-0.1798712615166912,"90":-0.2076407685783759,"91":-0.20527042623354538,"92":-0.14374999480882483,"93":-0.1272287823974778,"94":-0.13098516396924878,"95":-0.11250775447197907,"96":-0.034150054188283596,"97":-0.10629654151335359,"98":0.06494690323493442,"99":0.014046503121292424,"100":-0.14971078752023906,"101":0.02629395965040803,"102":-0.21245464686222446,"103":-0.15661522788558233,"104":-0.07896867739292172,"105":-0.05564582855258065,"106":-0.006041571665386613,"107":-0.01550169493403826,"108":-0.4130425577920949,"109":-0.2624655471876301,"110":-0.01159888505330078,"111":-0.10791225951997084,"112":-0.006252824084148949,"113":-0.12302039063978928,"114":-0.1534615239704021,"115":0.173578855398008,"116":-0.16247495348141552,"117":-0.02420189881161285,"118":-0.1815873728692906,"119":0.13473787660794453,"120":-0.09041184040389542,"121":0.0038673392812525994,"122":0.08617736587179965,"123":0.06909051340046338,"124":-0.2642250542424102,"125":-0.26377918059401845,"126":0.0022342913646200674,"127":0.0605836232129701,"128":0.1475450289227061,"129":0.08430356550903172,"130":-0.24824849203841937,"131":-0.00656528178487745,"132":-0.0964106135570628,"133":-0.13982759476352433,"134":0.1348121014836852,"135":0.16528616702621235,"136":-0.1583622297877272,"137":0.09403318713258059,"138":-0.2570255237590352,"139":-0.11159771489010259,"140":-0.4237625430542852,"141":-0.12584930730832472,"142":-0.1126282862012266,"143":-0.00559495731435948,"144":0.02912582161656197,"145":0.11569409314783993,"146":0.23174712232278988,"147":-0.13075359514977103,"148":-0.13858812397604728,"149":-0.11126886838981812,"150":-0.12722134361552653,"151":0.15049911017017217,"152":0.031111879509001007,"153":-0.046516571858250054,"154":-0.2809409517962303,"155":-0.3583108489753308,"156":-0.021005031230999883,"157":-0.2122074326569431,"158":0.03766349507888721,"159":0.18913593525237996,"160":0.17234650284299363,"161":0.14146836496925236,"162":0.14560928979738225,"163":0.2328409286325786,"164":0.12929142138865046,"165":-0.17486141718388784,"166":-0.12859133936201622,"167":-0.06829834602503256,"168":-0.33279953146384317,"169":-0.24123935793143886,"170":-0.07423539246705908,"171":-0.2529467287715302,"172":-0.03672967530842143,"173":0.01263909315476326,"174":0.12220539601933429,"175":0.0838503594274898,"176":0.2215667017045254,"177":0.30743480084514074,"178":0.0896847546284289,"179":-0.025743324146393756,"180":-0.04944229574641144,"181":0.04115465818130409,"182":-0.11494525006339204,"183":-0.1406836345069413,"184":-0.15615424440348885,"185":-0.1891506855690062,"186":-0.1953318211631044,"187":-0.09210440643012754,"188":-0.08584184905831523,"189":0.07526494107802523,"190":-0.005943158680701048,"191":0.2530539354008611,"192":0.5319372218535883,"193":0.16697805897829748,"194":0.13323160979513046,"195":0.07327939545698577,"196":0.1027225353116786,"197":-0.11905840583300105,"198":-0.17692779813965792,"199":-0.11213418824653203,"200":-0.32236882766437697,"201":0.011290091183430192,"202":-0.04153311300806363,"203":0.08819685350057996,"204":0.17130928267944723,"205":0.15667095460547104,"206":0.07351708624523036,"207":0.22517769726081313,"208":0.2810476633333326,"209":0.14314794476108078,"210":0.11608445130191565,"211":-0.0022729530886132334,"212":0.1614164305522193,"213":0.3079591748558976,"214":0.05068806036334841,"215":-0.04464774202360399,"216":0.14422360950165028,"217":0.049815241306019165,"218":0.05499279850191424,"219":-0.31478060693163046,"220":0.1268395069413275,"221":-0.1848594555752505,"222":0.09670660274255664,"223":0.0819398139926924,"224":0.05949667664847266,"225":0.21545467058199844,"226":0.31873500139178224,"227":0.24313521923195858,"228":0.11856993548448849,"229":0.1772597135636807,"230":0.36834970186251653,"231":0.1695979010030631,"232":0.25847482920381365,"233":0.11673442359030409,"234":0.23477033949737208,"235":0.2420105308357835,"236":-0.25270866300944456,"237":0.012541705047118552,"238":-0.1622230459891503,"239":-0.08851071615393585,"240":-0.16398655054666433,"241":0.004199185909211276,"242":0.15991702397627947,"243":0.07794571571471598,"244":0.2849809415431322,"245":0.16496118837090712,"246":0.14531393025327988,"247":-0.004950950580982796,"248":0.2449140066718956,"249":0.13892263120010834,"250":0.02290911159280311,"251":0.06267080067777864,"252":-0.2688404682973107,"253":-0.22016309519992544,"254":-0.16372435363093135,"255":-0.16682580448462728}},"5":{"bias":0.05564215551237445,"weights":{"0":-0.23264883990697555,"1":0.13769869010798405,"2":0.052576831830403174,"3":-0.24318548176360344,"4":-0.021019254397583096,"5":-0.10968057716903304,"6":0.05691134558738765,"7":-0.293662961365154,"8":-0.045987074054589586,"9":-0.14153499719984672,"10":0.02882558162712154,"11":-0.16835630904102863,"12":0.025289026118559783,"13":0.15457760766152745,"14":-0.16796781163648727,"15":-0.08481110957087148,"16":0.01642146770375952,"17":-0.11147208731980496,"18":-0.1376247358010517,"19":-0.07954213741182674,"20":-0.23179988145339625,"21":-0.22066407989039846,"22":-0.2538251810942763,"23":-0.1612711585138342,"24":-0.24450056009098292,"25":-0.0012505810626344468,"26":0.000019456190200768978,"27":-0.061421066296022474,"28":-0.08701674714819094,"29":0.1400210433150523,"30":0.2075919973868234,"31":0.1187806229845068,"32":-0.15320068728131792,"33":-0.2995260583918489,"34":0.00028051836731810616,"35":-0.2282267516775793,"36":-0.06486615174929952,"37":-0.19802987739450092,"38":-0.2347187491455019,"39":-0.2644272010959056,"40":-0.16302879374499488,"41":-0.15268504118742196,"42":-0.14231275445751612,"43":-0.0744169338304956,"44":0.24523505978288326,"45":-0.09134654675739128,"46":-0.1351463738172489,"47":0.1176487696982897,"48":-0.17640375330372104,"49":-0.049557557264649894,"50":-0.10812998314896917,"51":-0.1317323175908488,"52":-0.1210901387181234,"53":-0.27623408996552784,"54":-0.254996756511648,"55":-0.08119986155887057,"56":0.017168526761871618,"57":-0.12116073387913813,"58":-0.0747742335867756,"59":0.0003238404557885239,"60":0.21238539610320434,"61":-0.028456094811617164,"62":-0.1410965885829011,"63":0.15007820086889362,"64":-0.18369772347402225,"65":-0.028761671261338294,"66":-0.22317464919502036,"67":-0.1810965352612845,"68":-0.2549494713110263,"69":-0.21107974448137318,"70":-0.26105810161557447,"71":0.014152115765960342,"72":-0.22342726313991185,"73":0.051835779329263434,"74":0.22700276291659577,"75":0.024462322804578628,"76":-0.04610243159385854,"77":0.05988599237069137,"78":0.19931610142696354,"79":-0.14255168444916144,"80":0.046405013243914196,"81":0.09338748501485522,"82":-0.23949572416402634,"83":-0.09564449551876196,"84":-0.10887769042742078,"85":-0.19001605764969295,"86":0.06566665124914574,"87":0.04258115054743955,"88":0.11379509971301378,"89":-0.23676240585104677,"90":0.1863747552155525,"91":0.1769256212500346,"92":-0.035384017204675045,"93":0.15287000945547682,"94":0.1696766178766965,"95":0.018648141343744713,"96":-0.2662054042388116,"97":0.0696062799897871,"98":-0.19142281654540944,"99":-0.16817964936313623,"100":-0.13882898000125443,"101":-0.051770775192285845,"102":-0.12999603463557244,"103":0.019868005487066305,"104":-0.09016503765764103,"105":0.07301461859369249,"106":-0.18315780169177848,"107":0.03160821096248189,"108":-0.029088647225295836,"109":0.043189993721416256,"110":-0.02599927171036523,"111":-0.20371088069632126,"112":0.06806618134293115,"113":-0.06752430891736436,"114":-0.2538760865205723,"115":0.09388086261120712,"116":0.09087451786620017,"117":-0.161365258280257,"118":0.1574814839439309,"119":0.08665188969809685,"120":0.18841872911742846,"121":0.17230824484974822,"122":0.11046286843599737,"123":0.1992865605208739,"124":-0.007580769244054106,"125":0.03932688561626257,"126":-0.18498151746413438,"127":-0.026976910123604193,"128":-0.03335092209877732,"129":-0.17103166524204588,"130":-0.13524966052603024,"131":-0.09567605425387953,"132":-0.21996689380421444,"133":-0.009709220529730498,"134":-0.018988420458458232,"135":0.15443739622275515,"136":0.09356778109253419,"137":0.1608567782662639,"138":-0.17446189943917748,"139":0.017041012886282587,"140":0.22828473824183285,"141":0.10122999509971105,"142":0.0700972352995265,"143":-0.041287868619985735,"144":-0.041174074050990335,"145":0.11144997247240564,"146":-0.015801352300137073,"147":-0.1571106127825062,"148":-0.04255376353651224,"149":-0.05983749936288608,"150":0.008453886037793078,"151":0.1059975161527747,"152":0.14157003504990437,"153":0.10531411406183253,"154":0.1451497334731134,"155":0.017310545558438962,"156":-0.11611249315446125,"157":-0.027081217598130022,"158":-0.05780930312062023,"159":-0.12927327898292695,"160":0.1389463228660669,"161":-0.013495890001502486,"162":-0.04856220049558418,"163":-0.1320708345854322,"164":-0.016686161506642705,"165":-0.09039289216252458,"166":-0.1374672042793102,"167":-0.024105060217839838,"168":-0.08160381233060532,"169":-0.19885611780506368,"170":-0.1278803614701117,"171":-0.04804201040800618,"172":-0.00821589582614411,"173":0.15298872073872832,"174":0.03555787606761879,"175":-0.18277785692092716,"176":-0.2582217606133266,"177":0.03300930856487304,"178":-0.015179796084376878,"179":0.0672108857498108,"180":-0.12314240767056686,"181":-0.08139760051675833,"182":-0.03538224522562462,"183":0.008099282225134266,"184":-0.09447073740921269,"185":-0.03826858021065104,"186":-0.16780052497884276,"187":-0.026739890906164767,"188":0.15393177042972764,"189":-0.04052003134338043,"190":-0.17974809157052662,"191":-0.05117030180541265,"192":-0.08343724719412561,"193":-0.2820460738961404,"194":-0.10088148469171199,"195":0.045972290791978745,"196":-0.1564478218302217,"197":0.03745925906585664,"198":0.0593130373071899,"199":-0.08085035704536003,"200":-0.06928348173010702,"201":0.011702005966727007,"202":-0.020952374008150886,"203":-0.006639371968455994,"204":0.05893094854415582,"205":0.022062006341531784,"206":0.05553618229378425,"207":0.13904475010791556,"208":-0.19956761056178948,"209":-0.17310128937845876,"210":-0.060125053517431845,"211":-0.09937209874089482,"212":-0.08649726185475402,"213":-0.09709036351624512,"214":-0.12975742888591463,"215":-0.06786383043759064,"216":0.08887953486426359,"217":-0.07818345818725943,"218":0.005008557798318435,"219":-0.011956238915929049,"220":0.14533045446219542,"221":-0.005275238777182153,"222":0.09719290282090808,"223":-0.03109467363841333,"224":0.11776545541700435,"225":-0.09538957147457212,"226":0.04522636532096498,"227":-0.04058854835158006,"228":0.1667010004874363,"229":-0.05445049135060696,"230":0.04037951181339803,"231":0.07672102087167636,"232":0.08236831561057342,"233":-0.19600877838974498,"234":0.006103052269248018,"235":-0.09034904011791828,"236":-0.005874585407913308,"237":0.11412422177890348,"238":0.16970693441831206,"239":0.05744628186866473,"240":0.10253176257942986,"241":-0.12097251237091597,"242":0.050218749800896786,"243":-0.20511278875116146,"244":0.14977233368375448,"245":0.10612788857704207,"246":-0.0175869333307294,"247":0.017222472931932697,"248":-0.2405241904163202,"249":0.107183610248313,"250":0.03193928537961416,"251":-0.10070161822250791,"252":0.14465707271069522,"253":-0.027678111798938133,"254":-0.0820382127732603,"255":-0.07235303732300656}},"6":{"bias":0.21833990700231387,"weights":{"0":0.2556039026637634,"1":0.28795376394888017,"2":0.15628013631241164,"3":0.17807323477356438,"4":0.11407134896151258,"5":0.14693784546753486,"6":-0.07791195987859707,"7":0.1406401673589702,"8":0.051873646151499454,"9":-0.03740962354479857,"10":0.12825103804606341,"11":-0.1584172889403086,"12":-0.06097308391480073,"13":-0.23335214223384096,"14":-0.11663044602741908,"15":-0.3095899404353375,"16":0.21445503724990997,"17":0.07081850494288255,"18":0.011035600688716474,"19":-0.06296839172568373,"20":0.1486038885573622,"21":0.11308646511131652,"22":0.06142245566483901,"23":0.04350770365075752,"24":0.18707629931684017,"25":-0.16440675483235298,"26":-0.09193337424067792,"27":0.04771630162306852,"28":0.15908233085598225,"29":-0.03974275088509903,"30":-0.07760171119315729,"31":0.04570250114263496,"32":0.0963400222073199,"33":0.07197628392062935,"34":0.05015397602201461,"35":-0.13524179242243115,"36":0.13366667181023517,"37":-0.20041522435706688,"38":0.03982387247287174,"39":-0.07109565348769815,"40":0.19962202063720644,"41":0.1430923264964179,"42":0.07719408180105618,"43":0.21135786495137399,"44":-0.12458802453168955,"45":0.060386835914201686,"46":0.1674054280111367,"47":0.21029297787113696,"48":-0.020830599312553193,"49":-0.2312728061279826,"50":-0.097871849786357,"51":0.06734651275834114,"52":-0.005250259380027419,"53":-0.1562049289688625,"54":-0.0013539565109485497,"55":0.2088269101763005,"56":0.021882078223975303,"57":0.2752438595030925,"58":-0.053011944545522806,"59":0.23602519328423946,"60":0.21758601847113987,"61":0.39686837982137463,"62":0.2896704201497086,"63":0.11268018416584935,"64":-0.07801067282685281,"65":-0.2930109169739838,"66":-0.2973254789626868,"67":-0.2687743754757031,"68":-0.029168272340767985,"69":-0.16005840489576295,"70":0.07338240799305024,"71":-0.22389416628457195,"72":0.20982670916870275,"73":0.27878362286030445,"74":0.037070045976549795,"75":0.13241918667720984,"76":0.02016296900654585,"77":0.26370402465144965,"78":0.33664591823753515,"79":0.10516985926977701,"80":-0.028613124247924566,"81":-0.044702969717708596,"82":-0.08302557057436709,"83":-0.20971411688828795,"84":-0.2690726503226281,"85":-0.20378535176185233,"86":-0.251222014827439,"87":0.06027955143623509,"88":0.14624869219204595,"89":0.03092223854234171,"90":0.005302906948758737,"91":-0.1497949161849175,"92":0.09405956367302312,"93":-0.01868964941472534,"94":0.17325900634164026,"95":0.14391996936755044,"96":-0.25252617121431425,"97":-0.12971729152311576,"98":-0.06971179507586357,"99":0.09338179399687094,"100":0.07152098691273001,"101":-0.19028400632121117,"102":0.07969858362451278,"103":0.10609019335400645,"104":0.15364862046809577,"105":-0.022185450693609696,"106":-0.14506592665037835,"107":0.09275224946321949,"108":0.10946650021601542,"109":0.14364896129121915,"110":0.08397726237198443,"111":0.0005552248556727966,"112":-0.07179565497080286,"113":-0.09381497445712451,"114":0.16292763853454742,"115":0.01730597126043634,"116":-0.0206809469482449,"117":-0.10521734370930096,"118":-0.054531690458982866,"119":-0.1615422901639643,"120":-0.1449720823408194,"121":0.08230998409449593,"122":-0.20941892495667272,"123":-0.0036813032186036117,"124":0.15804444735931125,"125":-0.27557314669064165,"126":0.25994436285881367,"127":0.04480754105754187,"128":0.05675495948441207,"129":-0.013365997786692462,"130":-0.12500276065588867,"131":0.021847188297842813,"132":-0.2882215799280417,"133":-0.05011413663260542,"134":0.1107795055013303,"135":-0.10362961259950332,"136":-0.03539057450564021,"137":0.12140333660505395,"138":-0.1868082189077855,"139":-0.03966063436317856,"140":-0.056573160919720186,"141":-0.06654878672858609,"142":0.19616897557206628,"143":-0.11634091740408904,"144":-0.01183650799100869,"145":-0.23607016481801185,"146":0.1948862583879061,"147":-0.04738093719162926,"148":-0.2633698713115166,"149":-0.27425838015740206,"150":-0.07658792894367016,"151":-0.002207879394125475,"152":-0.1566437124541647,"153":0.005560327533974923,"154":0.1299799052463402,"155":-0.07913889302988639,"156":-0.22566350958898068,"157":0.16833957338326774,"158":0.13544835518469087,"159":-0.005562278248403692,"160":0.03234139380900191,"161":0.12332843507549963,"162":-0.08129773577079637,"163":0.01708864496064054,"164":0.21652559911937522,"165":0.17889818777009972,"166":-0.28481042229935527,"167":-0.16646179866866873,"168":0.09122609756675913,"169":-0.1105302990663535,"170":-0.0356621027713849,"171":-0.11335961314487573,"172":0.16884998860004977,"173":0.13849942115270344,"174":0.13760926981073762,"175":0.16884941918880572,"176":-0.152058233670958,"177":0.1327067889942104,"178":0.13438683960864303,"179":-0.17254262502864146,"180":0.10547407317941986,"181":0.1873086805772229,"182":-0.17643322079951118,"183":-0.1646600838947319,"184":-0.23644290799326653,"185":0.020563535131429413,"186":0.13771111108840833,"187":-0.18912637482288103,"188":0.011098661684999175,"189":0.2214465316237196,"190":-0.13051008464289013,"191":-0.17205841655322252,"192":-0.015536386238002457,"193":-0.2774410461547209,"194":0.07037555833735934,"195":0.07314634529190588,"196":-0.2324961458407612,"197":-0.06763144307644359,"198":-0.038468723706785835,"199":-0.0903307813714819,"200":0.006750272402867069,"201":-0.1949448598720953,"202":0.15671110571076804,"203":0.0967664254726597,"204":0.08396661635744468,"205":-0.06305224625374832,"206":-0.14920476388366966,"207":-0.09383089772727118,"208":-0.0012922737857181726,"209":0.0394387216977751,"210":-0.034016358283905604,"211":-0.06894762745885978,"212":-0.043054950121107244,"213":-0.2288177286102464,"214":-0.27220278305467055,"215":0.055559599539728874,"216":0.10641782378069074,"217":-0.019441861482431107,"218":-0.12225304697405794,"219":0.0026433013658843647,"220":0.03146484831725592,"221":-0.1380495125167978,"222":-0.15387945128147365,"223":0.15207383246199652,"224":-0.08037961145059049,"225":-0.06969878542222895,"226":-0.10172157696489934,"227":0.09805921423515944,"228":-0.37356541564710954,"229":-0.07334951993565841,"230":0.00859282702107644,"231":-0.14566229658116958,"232":0.07609163207854809,"233":-0.1736280878073131,"234":-0.12575277549667477,"235":-0.11468002248946806,"236":-0.19245701217971173,"237":0.1281028461896018,"238":0.10201952702831658,"239":-0.1832215467644779,"240":0.009960606027879,"241":-0.06563628115576087,"242":0.1622628835864546,"243":-0.08232221838183715,"244":0.023638445234261812,"245":-0.07985576089250745,"246":-0.15709452889794337,"247":0.0003018158677710903,"248":-0.2390887259750313,"249":-0.017512239558878866,"250":-0.2305324303200681,"251":0.020562550520600815,"252":0.13627291942696132,"253":-0.13959193681033616,"254":0.17012404659869337,"255":0.1802652809239066}},"7":{"bias":-0.03346663623240385,"weights":{"0":-0.22272032162680927,"1":0.11175807404101504,"2":-0.0591815530234034,"3":-0.2514025907813754,"4":-0.059248326950285514,"5":0.022428561853296006,"6":0.11073769900524857,"7":-0.2706648010367654,"8":-0.29732820451518605,"9":-0.12345366992329036,"10":-0.07515066533998815,"11":-0.34868234070892273,"12":-0.1164599011540308,"13":0.06342556302572816,"14":-0.2656276691927857,"15":0.26808533842356636,"16":-0.2582598035124122,"17":-0.24899801522679296,"18":-0.1007257060737407,"19":-0.0483218349452033,"20":-0.07351717067141765,"21":-0.20417400302349226,"22":-0.020840188782514667,"23":0.01849289075851074,"24":-0.04442566392684397,"25":-0.1422984075428384,"26":-0.10171872508879583,"27":-0.1479271925956726,"28":0.15026219567310767,"29":0.15986691583701224,"30":-0.2684629989138278,"31":0.04476964696760008,"32":-0.02808414995809936,"33":-0.2730848864365162,"34":-0.1403762741397116,"35":-0.14381325662191174,"36":0.10937256477822806,"37":-0.20624835084655613,"38":-0.20769441906477498,"39":0.14061660374723567,"40":-0.18707901160811868,"41":-0.17440515158261066,"42":-0.10036379131582482,"43":-0.01535849736538816,"44":-0.023732968759514337,"45":-0.13640994374382628,"46":-0.2887556856572576,"47":-0.21320396414228068,"48":-0.020674730448905505,"49":-0.09840101362443276,"50":-0.12516656494016204,"51":-0.11110766336475907,"52":-0.13850522063854445,"53":-0.19385400514001358,"54":0.1514795592812756,"55":-0.17101643901566138,"56":0.045474283153794585,"57":0.12125226108567692,"58":0.027584238629708234,"59":0.10962169825154569,"60":0.02218592415586544,"61":0.014337258637591686,"62":-0.18643689537619013,"63":0.04248434008697112,"64":-0.1750436471476832,"65":0.01151923093363024,"66":-0.06122211935611435,"67":0.028676101813739238,"68":-0.07895495585123787,"69":-0.11495088673580109,"70":-0.16173507735534076,"71":0.14973089827164188,"72":-0.03641052822157653,"73":-0.09713499066486955,"74":-0.11379645855275772,"75":-0.1836971575327564,"76":-0.187326063521664,"77":-0.002865398418557214,"78":-0.20257387939991645,"79":-0.2313779378513391,"80":0.06265893673295998,"81":0.18308240695594696,"82":0.15609399068175414,"83":0.004337073230918279,"84":0.11781691851250048,"85":0.14535910297627802,"86":0.08708201886897447,"87":0.13461392165053793,"88":0.23156219107021125,"89":0.031023291214182624,"90":-0.07936611664712143,"91":0.0647461121897096,"92":-0.19576269016225598,"93":0.09017376115752818,"94":-0.165145215494361,"95":-0.07218893515793122,"96":-0.16071772138069923,"97":-0.09783357114197734,"98":0.10847038013230137,"99":-0.045254177768441095,"100":-0.03169781686951011,"101":-0.10865560051778314,"102":0.1407712594003917,"103":-0.0054487810299231835,"104":0.1719970446830481,"105":-0.1256140939735589,"106":-0.12206357650728676,"107":0.09341871951983192,"108":-0.03779793459356937,"109":-0.2864816388570959,"110":0.06595125442938518,"111":0.17101521181554546,"112":-0.047244264685858205,"113":0.060144407120581146,"114":-0.03129035392889788,"115":-0.1836487149147557,"116":0.05332883432034446,"117":-0.04564691425292066,"118":0.024847559125821136,"119":0.08112838151015395,"120":-0.11359587333356697,"121":-0.11006797694302804,"122":-0.179735621700621,"123":-0.2080344910089255,"124":0.11536013758217036,"125":0.031220810500261893,"126":-0.0012338344354911306,"127":0.07247250659888674,"128":-0.1917314916455202,"129":-0.05510929032161077,"130":-0.14461908864847006,"131":-0.09156456670686594,"132":0.23280862249665002,"133":0.10829083133115096,"134":0.16868848854779195,"135":0.002389819523780855,"136":-0.07288492120204497,"137":0.25563769975485545,"138":-0.05453383392734864,"139":-0.21846378357724416,"140":0.083936943657921,"141":-0.06897201718228284,"142":-0.12965012465508335,"143":0.02285962780035438,"144":-0.09928770317603859,"145":0.07866579850159482,"146":0.032284433600033,"147":0.18133975365396687,"148":0.24153329950643246,"149":0.1805685749318109,"150":0.005176449432183271,"151":0.05092309002511559,"152":-0.26561679625465506,"153":-0.14369514932345262,"154":-0.13320867196125374,"155":-0.21359356042158298,"156":0.14574175969129405,"157":-0.11335151508334654,"158":-0.22533597478078093,"159":0.017712251146376992,"160":0.08258005664531573,"161":-0.17422404646410194,"162":-0.05489762605849922,"163":0.060331121651402954,"164":-0.10251402684127853,"165":0.14616689517161074,"166":-0.04970497556314394,"167":0.02092895709440581,"168":0.16355569162580658,"169":-0.16532077800853812,"170":-0.23754204273553461,"171":0.05918459629336588,"172":0.08538631300961134,"173":-0.10739198714390259,"174":-0.20534094106233794,"175":-0.17480016262691023,"176":0.06474557827486695,"177":-0.19597723138005896,"178":-0.027732408981175034,"179":-0.1074776959374223,"180":0.07936468510047563,"181":0.08367500349869295,"182":0.010429774640993894,"183":0.1431787499858,"184":0.16436493717206807,"185":0.2242058030096961,"186":-0.11133122520254693,"187":0.060444424610703394,"188":0.09726016067065218,"189":-0.04847849826560239,"190":0.09970108275203234,"191":-0.1800866362983239,"192":-0.14163255813210318,"193":-0.040817439183778524,"194":0.11735951559834497,"195":-0.17531423685952913,"196":0.11585571833464728,"197":0.12053671835242087,"198":0.07732225085091585,"199":0.05892326618530541,"200":0.2520354840950965,"201":0.1962952558553372,"202":-0.14358482424711305,"203":0.19217868435699015,"204":0.16194182921124578,"205":-0.04762179395698624,"206":-0.14921445272690897,"207":-0.13668955461654636,"208":0.21720589684375446,"209":0.13451992004221963,"210":-0.016953481879030566,"211":0.03371595289289378,"212":-0.12028073477888016,"213":0.16359330016601062,"214":0.1612575004313417,"215":0.009913955892533832,"216":0.0905928671569603,"217":0.0682195490068898,"218":-0.03824373336245453,"219":0.26565800549278595,"220":0.10547743438329356,"221":0.15968470882799038,"222":0.11666220677033841,"223":-0.18627317682559152,"224":-0.05290876339256487,"225":-0.06298763275799141,"226":-0.0141986097040166,"227":0.0529769412107545,"228":-0.1399017519564287,"229":-0.13233032942592166,"230":-0.0751735165296985,"231":0.01553101006843852,"232":0.11168621185363725,"233":-0.22409582771502717,"234":0.2119225694958053,"235":0.20388558284553274,"236":-0.05808361477112237,"237":0.18278607895152257,"238":0.026985935259999552,"239":0.05195981157563331,"240":-0.049531203561755666,"241":-0.14310044187341697,"242":0.018620226775984374,"243":-0.15777307049097936,"244":-0.16294374511312318,"245":0.1249419110517415,"246":0.16940586548884554,"247":-0.045123111091415216,"248":-0.0011837054652629896,"249":0.005703409796810976,"250":0.05755009435150529,"251":0.03929143338199673,"252":0.0027734680025444888,"253":-0.04153081814128834,"254":0.0710884719806284,"255":0.17370251887870752}},"8":{"bias":0.06739767879756763,"weights":{"0":0.10357028885932927,"1":0.046311991004691015,"2":0.3611678426994156,"3":0.14850783459147807,"4":0.27124555746830226,"5":0.28447805219095823,"6":-0.047321547818483654,"7":0.08375193113708754,"8":0.08110760130683804,"9":0.2178922342916781,"10":0.032317202970936265,"11":-0.02171587057685956,"12":0.159139206788362,"13":-0.3460060583863896,"14":-0.13819230204609054,"15":-0.2413935208038038,"16":0.11143531553379513,"17":0.018789563513706437,"18":-0.0965936669636,"19":0.2791336734107807,"20":0.09547641739401094,"21":-0.1157387078230189,"22":0.006532587813289231,"23":0.06266428526786129,"24":0.06878156479596902,"25":-0.24259938971091058,"26":-0.051948700900535265,"27":0.12590131835587962,"28":0.12831219057613963,"29":-0.23272940472234455,"30":0.27221031307131605,"31":0.32546365286363,"32":0.0264185688745175,"33":0.16970229094317799,"34":0.06761144430926287,"35":-0.07861872059604012,"36":-0.033710830722899966,"37":0.15075247218788057,"38":0.14155079690830172,"39":0.018437157674369375,"40":0.28877957789997577,"41":0.022166007224273136,"42":0.0714365348834929,"43":0.07489919839674246,"44":0.1460351996590829,"45":0.24998410235488086,"46":0.16823358939782346,"47":0.18059204654555097,"48":-0.08353909933263882,"49":-0.008443128058789676,"50":0.15317303969642132,"51":0.2571209890306626,"52":0.027373744369247756,"53":0.04616228248774568,"54":-0.049537994392098376,"55":0.2718459894809269,"56":0.26345199712665684,"57":0.07045832075076369,"58":0.1288434052438047,"59":0.18541367075111814,"60":-0.0166777061994615,"61":0.050910365689780086,"62":0.30334402328632987,"63":0.12092788117308612,"64":-0.048112671674563554,"65":-0.17887571824826784,"66":0.17100439718207824,"67":0.13513873744185442,"68":0.10295831133073417,"69":0.0873577879652591,"70":0.006354275366094478,"71":0.16194942588431951,"72":0.18600499121734573,"73":0.261690967271392,"74":0.15870357897164042,"75":0.3355692159982029,"76":0.2750960357534164,"77":0.08975780499135423,"78":0.233459162379674,"79":0.1271387799457326,"80":0.08357433781524583,"81":-0.09173605502900044,"82":-0.0642554732482676,"83":-0.08745734264758423,"84":-0.006897522224425009,"85":-0.058614854104728165,"86":-0.1269595162187439,"87":0.09692254277926468,"88":0.16637381655402897,"89":-0.00827955074910021,"90":-0.13232766536489007,"91":0.2660450499589995,"92":0.3568209138214178,"93":0.10748942830865073,"94":0.16487272335502168,"95":0.06801626860875214,"96":-0.07040386786782916,"97":-0.12679198170136208,"98":0.14036347360042944,"99":-0.13280489003540005,"100":-0.02272058636834277,"101":0.20533840600056905,"102":0.029830601757874955,"103":0.02544511009109714,"104":-0.11680210766476032,"105":0.24849631536597638,"106":-0.06585223147069495,"107":-0.05918928269664934,"108":0.26993893620825377,"109":0.18638473302358663,"110":0.12307474885573316,"111":-0.19252927281567966,"112":-0.1317864707648576,"113":0.036158721259822876,"114":-0.09313281550588433,"115":0.18307004024280768,"116":0.009610473421725158,"117":0.11569962600088765,"118":0.21471713468897438,"119":-0.06403571680386241,"120":-0.10243003455979793,"121":0.027754641706925477,"122":0.12495166387214696,"123":0.08598270858075471,"124":0.1629420212367455,"125":0.03397152466345231,"126":-0.033593096147095186,"127":0.11981645874029641,"128":-0.3109354347374861,"129":-0.1679138581053959,"130":-0.17732296968886802,"131":0.0579929384705079,"132":-0.14883857644543452,"133":0.02485141545101854,"134":-0.08046710687258592,"135":0.1352781798430263,"136":0.004697274299898711,"137":-0.015885773452574307,"138":-0.21779763007222938,"139":0.15345760023179494,"140":-0.0139362587184691,"141":-0.2080908182648619,"142":0.01592861664850932,"143":-0.08979049082573531,"144":-0.24702839114965724,"145":-0.4744178215430101,"146":-0.26145443055758755,"147":-0.013983500861506484,"148":-0.09235380647250761,"149":-0.041148545325734816,"150":-0.13839576007498458,"151":-0.03798919707468368,"152":-0.06920664516279885,"153":0.14707352236493568,"154":-0.11494572883263897,"155":-0.1621855316387697,"156":-0.20209788537622064,"157":0.027185014965557572,"158":-0.010414841517677688,"159":0.12591493399192163,"160":-0.4113849199557047,"161":-0.3260156887774221,"162":-0.20903847340526904,"163":-0.24902143855957737,"164":-0.16014508305743205,"165":-0.10156290676918904,"166":-0.20468824865184265,"167":0.04472784133168587,"168":-0.04740294807548275,"169":0.0015731411977813784,"170":0.1541738736529977,"171":-0.0007306003048286737,"172":0.005550892948818329,"173":0.2134434480601216,"174":0.021754042460457222,"175":-0.19129472694071575,"176":-0.32412393316207694,"177":-0.3204755005581355,"178":-0.16677444103017763,"179":-0.1233808969784679,"180":-0.38031636017640413,"181":-0.10597093200579077,"182":-0.1810863094986561,"183":-0.22791576758591794,"184":-0.08232916549413341,"185":-0.051119638613883946,"186":-0.3393936835930434,"187":-0.23681573697161618,"188":0.022322897624465064,"189":-0.1753864773670778,"190":-0.08193012493531078,"191":0.08707468604486195,"192":-0.25634450095649025,"193":-0.154364915223835,"194":-0.11927745818591826,"195":-0.04643649958575245,"196":-0.18377414911461984,"197":0.014619395114900634,"198":-0.32605571743393325,"199":-0.2638075518779192,"200":-0.10252293037189521,"201":-0.325358133637054,"202":-0.1158531719484701,"203":-0.04382181719758515,"204":-0.18241141744038417,"205":-0.10175641204324914,"206":0.18474019810036432,"207":-0.13127980198153283,"208":-0.08130897669922721,"209":0.14786587238746587,"210":-0.025614232159557007,"211":-0.27213465182607866,"212":-0.20705664168116952,"213":-0.41462081101951026,"214":-0.007296509084633515,"215":0.0774880527033064,"216":0.0023547798384876396,"217":0.05749586310164531,"218":-0.11668709237110539,"219":-0.2618577371652012,"220":0.043146747410094846,"221":0.07479577911245479,"222":0.31676450553572255,"223":0.06735318368818355,"224":0.1496281422075706,"225":-0.17003502478897023,"226":-0.2130118212364753,"227":-0.08797397109919892,"228":0.06066876516420049,"229":0.07359128412533741,"230":-0.17346578895475168,"231":-0.2761154170828835,"232":-0.2407120473388444,"233":0.16621333905741772,"234":-0.1430070555483421,"235":0.01865163525529936,"236":-0.2165702577079299,"237":-0.05561773201966742,"238":-0.1877066458415059,"239":0.000602049269395568,"240":0.034115189342658156,"241":-0.06962232225290356,"242":0.22292963007292002,"243":-0.13004067685897264,"244":-0.2541003230840311,"245":-0.3414057841696929,"246":-0.12914226804653597,"247":-0.13760828064128677,"248":-0.09496468746862943,"249":-0.09048271826975093,"250":0.06939419675252255,"251":-0.22858126675844437,"252":-0.05918749197797078,"253":-0.13124493696392445,"254":0.0694492089148284,"255":0.07448732503461417}},"9":{"bias":-0.12700731979794383,"weights":{"0":0.08207744447762226,"1":0.22822120672530824,"2":0.24268267761891152,"3":0.0003438381885089429,"4":-0.07038819343150025,"5":0.12763088798221559,"6":0.104056305968183,"7":-0.11552869542865306,"8":0.1371426633867646,"9":-0.13188265192390555,"10":0.07290190930182994,"11":0.04232807185863908,"12":-0.015014261412462114,"13":-0.027876738672587505,"14":-0.04967877703215444,"15":0.1840974480117951,"16":-0.12045503764035881,"17":0.04607777650945942,"18":-0.06210866445418014,"19":0.024052843517438544,"20":0.04458280375217128,"21":0.04493164192567256,"22":0.010926094753218617,"23":0.21057963409828664,"24":-0.06637002601641283,"25":-0.1294799512116776,"26":0.213761395166463,"27":0.07416654469696385,"28":-0.13362483106421655,"29":0.15048628884448884,"30":-0.027071730049083732,"31":-0.047662894262876884,"32":0.06445915898747628,"33":0.1537425961991707,"34":-0.019226123435979965,"35":0.1414894471871132,"36":0.2042592721776043,"37":0.17780673573127992,"38":0.27622466611447294,"39":0.30701623158853514,"40":0.07266363288225973,"41":0.25264573225254,"42":0.06889082031789684,"43":-0.22331434159562602,"44":0.00728649146658477,"45":0.17041019383157965,"46":-0.1784395129334592,"47":0.06408732320579467,"48":-0.12196705695198863,"49":-0.10627231728568078,"50":0.13651618862651088,"51":0.11566574969475832,"52":0.027633656804325744,"53":0.2505778628857254,"54":0.0960824803961423,"55":0.18912684421103468,"56":-0.06782175686317601,"57":0.021924051487291433,"58":-0.20444494209783387,"59":-0.12859118436112607,"60":0.09710100891846149,"61":-0.16933706203883644,"62":-0.17368077176332225,"63":-0.11232606079505593,"64":-0.01757092532956251,"65":-0.09028080749831868,"66":0.07415937752113144,"67":0.06057034988297805,"68":-0.12054007796078116,"69":-0.18413397211102145,"70":0.03257667506658708,"71":0.17666930227517846,"72":0.17263315178223626,"73":0.1801229518543947,"74":0.055276427534710335,"75":0.05391726002772571,"76":-0.0020100468091376537,"77":-0.019592281550097925,"78":-0.015726316616360734,"79":0.03908079055245384,"80":-0.1669834876917368,"81":0.050392506322255816,"82":-0.20506721439629655,"83":-0.0296195508293555,"84":0.04608722884515558,"85":-0.0646834672100863,"86":-0.13475493237022002,"87":0.03619961697780883,"88":0.048018021867615945,"89":0.16733349051485635,"90":-0.07165903745568321,"91":0.06508782380523256,"92":0.054079598739047365,"93":0.15476047990411892,"94":-0.17809856283171696,"95":-0.1721202009226933,"96":-0.09493463599385385,"97":0.0814631408642935,"98":-0.19196031729112067,"99":0.13097478355004125,"100":-0.17918443828683375,"101":-0.21521054670474277,"102":0.03658339921858188,"103":0.0986309587898103,"104":-0.18105401484266015,"105":0.009124276583697001,"106":0.13153573782300937,"107":-0.11363111785944031,"108":0.03523151038437249,"109":-0.1590836061112258,"110":-0.1914586862862004,"111":-0.11377200624882165,"112":-0.09925889930565976,"113":-0.13505232110380969,"114":0.21444623337697422,"115":0.16135908768546695,"116":-0.16672278879089505,"117":-0.08697850722543436,"118":0.01724364170948391,"119":0.04448475140961512,"120":-0.2976053587052525,"121":-0.15047907854428574,"122":0.19425285492753416,"123":0.10245450622338119,"124":-0.021831443737109196,"125":-0.14250645517488533,"126":0.027377093934688096,"127":-0.06398061462049606,"128":0.11152471915262424,"129":-0.07129446712484368,"130":-0.10274606377204747,"131":-0.05491944372240414,"132":-0.05046989727668248,"133":-0.013983520706607681,"134":0.02474095783153208,"135":-0.09593028177494256,"136":-0.25388731180583596,"137":-0.07642809954323121,"138":-0.17205635905737018,"139":-0.15665415861665657,"140":-0.1544197612637072,"141":-0.1341289111382662,"142":-0.10721861687613099,"143":0.006165659600622939,"144":-0.16739059715796747,"145":-0.0973826127618376,"146":-0.04383318076676692,"147":0.014067986907894545,"148":-0.06729356068597613,"149":0.18244917348234693,"150":-0.15648410269150861,"151":0.08449016990558897,"152":0.01804130749319173,"153":-0.03110236354190785,"154":0.01420534264724441,"155":-0.09805323418712245,"156":-0.02288052709712112,"157":-0.11097523769448044,"158":0.01650507432859008,"159":0.009879143120667858,"160":0.03718039411920818,"161":-0.05962720476200806,"162":0.06041613013465129,"163":0.10581133955106534,"164":0.19180986615161055,"165":0.02278451158962854,"166":-0.07170101055354876,"167":0.028622672652575277,"168":-0.17812635978472258,"169":-0.15981059551588148,"170":-0.03084595091553597,"171":-0.00764855210565054,"172":-0.07573899352731416,"173":-0.04197094002290994,"174":0.04388725716225665,"175":0.002418378978985819,"176":-0.07400867101079109,"177":0.1188855209259739,"178":0.13541365613103343,"179":0.09215648894099436,"180":0.16059899935091948,"181":0.10389355848324992,"182":0.061091370472107186,"183":0.0866764133985077,"184":-0.19079285575360866,"185":-0.1400165945983185,"186":-0.1864922007922808,"187":-0.044867510087337,"188":0.004830181580370825,"189":-0.02356451200061895,"190":-0.04460296570948048,"191":-0.18190202828267604,"192":-0.11262022419583265,"193":0.17811885847762238,"194":0.12474488718782295,"195":0.0725182950347716,"196":0.02841435365327493,"197":-0.2413644642920205,"198":-0.17265662583718777,"199":0.058477879899562255,"200":-0.2416321321041771,"201":0.05069932086225116,"202":-0.023751275838748906,"203":-0.27694580033406574,"204":0.20757627075467283,"205":-0.12400655748781063,"206":-0.06613659663892539,"207":-0.08056193948768416,"208":0.054206095241580564,"209":-0.028477468875398045,"210":-0.18479176399837058,"211":0.03549678798039472,"212":0.10346613024922548,"213":-0.21280725133782388,"214":-0.025884242170338006,"215":-0.053382297554948735,"216":0.08110732415730393,"217":-0.09326177308314344,"218":0.07619637324832311,"219":-0.14914605527428038,"220":-0.23190298849749258,"221":0.0688071962147802,"222":0.1226394967335572,"223":-0.16498873655045798,"224":0.11095253168972477,"225":0.2538852335189938,"226":-0.1207735665401258,"227":-0.16262274291562803,"228":0.02135231931401458,"229":-0.242176175640991,"230":0.01963598007411514,"231":-0.1522453601550167,"232":-0.10087095594709013,"233":-0.0915921936524032,"234":-0.16459080711669155,"235":-0.009043109363514077,"236":-0.0026287543868685065,"237":0.19553971766726108,"238":-0.04935777877010827,"239":0.09396670517834176,"240":0.2082940799114741,"241":-0.08684251550964496,"242":-0.026302223690329887,"243":0.07134025794414667,"244":-0.03788253106217144,"245":-0.11015577341280323,"246":-0.07788271277539642,"247":0.06488037359924521,"248":-0.28025133961356535,"249":0.08300521178663865,"250":0.1054236613191297,"251":-0.14460107729483043,"252":0.1902012310802384,"253":0.16148528640542759,"254":0.18412194108316463,"255":-0.17077888057532153}},"10":{"bias":-0.24258460252816563,"weights":{"0":0.05697325000322678,"1":0.14285035533109058,"2":-0.06953472392235512,"3":0.048210493930786046,"4":0.14903356693468567,"5":-0.21955208543551988,"6":-0.26082110398409625,"7":0.05708313366014091,"8":0.00500728832671323,"9":-0.04067374576245753,"10":-0.1365808005360998,"11":-0.18064890710085804,"12":0.039790646763320045,"13":-0.21184688514377029,"14":-0.3508480830195846,"15":-0.1311071898899761,"16":-0.11179657144801064,"17":0.02803402427340816,"18":-0.013874353852666044,"19":-0.28195655171665734,"20":0.01600586342642482,"21":-0.19788447664077052,"22":-0.11718557073113615,"23":0.07542111199515297,"24":0.004509648829097294,"25":-0.01692227987730392,"26":-0.3216095498545558,"27":0.13668491313935402,"28":0.05490442577813793,"29":-0.019984568930166015,"30":-0.09180650722694775,"31":0.05517431734553835,"32":-0.22928666958522545,"33":-0.2563348774508036,"34":-0.16833668880048497,"35":-0.29344888345471937,"36":-0.202402910400669,"37":-0.15681522766466607,"38":0.07023575869898933,"39":-0.08648093218031436,"40":-0.10085861292513267,"41":-0.018126677769499715,"42":0.21052321036099156,"43":-0.030526912533086904,"44":0.14306990896779004,"45":0.09670738806308846,"46":-0.06432287931710769,"47":-0.010433380139193694,"48":-0.07072162644050353,"49":-0.3116111129781681,"50":0.03693251517616979,"51":0.032986727891721294,"52":-0.18214163855749602,"53":0.1537106429836587,"54":-0.11412332050522096,"55":0.12376841780034521,"56":0.16393234246210814,"57":0.29158400918953964,"58":-0.09553728202509143,"59":0.17866844334884033,"60":-0.09682118928527055,"61":-0.007862609827289648,"62":0.1666290462739289,"63":0.06153543317668871,"64":-0.17446802517181106,"65":-0.012634550736266882,"66":-0.040122814002403966,"67":0.0691837100424905,"68":-0.2313151499900964,"69":0.14397879370550334,"70":0.12201647109216723,"71":-0.004261556833049663,"72":-0.031072936978598562,"73":0.1537884046342309,"74":0.08950481886259998,"75":0.10651473091934748,"76":0.07005360125933954,"77":0.2783494172045683,"78":0.1658733740905904,"79":-0.0420888840820469,"80":-0.020740865149156382,"81":0.14431885314950338,"82":-0.055248553901229965,"83":0.04113253838017594,"84":0.12720254978500192,"85":-0.056665208157137964,"86":-0.09186349370741136,"87":0.036389401069233364,"88":-0.20273758008526907,"89":-0.08216438950248267,"90":-0.049674530965314684,"91":0.060591364203914845,"92":-0.03919235042240267,"93":0.1107004080852378,"94":0.0525981192275059,"95":0.1913037665969968,"96":-0.07624749751930227,"97":0.036319416504848975,"98":-0.029451528061135653,"99":-0.06600569215873157,"100":-0.010679629670890157,"101":-0.12146588570071676,"102":-0.17064836906103464,"103":0.09449523098685529,"104":-0.03103056368479615,"105":-0.05889090124096855,"106":0.033676105337795366,"107":-0.15260566035076276,"108":-0.22747927690386974,"109":-0.1334310606051686,"110":0.3429172792387498,"111":0.33131328652023756,"112":0.14104529424141138,"113":0.10757358533760643,"114":-0.11730323047958523,"115":-0.13502198401423066,"116":0.007763336339957991,"117":0.07811723142806498,"118":-0.3198628375969741,"119":0.010789445831154163,"120":-0.11050468619775429,"121":-0.03578219110920769,"122":-0.5243602857052603,"123":-0.4909888654608598,"124":-0.018883217707600968,"125":-0.1560861643529265,"126":0.020528821619749723,"127":0.33991845724102004,"128":0.18340910437205843,"129":0.06073789126876328,"130":0.1269663667997451,"131":0.10353564446450352,"132":-0.12874252952968862,"133":-0.08953534679512781,"134":-0.2555531226405621,"135":-0.30663260333192743,"136":-0.2656546532102948,"137":-0.3789769871938175,"138":-0.21479534705857625,"139":-0.34156097849287687,"140":0.13014314948771716,"141":0.27438515186539236,"142":0.11573514085523344,"143":0.23155505612304725,"144":0.2501147098462283,"145":0.1898531560744183,"146":0.040207162650013,"147":0.11452089804742603,"148":-0.15366898859371425,"149":0.06257506290217725,"150":-0.15686327852773904,"151":-0.04698449259493889,"152":-0.2617243911722513,"153":-0.11069022719603723,"154":0.14397166550555243,"155":0.18517587281597814,"156":0.056009347678622846,"157":0.11249495841032235,"158":0.1531666828397713,"159":0.17624611150551872,"160":0.06887138806985926,"161":0.28976039040030394,"162":-0.02480873419420492,"163":0.14510447280502076,"164":-0.08320313230275488,"165":-0.14049952843448119,"166":-0.23269971099202041,"167":-0.22207784329603636,"168":-0.05759903719844215,"169":-0.00986458038633135,"170":0.31403748957416383,"171":0.08877828254146203,"172":0.12388988687646352,"173":0.19144952299154572,"174":0.09159754675032845,"175":0.07248151644883707,"176":-0.1849988469998541,"177":0.011350379479557676,"178":0.06461649749211194,"179":0.13751260599155643,"180":-0.0017886328369724404,"181":0.2621100925808706,"182":0.10039617204076431,"183":0.0040462725241378564,"184":0.07612861702126127,"185":0.07630804343835015,"186":0.0763464278570659,"187":0.19071428541293317,"188":-0.06476622149481955,"189":-0.0603168169866092,"190":-0.1101006011087247,"191":-0.014563400321214736,"192":-0.060859495978958865,"193":0.03914344222238578,"194":-0.07397340347410453,"195":0.09195951771237777,"196":-0.08518390438751243,"197":0.11363720489605042,"198":0.24701924579238418,"199":0.15759918083541405,"200":0.20865963969762596,"201":0.33909178005251206,"202":0.3706165273909295,"203":0.070588501118944,"204":-0.012440066944004104,"205":0.0024035081558852643,"206":-0.011253518323768448,"207":-0.28789153826537184,"208":0.031574312056648714,"209":0.03176223601010681,"210":-0.10948058264905605,"211":0.16958998829742192,"212":-0.0554843541486099,"213":-0.11283105669345593,"214":0.11036051993755482,"215":0.022572703398982194,"216":0.2558157571830007,"217":0.0072039160696258904,"218":-0.10119087316086393,"219":-0.0903798820640532,"220":-0.2038062304935405,"221":-0.13959081510154409,"222":0.02512822328044823,"223":-0.09777876282256959,"224":0.08611151140908929,"225":-0.41805473112224584,"226":0.055522249131346964,"227":0.002553044042019007,"228":-0.13822199296571477,"229":-0.33726619263798696,"230":-0.1978777054925455,"231":-0.024568326501592984,"232":-0.21404623879372855,"233":-0.1674074612538934,"234":0.0991747121939352,"235":-0.07911814276072847,"236":0.00408018657177618,"237":-0.007555623009489519,"238":0.09138800334925158,"239":-0.22123864067965107,"240":-0.2181056176025484,"241":0.011320503776160675,"242":-0.058736050698244245,"243":0.041979932536460526,"244":-0.30669078290994956,"245":0.09418466848663051,"246":-0.3190721802614453,"247":-0.32414885350110006,"248":-0.05387521338394991,"249":-0.08366494720642384,"250":0.16791117271332104,"251":-0.0844613851982666,"252":-0.13375012224403524,"253":0.17090621419624538,"254":0.009857962880320207,"255":-0.03813114730851713}},"11":{"bias":0.18933552819742316,"weights":{"0":-0.23129239123173564,"1":-0.08829099300309158,"2":-0.01228501063734351,"3":0.1372296700800789,"4":0.10175967620408799,"5":-0.10149149020757627,"6":-0.20015620746897425,"7":0.07871435471228178,"8":-0.15393439931136446,"9":-0.3453172383929576,"10":-0.07408891002391307,"11":-0.09815085035122476,"12":-0.2162215167716685,"13":-0.3246841868648756,"14":-0.20374811889820296,"15":-0.17394778719521833,"16":0.09701060599558872,"17":-0.08573233159685031,"18":-0.11192459984513749,"19":-0.12720367296958845,"20":-0.1039617611614732,"21":0.08278132141750356,"22":0.14170362961974434,"23":0.07220186071204933,"24":-0.08202773827965626,"25":-0.21561894533876477,"26":-0.2671671867782276,"27":0.04611934491829114,"28":0.003473837184782781,"29":0.011725811080911003,"30":-0.11363745194402493,"31":-0.18810185235420387,"32":0.07592972429156826,"33":0.04520615627736698,"34":0.08434073666135665,"35":-0.20895113661910025,"36":-0.16346080231268434,"37":-0.20297790949952835,"38":0.1402024902038746,"39":-0.1664217790249571,"40":0.05376068036738348,"41":-0.0016958353098028768,"42":-0.21287706544400337,"43":0.13102469443636822,"44":-0.028646235878249902,"45":0.012558912934511352,"46":0.1391203859307897,"47":0.05790377638084447,"48":0.006226943814247964,"49":-0.10219208749980122,"50":-0.05051863290980165,"51":-0.15810173829190324,"52":-0.1294226271835996,"53":-0.011654586866937867,"54":-0.09239274911639267,"55":0.08017459172076818,"56":0.05588410481135919,"57":0.17359549555028003,"58":0.010380715637555061,"59":0.0907165280925722,"60":-0.14823888459167747,"61":0.021797428298833552,"62":0.06258442632241797,"63":0.15179815465260663,"64":-0.16415654345070943,"65":-0.05708614826797507,"66":-0.11936177712597829,"67":-0.11430334920385957,"68":0.05018903008659016,"69":-0.24220659654524734,"70":-0.17059986612151648,"71":0.1786908914132347,"72":-0.10458179173068102,"73":0.22985040422137612,"74":0.057596830310511014,"75":0.26318899804303364,"76":-0.008901649911791217,"77":0.13168868614747217,"78":0.24195891990830387,"79":-0.19473179348297237,"80":-0.020097841601820952,"81":-0.2187350408746468,"82":0.10650038568601851,"83":-0.185731938743034,"84":-0.22043122878166224,"85":0.11664106029038696,"86":-0.21691087068011763,"87":-0.07956803900568288,"88":0.24002617593961287,"89":0.22231423169975828,"90":0.008989392143495981,"91":-0.18352626816774928,"92":-0.1410547000025586,"93":0.06323581726495628,"94":0.14520123537727647,"95":0.09425703821076115,"96":-0.023177966006073532,"97":-0.03194438946151035,"98":0.12767884142222433,"99":0.11038996678312621,"100":0.08199919069489575,"101":-0.08634613638090818,"102":0.17687792542811784,"103":0.21838900584076842,"104":0.03953714551526863,"105":-0.12118349587992466,"106":-0.13074142690279444,"107":0.07142809690687431,"108":0.19752376462439541,"109":0.15287761015903928,"110":0.15415153519359148,"111":0.09926417793083199,"112":0.008690272942262862,"113":-0.3228484535528073,"114":0.024761526401415372,"115":-0.15218761280171322,"116":0.05182728307844013,"117":-0.16058290227148347,"118":0.18212067361094017,"119":0.07299537409486404,"120":-0.07928407638440003,"121":-0.1933075180203719,"122":0.0640622599996169,"123":0.04491167375527996,"124":-0.03401488476997981,"125":0.19928249187202934,"126":0.1602136372715946,"127":-0.19718726164119066,"128":0.03510967624265048,"129":0.01727868120262478,"130":-0.12406944059195059,"131":0.02243452320139141,"132":0.0007928705715026667,"133":-0.02912645722943719,"134":-0.14486135538609113,"135":-0.13807369608209807,"136":0.063972487566725,"137":0.030884784352124522,"138":0.011555101553798052,"139":-0.15587976262585734,"140":-0.11706623934545124,"141":0.023172390797454066,"142":0.07316227905347622,"143":-0.12281468056155109,"144":-0.04423487811385079,"145":-0.03853132333585863,"146":0.04600657870721936,"147":0.023729833328255113,"148":-0.04803835718580915,"149":-0.10579578237103074,"150":0.10416028248054755,"151":-0.03862380236119676,"152":-0.14840871214569204,"153":-0.13085841338386278,"154":-0.18921924668118223,"155":0.10920369611622004,"156":-0.23719713355877253,"157":0.12217887825781536,"158":-0.0908043886244552,"159":0.05923811563192717,"160":-0.20834290426793664,"161":-0.1106276451981437,"162":-0.1942114929188025,"163":-0.26016992347514867,"164":0.15683785702968409,"165":0.09533770051042562,"166":-0.0772598903620317,"167":0.22647932583575606,"168":0.014432372444256908,"169":0.0157020357559727,"170":0.08817027682246109,"171":-0.04925345737168867,"172":0.11070413727854693,"173":0.0827911779013304,"174":0.037270642909696755,"175":-0.18139539039710142,"176":-0.1551041160296881,"177":0.05129036727164902,"178":-0.05770823762455886,"179":0.012243821905417594,"180":-0.026451233269605606,"181":0.2463906853420788,"182":0.17561360436027448,"183":0.12914004475400342,"184":0.10427953326753253,"185":0.07979183277729456,"186":-0.034672264741803356,"187":-0.23373490120301532,"188":0.11901967679282287,"189":-0.10813475927521755,"190":0.02583514206300957,"191":-0.1582352117136338,"192":-0.3153564315705955,"193":-0.11548813634914075,"194":-0.07588825287456519,"195":-0.1613813743074594,"196":-0.2321993410407309,"197":-0.10597836148159524,"198":0.1477197920288949,"199":-0.1924927686444293,"200":0.029698071725613392,"201":-0.16780606204839651,"202":0.09950059376966612,"203":-0.10903322496411381,"204":0.07763728186601833,"205":0.06986174891052677,"206":-0.07311882540388981,"207":-0.15663423733692874,"208":-0.11373536408340422,"209":-0.013007206411335738,"210":0.12558106643156516,"211":-0.18549452172656433,"212":-0.09247638969500836,"213":0.04922849267980654,"214":0.1089616697189657,"215":0.03291807960360874,"216":-0.01919309761793361,"217":0.23452215192325537,"218":0.2602661213018437,"219":0.3496505980549558,"220":-0.08382052171987911,"221":0.0994486447809328,"222":0.2228505227846382,"223":0.17134340496527328,"224":0.17000695870054655,"225":-0.07709951098883865,"226":0.07811549276191453,"227":-0.13589683770597497,"228":-0.27382155224289295,"229":0.16739422210736907,"230":-0.06912868501309241,"231":-0.17081025877353512,"232":-0.22009678876196656,"233":0.007385959386724757,"234":-0.036232613944783346,"235":0.1154308905076957,"236":0.11716358346642827,"237":0.2018695640508026,"238":0.2820035915811446,"239":0.01750810364744828,"240":-0.08870302195464638,"241":-0.03439339343626282,"242":0.056516277452380144,"243":-0.19620153021002937,"244":-0.021881313201331874,"245":-0.20980608876084342,"246":-0.017748793273205082,"247":-0.08817170944960764,"248":-0.27066405938265575,"249":0.03259572353592846,"250":-0.19385428082227513,"251":-0.02829941298760411,"252":0.1005671472367538,"253":0.27086583627109867,"254":0.04563822662976165,"255":0.158703809892257}},"12":{"bias":0.16358514279923536,"weights":{"0":0.16270628285354574,"1":0.2757776834609262,"2":0.17016890224053627,"3":-0.04476305048791239,"4":0.17196994030894616,"5":-0.11986386875324775,"6":0.13400296023210204,"7":0.007168529342302022,"8":0.018434107204000526,"9":0.07277795683000646,"10":-0.2763122622877821,"11":0.040216331627360276,"12":-0.2882569274413699,"13":0.007946076250292606,"14":0.010346878339532347,"15":0.09752672653308588,"16":0.12763298760547467,"17":0.04831907764806673,"18":-0.1764100092574248,"19":-0.09283619750301295,"20":0.12943844901490875,"21":0.0662645303623303,"22":-0.02560783307748792,"23":-0.03994912906169811,"24":-0.15602257310538334,"25":-0.05101791528902823,"26":-0.1601438252490013,"27":-0.0031756272433477624,"28":-0.05601981448604441,"29":0.04217552307166884,"30":0.11456076095760988,"31":0.07730818099645392,"32":0.04786596051723524,"33":0.03279376249162296,"34":0.060268278091591146,"35":0.14416264817253552,"36":-0.0658858116095105,"37":0.010689702304123836,"38":-0.0937722482140106,"39":-0.11717906994782468,"40":0.17046091111899725,"41":0.06228345425980406,"42":0.08540110487971776,"43":-0.05765683998665662,"44":-0.19655697797799304,"45":-0.10229726656332391,"46":0.17821273605476742,"47":-0.12423441065728688,"48":-0.03772293395699444,"49":-0.049375926358735195,"50":0.02244817271538401,"51":-0.03971962844001452,"52":-0.20400917608631122,"53":-0.05752186416765669,"54":-0.027764660550016942,"55":-0.009328283768757849,"56":-0.01703603039745325,"57":-0.15237235968147708,"58":0.28585978099752185,"59":0.007697412454240266,"60":0.2569158564022984,"61":0.2682233971833784,"62":0.24972064292533258,"63":0.10219512273663729,"64":-0.06765224658299503,"65":-0.46215666714246967,"66":-0.28169903459464524,"67":-0.0508471205924522,"68":-0.020229414327522118,"69":-0.1080136667292764,"70":-0.08811820356532875,"71":-0.29387602869445867,"72":-0.015888382759786865,"73":0.00916870989929722,"74":0.14527431287229425,"75":-0.09411282763948406,"76":0.16561187753065576,"77":0.12314062986425363,"78":0.08000048984895877,"79":-0.07664444895681807,"80":-0.4905162774191325,"81":-0.20441971170615453,"82":-0.28330015122183644,"83":-0.32871710350070316,"84":-0.24297122603955898,"85":-0.2750384548467183,"86":-0.12851319164487826,"87":-0.13736299106906558,"88":-0.1040312609536512,"89":0.15696804622611193,"90":0.17401506262785996,"91":0.03715702614699549,"92":0.22998884481181173,"93":0.006359773623615026,"94":-0.14880476943847673,"95":-0.029906527982756403,"96":-0.3326252522584652,"97":-0.3818859253579989,"98":-0.35427618866476157,"99":-0.012254671485465824,"100":-0.04551390580436377,"101":0.014489390356882612,"102":0.001876866460455748,"103":0.04508416950897618,"104":0.07181780827648103,"105":-0.09156771741533892,"106":0.11465798886412619,"107":-0.03332422327884781,"108":-0.03590147925451769,"109":-0.16621414920955618,"110":-0.1865306739023169,"111":-0.11102851490353934,"112":-0.1633831227307816,"113":-0.32671532172700796,"114":-0.029312292335000108,"115":0.19268780732999977,"116":-0.08933548837292911,"117":-0.0858673000392995,"118":0.25401170710977045,"119":0.17258525264718555,"120":0.219949484571331,"121":0.16124249518471412,"122":-0.12333066767483193,"123":0.01821597592576908,"124":0.030094625266706476,"125":-0.19341484106840826,"126":0.15463651899580785,"127":0.14006480919761796,"128":0.07342346694891948,"129":0.08072415837310973,"130":-0.0723528592243816,"131":-0.04223728994497488,"132":0.03553770012332189,"133":-0.17029412389702295,"134":0.14231424199863996,"135":0.3198720438999465,"136":0.12736169996557392,"137":0.07483314929077947,"138":-0.04314788245527009,"139":0.3795106238864705,"140":0.17068000232455663,"141":0.10106535316653403,"142":0.22505644067626163,"143":-0.06572585069459126,"144":-0.16649869760435526,"145":-0.1645707414189517,"146":-0.10201453173270218,"147":-0.0963952484056162,"148":0.046327752046402715,"149":-0.01789115112504907,"150":0.226669391137649,"151":0.04708621360053988,"152":-0.0217904797419154,"153":0.14327919379499235,"154":0.3116856070185781,"155":0.22859771396931428,"156":0.15790306052306408,"157":0.2635097374779898,"158":0.1579670585843762,"159":-0.08531042750080363,"160":0.15316151243220838,"161":-0.1974414874836063,"162":-0.21334174697444203,"163":0.05887786971120223,"164":0.11648783634340329,"165":0.27520925295743476,"166":-0.04017486121743137,"167":0.0332697400949208,"168":0.11316223590947937,"169":-0.04057621827012087,"170":0.04593540680200976,"171":-0.10162795072816248,"172":0.19113686541178856,"173":0.0013207549649076797,"174":0.00929364180066829,"175":0.1501472133843665,"176":-0.26301960051716883,"177":-0.21773181425513152,"178":-0.050576229660037046,"179":0.045676471934024104,"180":0.20569542178869768,"181":0.10970146512897351,"182":-0.014464994616989788,"183":0.23412757502623813,"184":0.13507400380934317,"185":-0.07365646261076633,"186":0.14338229821702808,"187":-0.14399027636924353,"188":-0.016794742381555317,"189":-0.15945951266322286,"190":-0.11718797764469094,"191":0.11258658762694343,"192":-0.19946285296156271,"193":-0.143762098991159,"194":-0.22232342182697015,"195":-0.10444574348248263,"196":-0.003561580789009713,"197":0.10050878254113352,"198":-0.005607090552679917,"199":-0.09660855078217652,"200":-0.11932413680411993,"201":-0.09720849701465283,"202":0.039953314352229326,"203":0.1332023109757985,"204":-0.15675623177346726,"205":-0.08350037391526699,"206":-0.12345451792614238,"207":-0.2291106144779685,"208":-0.04259001286590516,"209":-0.08125327784215008,"210":0.03542900412578432,"211":0.021809586904012034,"212":-0.17691274418096034,"213":-0.011340816234999137,"214":-0.08703599924423631,"215":-0.16732854847472908,"216":0.02609733274060106,"217":-0.29672834576252066,"218":-0.12791523128576765,"219":-0.10867057247036507,"220":-0.11873015878295201,"221":0.052975997988271635,"222":0.012679692954792952,"223":-0.12610577984282084,"224":-0.15546810410925402,"225":-0.38360058286019877,"226":-0.13389025653639278,"227":-0.15297541522658328,"228":-0.03028809988449329,"229":0.08757889034605627,"230":-0.24338388521056076,"231":-0.16820940869650508,"232":-0.17037062989521917,"233":-0.06431687379150082,"234":0.11547460507778023,"235":-0.11402266151624069,"236":-0.27688396911867896,"237":0.09666048648575544,"238":-0.19666259591808657,"239":-0.02668082621431795,"240":0.004340912369631008,"241":-0.0305225937887103,"242":0.041243153243549366,"243":0.005567084078059173,"244":0.12159551502362677,"245":-0.05950686372079088,"246":0.12254335102208172,"247":-0.2084137616587227,"248":-0.13368604637399023,"249":-0.09522123544563242,"250":0.013210177504815677,"251":-0.020504809157578956,"252":-0.19058163421160515,"253":-0.18807354988696737,"254":0.005305060833461192,"255":-0.17421982303995917}},"13":{"bias":0.02481969949264288,"weights":{"0":0.10646765092312505,"1":-0.09183556097965902,"2":-0.08312581586293763,"3":0.021771686649486414,"4":0.09969412814110398,"5":0.12171823475969043,"6":0.12810666181043662,"7":-0.18796261859100902,"8":0.06841265295574356,"9":-0.08832139301668725,"10":-0.2225714802083956,"11":0.0753198320719267,"12":-0.12658225429720885,"13":-0.3445012401854649,"14":-0.27981950547530304,"15":0.12406330940661489,"16":0.1850159899946311,"17":0.0659045748435913,"18":-0.16245439087600078,"19":0.11547019088559149,"20":0.19278560866201994,"21":-0.022818522159790057,"22":0.029702967819791547,"23":-0.26453796522812556,"24":0.020190488586487757,"25":-0.1200624768149339,"26":-0.14276787667358695,"27":0.017464489950138884,"28":0.02511665988181375,"29":0.05015704212783872,"30":0.039000445521719204,"31":0.01791770157563946,"32":-0.06885898419446083,"33":-0.044798935867153486,"34":0.008648800716009701,"35":0.1022102267571982,"36":0.19390379455997586,"37":-0.013743153400635002,"38":0.03787947016475057,"39":-0.01790119773154026,"40":0.011679345903938671,"41":-0.09291539318277872,"42":-0.11785397270650523,"43":0.2597479161153182,"44":0.20528861516761165,"45":0.22164256289020823,"46":0.003464731767815487,"47":-0.17161648244543898,"48":0.18391606374879998,"49":-0.05706397270173648,"50":-0.1658298204450648,"51":0.026072684157989856,"52":-0.17121774680179302,"53":-0.10607611417018264,"54":-0.08289981172518501,"55":-0.09872952223580694,"56":0.03916853613051814,"57":0.14457057793163164,"58":-0.04052121544747405,"59":0.36689208896777703,"60":0.3270736575623424,"61":0.10457451319784924,"62":0.009315862519056601,"63":0.12304635993030387,"64":-0.05058712893054101,"65":-0.34293925285689714,"66":0.080235577627995,"67":0.0537267259156694,"68":-0.2371000865680228,"69":-0.0267986674450045,"70":0.19772461817696463,"71":0.24612090957897126,"72":-0.014058209450272835,"73":0.217849000055403,"74":0.33465937021607356,"75":0.12301620697200275,"76":0.4059663655554465,"77":0.14095696737179783,"78":0.28538573566741837,"79":-0.05525135293074498,"80":-0.15804532193922935,"81":-0.36824007069875686,"82":0.24626991667498974,"83":-0.0770429714583047,"84":0.025643750166917046,"85":-0.02022408803305392,"86":0.07497245480297232,"87":-0.03081673643661521,"88":0.24828656047448683,"89":0.03717314499325787,"90":0.0012343972023220711,"91":0.15172592466022136,"92":0.022698194500002402,"93":0.27565886577295395,"94":0.19559365794554304,"95":0.2250588780949519,"96":-0.3727887782280043,"97":-0.32960890518174635,"98":-0.003784224775266821,"99":0.05014508851114198,"100":0.12895670219438393,"101":0.06343647837253845,"102":0.3348624864388929,"103":0.08593162334213326,"104":0.10085155159990679,"105":-0.04421344759803047,"106":-0.053515588866264965,"107":0.03882149068911033,"108":0.2100231694125554,"109":0.15351540319882087,"110":-0.08317629664522189,"111":-0.15359062244665908,"112":-0.44574904439818286,"113":-0.11731890808693582,"114":-0.06239532676822218,"115":0.09767062501352348,"116":0.15942869280836833,"117":-0.038096410912283926,"118":0.25053597614372547,"119":-0.0029102750933256137,"120":0.17961991207613642,"121":0.13049691839538616,"122":0.1564653811067174,"123":0.25660110857725305,"124":0.1628830950884887,"125":-0.022738602479126627,"126":0.1886038230220533,"127":0.09717131483302466,"128":0.04243413079389063,"129":-0.31657991457312307,"130":-0.1585438205414865,"131":0.04639679312817983,"132":-0.11525224735954744,"133":-0.065250018127861,"134":0.24092110607012088,"135":0.282208783746111,"136":0.1255083846247544,"137":-0.1009918977169419,"138":0.009755175897855833,"139":0.015215208617795175,"140":0.2160576485692278,"141":-0.004843271229727834,"142":-0.039242307685590526,"143":-0.11492014174846008,"144":0.10328075739897032,"145":-0.17901701100934245,"146":-0.17362925183243466,"147":0.01400307618586642,"148":-0.23477127742280743,"149":0.10494238871874369,"150":0.24933685480387513,"151":0.23113371920675826,"152":-0.19587567807260092,"153":0.07602047189192664,"154":0.14866161185828572,"155":-0.23965773664451492,"156":-0.036333758871447845,"157":-0.06438412756060055,"158":-0.18353749472462663,"159":-0.01930496928104591,"160":0.06106652392352005,"161":-0.13338074758474386,"162":-0.020834395379720812,"163":-0.15701023702734412,"164":0.09246308022028131,"165":0.15803676015171536,"166":-0.010065294840395703,"167":0.22099882594688872,"168":0.17852041786745204,"169":0.15924430738259085,"170":0.1301609932118383,"171":-0.21672228499004023,"172":-0.10564200158571223,"173":0.0808964838890882,"174":0.08405116973597022,"175":-0.22109298337623456,"176":0.0899391773273652,"177":-0.25078960313473214,"178":0.07572831428455125,"179":0.02238728886346088,"180":-0.15996387684441876,"181":0.10993604208003625,"182":0.05045213662184949,"183":0.11963760937962406,"184":-0.1586557445674376,"185":-0.19869981207317444,"186":-0.12138530757777101,"187":-0.253962385841128,"188":-0.025999408705939704,"189":-0.02532949209696456,"190":-0.1658778228395748,"191":-0.17277901324879916,"192":-0.44830740523647994,"193":-0.11254918198420556,"194":0.07428848709846061,"195":-0.0892539389068797,"196":-0.13918728245070744,"197":0.012880129944547033,"198":-0.20916136511238143,"199":0.023661514187557003,"200":-0.08768527609598747,"201":-0.3098115812586113,"202":0.010255362244479177,"203":0.03640719047617581,"204":-0.05166300931746045,"205":-0.0912423372470615,"206":-0.07736136196929458,"207":-0.13095174833135975,"208":-0.15714909391293008,"209":-0.11062636298904045,"210":-0.14746089810194182,"211":0.11995992263069638,"212":-0.11723307962166074,"213":-0.051190131211607,"214":-0.14289075085705888,"215":-0.26377113198028607,"216":-0.2448388355177905,"217":0.18555610788975638,"218":-0.06860040064598887,"219":0.20232752093453704,"220":0.13485572052820585,"221":0.18786722148589083,"222":0.15936824277403727,"223":0.09506605809860469,"224":-0.2150351829396102,"225":-0.10441566519979012,"226":-0.3013945727610609,"227":-0.1347795173109662,"228":0.14892737719026422,"229":-0.24054928762879638,"230":0.06707880824054487,"231":0.007271520330973849,"232":-0.1018675009738033,"233":0.02760302813414646,"234":-0.026625629052801747,"235":-0.1966088766318695,"236":-0.23382135142088856,"237":-0.07964046793063129,"238":-0.10611287139622387,"239":-0.04740727122625626,"240":-0.14530665788473623,"241":-0.12637400763307352,"242":0.02232782796754982,"243":0.15178826178986865,"244":0.026306385577387632,"245":-0.07278676483510113,"246":0.07510097325652823,"247":-0.09971499006174461,"248":-0.03927698979430967,"249":-0.07473668553195693,"250":-0.16727962202919316,"251":-0.16113653542350914,"252":-0.2356631369146053,"253":-0.23583951774440504,"254":0.04483210179972929,"255":-0.03123029757836129}},"14":{"bias":-0.02688218866113198,"weights":{"0":-0.06262076693842732,"1":0.19096744567798435,"2":0.0969319870928502,"3":0.0975733120855749,"4":0.21069056335289066,"5":0.1408853713070149,"6":0.11232512884581868,"7":0.1566861871732956,"8":0.26247900810294955,"9":0.2680650948849328,"10":0.1278501427462796,"11":0.33010772648147957,"12":0.19409823684040792,"13":-0.06773489031023967,"14":-0.058860302704688686,"15":-0.02466432801050531,"16":0.0368534774350253,"17":0.2549088443172387,"18":-0.0940586272195752,"19":0.1616603751472562,"20":-0.12145135538655936,"21":0.0956620906661166,"22":0.1420226486986901,"23":0.11645117801797837,"24":0.17380375143569674,"25":0.0419731330511113,"26":0.25525740733709706,"27":0.23660721068293689,"28":0.33797344086020664,"29":0.19222153173275633,"30":0.17494134831597188,"31":0.1188738548554461,"32":-0.05782800756049561,"33":-0.13013531680112958,"34":-0.057939734843501636,"35":0.062314598872639466,"36":-0.17632106456541258,"37":0.24574415375287398,"38":-0.019140985626027895,"39":0.06581214762286314,"40":-0.05036763804302793,"41":-0.009968154287020858,"42":-0.22636830554338286,"43":-0.025102229118234475,"44":0.14815577067646032,"45":0.22176631144025408,"46":0.2303129149517,"47":0.3002801667815883,"48":-0.02905397318049574,"49":0.07715073239442903,"50":-0.160715116056619,"51":0.17355983588247686,"52":-0.00939975518170279,"53":-0.12477681116759178,"54":0.02704390309909269,"55":0.1454729337149861,"56":0.06484873949221184,"57":-0.018203597669286146,"58":-0.19525472378401376,"59":-0.11956244610312237,"60":0.24411608235790952,"61":0.17642088277548665,"62":0.23202542346853003,"63":0.1422831534121851,"64":0.13730089011897753,"65":0.18949091440506882,"66":-0.1447856220417973,"67":-0.22550486787098312,"68":-0.13776742205030126,"69":-0.0677519612269254,"70":-0.17973060381351383,"71":0.07223405359579266,"72":0.027848057966124364,"73":-0.022756741585673517,"74":-0.059910264492801575,"75":0.29529628823730636,"76":0.29756878903064654,"77":0.29274136639446735,"78":0.13200151169864152,"79":0.17705743559849124,"80":-0.15757610271306122,"81":0.004612700473057165,"82":-0.06242661916843195,"83":-0.04688824301761986,"84":0.08620278638547528,"85":0.04718753725286767,"86":-0.08088883845430953,"87":-0.28918973305191825,"88":-0.05999823557326124,"89":0.22897566732239602,"90":0.15644087337728624,"91":0.3090364436285944,"92":0.0491430095202142,"93":0.17781366263325418,"94":0.18500202912890276,"95":0.0040700138477382675,"96":0.029839574660035145,"97":-0.10822855795792002,"98":0.018327658342595046,"99":0.0027200674187390487,"100":0.05000682241932694,"101":-0.09598333274197919,"102":0.17691936219370838,"103":0.25995135520407564,"104":-0.12799379282026016,"105":0.1318751448187137,"106":0.09987463165150627,"107":0.1840304351114427,"108":-0.025926096283220394,"109":-0.06666122654581673,"110":-0.028127734805249698,"111":-0.08836790573203275,"112":-0.30059173560719793,"113":-0.14030787457222818,"114":-0.1517749306841723,"115":0.006360018413252904,"116":0.18021903001853526,"117":0.19558462552197356,"118":0.20168517026770016,"119":-0.13494193314236777,"120":-0.17860257945858585,"121":0.20654121496943526,"122":0.2865673310465351,"123":-0.0462766090016719,"124":0.009713064855352052,"125":-0.29069889973565366,"126":-0.023289313032916144,"127":-0.17825609595163305,"128":-0.25073659143701743,"129":-0.35021152433760333,"130":-0.009778569117749237,"131":0.17733651206820858,"132":-0.05967045580496779,"133":0.05066614379255071,"134":0.01711342052214957,"135":0.01756794956694173,"136":0.06938031948546959,"137":-0.10142283740780055,"138":0.025267847639723708,"139":0.04274365877302783,"140":-0.3136670027927049,"141":-0.29560442471547105,"142":-0.13376373759475538,"143":-0.2396629423283446,"144":-0.005739799284054203,"145":-0.026674662071505525,"146":-0.2843885636776436,