{"layers":[{"0":{},"1":{},"2":{},"3":{},"4":{},"5":{},"6":{},"7":{},"8":{},"9":{},"10":{},"11":{},"12":{},"13":{},"14":{},"15":{},"16":{},"17":{},"18":{},"19":{},"20":{},"21":{},"22":{},"23":{},"24":{},"25":{},"26":{},"27":{},"28":{},"29":{},"30":{},"31":{},"32":{},"33":{},"34":{},"35":{},"36":{},"37":{},"38":{},"39":{},"40":{},"41":{},"42":{},"43":{},"44":{},"45":{},"46":{},"47":{},"48":{},"49":{},"50":{},"51":{},"52":{},"53":{},"54":{},"55":{},"56":{},"57":{},"58":{},"59":{},"60":{},"61":{},"62":{},"63":{},"64":{},"65":{},"66":{},"67":{},"68":{},"69":{},"70":{},"71":{},"72":{},"73":{},"74":{},"75":{},"76":{},"77":{},"78":{},"79":{},"80":{},"81":{},"82":{},"83":{},"84":{},"85":{},"86":{},"87":{},"88":{},"89":{},"90":{},"91":{},"92":{},"93":{},"94":{},"95":{},"96":{},"97":{},"98":{},"99":{},"100":{},"101":{},"102":{},"103":{},"104":{},"105":{},"106":{},"107":{},"108":{},"109":{},"110":{},"111":{},"112":{},"113":{},"114":{},"115":{},"116":{},"117":{},"118":{},"119":{},"120":{},"121":{},"122":{},"123":{},"124":{},"125":{},"126":{},"127":{},"128":{},"129":{},"130":{},"131":{},"132":{},"133":{},"134":{},"135":{},"136":{},"137":{},"138":{},"139":{},"140":{},"141":{},"142":{},"143":{},"144":{},"145":{},"146":{},"147":{},"148":{},"149":{},"150":{},"151":{},"152":{},"153":{},"154":{},"155":{},"156":{},"157":{},"158":{},"159":{},"160":{},"161":{},"162":{},"163":{},"164":{},"165":{},"166":{},"167":{},"168":{},"169":{},"170":{},"171":{},"172":{},"173":{},"174":{},"175":{},"176":{},"177":{},"178":{},"179":{},"180":{},"181":{},"182":{},"183":{},"184":{},"185":{},"186":{},"187":{},"188":{},"189":{},"190":{},"191":{},"192":{},"193":{},"194":{},"195":{},"196":{},"197":{},"198":{},"199":{},"200":{},"201":{},"202":{},"203":{},"204":{},"205":{},"206":{},"207":{},"208":{},"209":{},"210":{},"211":{},"212":{},"213":{},"214":{},"215":{},"216":{},"217":{},"218":{},"219":{},"220":{},"221":{},"222":{},"223":{},"224":{},"225":{},"226":{},"227":{},"228":{},"229":{},"230":{},"231":{},"232":{},"233":{},"234":{},"235":{},"236":{},"237":{},"238":{},"239":{},"240":{},"241":{},"242":{},"243":{},"244":{},"245":{},"246":{},"247":{},"248":{},"249":{},"250":{},"251":{},"252":{},"253":{},"254":{},"255":{}},{"0":{"bias":-0.1591810807079358,"weights":{"0":0.12929784817194098,"1":0.05448757607543445,"2":-0.018717183759723668,"3":0.13575710080093445,"4":-0.2666802521408541,"5":0.0647681884555427,"6":-0.18680147664183175,"7":-0.13921717063929928,"8":-0.014796020421620277,"9":-0.26986926529379845,"10":-0.07789494464879747,"11":-0.2921509680377852,"12":0.053998292461506225,"13":-0.45048493422895836,"14":-0.07164823376421174,"15":-0.3829490574214342,"16":0.14840797660183172,"17":0.11478855994214575,"18":-0.04880842180456133,"19":-0.046348214017972296,"20":-0.014935548924397071,"21":0.16576257444134107,"22":0.011269664584780006,"23":0.10733506068659786,"24":-0.18743949624208267,"25":-0.01401206305092944,"26":-0.38474937566647266,"27":-0.09251795836771794,"28":-0.2992854040439895,"29":-0.2999529360100325,"30":-0.11019121910131556,"31":-0.11005019806354827,"32":0.010640043962959794,"33":-0.1406688268133929,"34":0.04346353216302272,"35":-0.1492471318836068,"36":-0.16886219590097226,"37":0.07671191490163017,"38":0.15313752614097825,"39":0.17814057829744598,"40":-0.09690482233360476,"41":-0.06510311250589879,"42":-0.14964186458231266,"43":0.03367983545820505,"44":-0.28110362229203484,"45":-0.23418596484242063,"46":-0.028674325443589065,"47":-0.005412377200485299,"48":-0.15236467465915143,"49":0.14928350867512027,"50":0.13242066324482102,"51":0.10406287396222791,"52":-0.14517438412856845,"53":-0.11573520412567648,"54":-0.05989821120141025,"55":-0.06793460372599365,"56":0.0967430685373706,"57":0.018557153953160054,"58":0.07486303969912061,"59":-0.0024071633313493403,"60":-0.22603618975829026,"61":-0.09737794745784562,"62":-0.16065317584894448,"63":-0.2452847640491233,"64":0.04068808431328268,"65":0.20282570077550569,"66":-0.010335808046404884,"67":-0.012338776883021022,"68":-0.24651559007090357,"69":0.15640005238006982,"70":-0.08250203050276682,"71":0.10905357647181271,"72":0.13698655141113944,"73":0.18196965622671876,"74":0.0799469615107735,"75":0.016763237788414268,"76":0.021851588303490644,"77":-0.13511269367763326,"78":-0.22024073168234057,"79":0.0990821118633663,"80":0.24895563724024547,"81":0.03807559277599054,"82":-0.04670861185375365,"83":0.03385030356183182,"84":-0.10411948690503846,"85":0.07434036670340623,"86":0.0026117669468539474,"87":0.11124657329427767,"88":-0.06100185886024858,"89":-0.1709221191629305,"90":0.006412398541966368,"91":-0.08912167380231069,"92":0.06692639231400682,"93":-0.10991230779285961,"94":0.03775676685988758,"95":0.15058847349237028,"96":0.11164769330912298,"97":0.06037199119985377,"98":0.11967398995560648,"99":-0.027305685415491943,"100":0.15294048040538705,"101":-0.0378622863942092,"102":-0.1186274093129169,"103":-0.04460669803938814,"104":-0.006705297845238024,"105":0.10314099707252351,"106":-0.09008969368849297,"107":-0.23752769032997417,"108":0.018499562711963683,"109":-0.22158119408184881,"110":-0.04697416073073253,"111":0.09863797693202853,"112":0.07257982581065,"113":0.15034151662852285,"114":0.30346188828146253,"115":-0.1713553943120036,"116":0.007897257152920865,"117":0.05683282167670954,"118":-0.16255496215716136,"119":-0.05941866685411946,"120":0.1351408308725224,"121":-0.16508782858324053,"122":0.04040433885200193,"123":-0.18151696940444922,"124":-0.1285771754921136,"125":0.12105213046513023,"126":-0.08167303427920317,"127":-0.13112809703711378,"128":0.13023694084160256,"129":0.1433976665522914,"130":0.2255957434312429,"131":0.30787384932912026,"132":0.07712693175225067,"133":0.024995237754353805,"134":-0.009305381806998326,"135":0.07193219988196457,"136":-0.07615285204117957,"137":-0.06800108086102252,"138":-0.06885235585714626,"139":0.025784192632591806,"140":0.17285002161012147,"141":0.11369984264944301,"142":0.18030804853397497,"143":0.01679702738267103,"144":-0.19069889061002251,"145":-0.046742843704158946,"146":0.06707313452240478,"147":0.05350924836316462,"148":0.06766105946136913,"149":-0.21649068475559413,"150":-0.051724833636665815,"151":-0.05640972447359534,"152":-0.13148874558522858,"153":0.11999068648607845,"154":0.11397218518411087,"155":0.25380008861653747,"156":0.18495966765397315,"157":0.0729838056228299,"158":-0.2211052704611326,"159":-0.21671937752327322,"160":-0.12160660389973925,"161":0.24856785001388676,"162":0.1694427317921497,"163":0.2087355535950168,"164":-0.03159911108473533,"165":-0.00009038159076581648,"166":-0.08966828267522878,"167":-0.031099646114369096,"168":0.3749122331315156,"169":0.39232430438454347,"170":0.2567209769553701,"171":0.1761927153969052,"172":0.23340578347556548,"173":0.15623351138691602,"174":0.0018381381417445636,"175":0.00986235653206153,"176":0.11660912339120205,"177":-0.0851661712916007,"178":-0.11468314069062295,"179":-0.23706530557751482,"180":0.06834591842457169,"181":0.2667496483861858,"182":-0.12929030848850837,"183":0.032468211148284847,"184":0.1793851602799852,"185":0.07851158956479341,"186":0.22094489150517696,"187":-0.09927455421093363,"188":-0.030153163645040237,"189":0.05270673086371429,"190":-0.007226007740716693,"191":-0.1897998488498505,"192":-0.04617660931740381,"193":0.08563788863539641,"194":-0.2222712827089988,"195":-0.05168341502275004,"196":0.1288877314133057,"197":0.2742454781220819,"198":0.10793673993951076,"199":0.20058836533389693,"200":0.14985563392616527,"201":0.26896909630952515,"202":0.11182027820453506,"203":0.1524968596877066,"204":-0.07158780270908507,"205":-0.10128727650771321,"206":-0.13486539885740936,"207":-0.027501884422562267,"208":0.12205098398066654,"209":-0.24729048148708224,"210":0.01447297449653956,"211":-0.0998221092378221,"212":-0.2131963639111943,"213":-0.20182767688102649,"214":0.05778713228555642,"215":-0.20586667803460668,"216":0.1873351502906195,"217":0.030185767682474086,"218":-0.14863462320781934,"219":0.11370803358685007,"220":0.09289605569481046,"221":0.007601705316272777,"222":0.02358797325443638,"223":-0.13364912751693217,"224":-0.036587363816340014,"225":-0.21729054905900763,"226":-0.2294956178143514,"227":-0.11887640417489882,"228":-0.41544601549800403,"229":-0.34827605321964106,"230":-0.18078888331659754,"231":-0.2678851018221431,"232":-0.12741121501259617,"233":-0.08790723994449501,"234":-0.004892851351338769,"235":-0.0019032350652874236,"236":0.09473262616952717,"237":0.1765625511595851,"238":-0.02178062742330893,"239":-0.13602905092272127,"240":-0.29779928969254066,"241":-0.20138455362162772,"242":0.015248369738229415,"243":-0.055922038473115165,"244":-0.40375992181984954,"245":-0.1799770231901318,"246":-0.03883916412421093,"247":-0.15558728909471417,"248":-0.4087922365241776,"249":-0.20645584206649464,"250":0.05973199642124685,"251":0.07785628725789061,"252":-0.13152768967084938,"253":0.16392913473529086,"254":-0.07246781907451955,"255":-0.20401443737246805}},"1":{"bias":-0.13130070017231943,"weights":{"0":-0.243539630827411,"1":-0.3007625383740992,"2":-0.4035685782971144,"3":-0.02259491142608654,"4":-0.2188329432469632,"5":-0.21007172454217043,"6":-0.26294411198055656,"7":-0.11700776558023424,"8":-0.10734125204850778,"9":-0.2832603076464341,"10":-0.1588289235492427,"11":-0.1209925546004619,"12":-0.2091827113473019,"13":-0.024495256889589985,"14":-0.07087569624206018,"15":0.1763175018812476,"16":-0.07323861061087635,"17":0.031600114276452665,"18":0.07872986631031137,"19":0.14686948902080985,"20":-0.1616668609744014,"21":0.11887429430151714,"22":-0.0451793514373675,"23":-0.04051023385677818,"24":-0.05137682962805222,"25":-0.06716685088372287,"26":-0.16878115293991622,"27":-0.16827540497824822,"28":0.21286453145228335,"29":-0.021912444988541842,"30":0.03526676606239907,"31":0.011204235782722193,"32":0.07397906427534415,"33":0.001098242123789353,"34":0.04898395843855536,"35":-0.035210416894867626,"36":0.2098112753652258,"37":0.03226277394877191,"38":-0.08387311939751409,"39":-0.033497286255203214,"40":-0.0029358040873206878,"41":-0.07215487712550216,"42":-0.11870578878857371,"43":-0.144905446089232,"44":-0.12458160538887526,"45":-0.02760538012301563,"46":0.08772591062450082,"47":-0.18538310797342797,"48":-0.12079064882982905,"49":-0.08355616162883635,"50":0.19572100458793526,"51":0.1529381443316229,"52":-0.014950565806980367,"53":0.15448077744102778,"54":-0.13414058517350833,"55":0.14029072298738554,"56":-0.22940954520132006,"57":-0.12171872621543244,"58":-0.04649388734219991,"59":-0.11561996072952323,"60":-0.27625149211471955,"61":0.006714542043942425,"62":0.011739578896229182,"63":0.09631439941465209,"64":-0.05934487784067532,"65":0.012144231580214684,"66":-0.07896429557653113,"67":0.021965752368991526,"68":0.14754143988964813,"69":0.23705186810468645,"70":0.09046901051061121,"71":-0.1208736999328906,"72":0.062367327767921914,"73":-0.08331526022708825,"74":-0.33107188089741557,"75":-0.3855053237327262,"76":0.03431430965054695,"77":-0.16207361817524726,"78":-0.2683566305179951,"79":0.07810705500201609,"80":-0.059992446245209774,"81":-0.13071056622671576,"82":-0.06299460051396583,"83":0.1631832111102426,"84":0.0947802653149102,"85":0.05758400076290264,"86":0.034838099254171966,"87":0.28376298080110196,"88":-0.2002567551188421,"89":-0.2322810473624392,"90":-0.18973724995050747,"91":-0.18128632137498615,"92":0.008132385758862808,"93":0.07109654569629566,"94":-0.19215586028431753,"95":0.15875696449001098,"96":0.181070906810765,"97":0.17981725563195533,"98":0.01697698971856458,"99":0.10430641860280138,"100":0.13044521691923097,"101":0.09707749810079093,"102":-0.07381455656034641,"103":0.12518130197809818,"104":-0.11585699331660335,"105":-0.06788396085127901,"106":0.13233506587989846,"107":-0.20107711543007642,"108":-0.25835325708089557,"109":0.09060910593024893,"110":-0.09341240676247785,"111":0.11809267568513314,"112":0.29870207984129565,"113":0.15149656716182663,"114":-0.015176387509211893,"115":-0.12923806599160276,"116":0.1829295505906573,"117":0.021415063355075713,"118":0.0793012925566579,"119":-0.07534495855819216,"120":0.11485150232905036,"121":-0.15046146324575715,"122":-0.1984149417818511,"123":-0.07683185666105714,"124":0.08223670112021723,"125":-0.07780646734706402,"126":-0.006193730145131339,"127":0.042105130084276486,"128":0.010022243716643337,"129":0.09535450134784447,"130":0.0393610547227604,"131":-0.12660472694108718,"132":-0.039193972989108726,"133":-0.002955849042122823,"134":0.12981601138915794,"135":-0.0022169410059035403,"136":0.1283015944458383,"137":-0.11888570819529337,"138":-0.062310632589810414,"139":0.048830775817356294,"140":0.011568838631106637,"141":0.11165236307408205,"142":0.24543122742337867,"143":0.20748701896445082,"144":0.24055145491471996,"145":0.1770102664967796,"146":0.23318507972397337,"147":0.1716927833739534,"148":-0.16232991727090684,"149":0.03939773632991766,"150":0.27039630585007196,"151":-0.12304562878354738,"152":-0.09467931030172891,"153":-0.10994391906539591,"154":-0.007549554911245514,"155":-0.06985244559541141,"156":0.33410292933138097,"157":0.09298412154918131,"158":0.2125235481203249,"159":0.03433378721620008,"160":0.08086821311534985,"161":0.13676503308382656,"162":0.13507995575145537,"163":0.35009588745214465,"164":0.10260301097286002,"165":0.05186953027314162,"166":-0.015467120617411281,"167":-0.061320217776508694,"168":0.2702204987813673,"169":0.12750258153836483,"170":0.040109843966323326,"171":-0.018753662040114576,"172":0.21462589035276938,"173":0.039342757584085924,"174":0.004033743715998942,"175":-0.15325292064537077,"176":0.20031404694963995,"177":0.23603273828116264,"178":0.2572791103134655,"179":0.09881183188837284,"180":0.24163098376066347,"181":0.018007040900212656,"182":0.11118597053884897,"183":0.21333690220612345,"184":0.32602964775877324,"185":0.17771789509365804,"186":0.03982499712070398,"187":0.11467976875704573,"188":0.12766335405451854,"189":0.2675383536844257,"190":0.2296222941264888,"191":0.1521246803066198,"192":0.20941879920496378,"193":0.03560697304532628,"194":0.1489364504990652,"195":0.17717371892647613,"196":0.18921343894832685,"197":0.25918932476334333,"198":0.020951189632662404,"199":0.18245732669898101,"200":0.21772792381702005,"201":-0.03510491389479749,"202":0.2569009894685738,"203":-0.023699624608100118,"204":0.03346503524030909,"205":-0.05725365388646002,"206":-0.2347164592624093,"207":0.11834934159746704,"208":0.15178628026342833,"209":0.07795430762861028,"210":-0.1740266457731723,"211":0.19461065737448505,"212":0.10319088838226229,"213":0.0975150289503475,"214":-0.10133241330445619,"215":-0.18126737349924366,"216":0.0713195805122815,"217":0.13517467862045646,"218":-0.16969297706420758,"219":0.058944803648013515,"220":-0.00873499393119798,"221":-0.16242738485663089,"222":-0.02687763171286398,"223":0.062339088486072086,"224":0.13149803955622985,"225":-0.015315430028017949,"226":-0.22818949842206973,"227":-0.07128459444261274,"228":0.07227187234892195,"229":-0.04450874295298713,"230":0.025494500123633124,"231":-0.22934569040113445,"232":-0.009014005075826713,"233":-0.16465791991618867,"234":0.10455321811954547,"235":-0.20995386270570465,"236":-0.3180106781457211,"237":0.011785603179776213,"238":-0.22999738700254022,"239":-0.008285140424077232,"240":-0.07753021111019967,"241":-0.08346641909538884,"242":-0.1609643790039719,"243":0.18308062382968515,"244":0.08522494443943207,"245":0.012190005900395935,"246":-0.006014323557870099,"247":0.12916310119832936,"248":0.023602684908712847,"249":0.09567771407194013,"250":-0.015436079627267696,"251":0.057800596106858636,"252":-0.007224018110489041,"253":0.04180606276823166,"254":0.1077925115652453,"255":-0.20183952755133536}},"2":{"bias":0.13934980718273315,"weights":{"0":0.2655654862890103,"1":0.08017391499613293,"2":-0.07198116529646097,"3":-0.11110476123251203,"4":-0.023715348458217406,"5":0.25063170329612894,"6":0.3035950620145386,"7":0.20294999288850607,"8":0.11574768557217471,"9":-0.16524918356381615,"10":0.021372660461289373,"11":0.1287936575137085,"12":0.1826236306179219,"13":0.160235505674541,"14":0.07728383408310183,"15":0.3211713084203077,"16":0.21655926880437879,"17":-0.0016804672403758357,"18":-0.15090205399380213,"19":0.09566880570161598,"20":-0.05282914884511845,"21":0.11554768633424894,"22":0.19818956742362845,"23":-0.06763856057229556,"24":0.04443724558602603,"25":0.05409096899719374,"26":-0.12223510282469435,"27":0.106164619612577,"28":0.06891706844101972,"29":0.004106456898397953,"30":-0.2780825662519061,"31":-0.27495283171015544,"32":0.15951588798904914,"33":-0.20777032731931652,"34":-0.12861381029499322,"35":0.13878211344125352,"36":-0.01239806771946752,"37":-0.12197580830740383,"38":0.23945201879148315,"39":-0.09352577396311344,"40":0.13113976253054047,"41":0.17175242230984214,"42":-0.06470130571303571,"43":-0.0393207324258404,"44":0.2074247398168914,"45":-0.17729303592754517,"46":-0.10799406309868757,"47":-0.3085474832832427,"48":-0.013696714972713773,"49":0.01267221015757524,"50":-0.031804233687914,"51":0.02718311997119437,"52":-0.012648075109826995,"53":0.060836366076895076,"54":0.06712786238878683,"55":-0.014109936376196208,"56":-0.20838926181491357,"57":-0.24661208860130313,"58":-0.14058226347526503,"59":-0.21276313197565552,"60":0.03983673472099695,"61":-0.10484046773215017,"62":-0.21788419160457367,"63":-0.218559556121465,"64":-0.00354687104027303,"65":0.1890797912159749,"66":0.0307236593065293,"67":-0.055643274698601156,"68":0.13592794569639963,"69":-0.05504287913472168,"70":-0.12629081082798052,"71":-0.27238744016639627,"72":0.012294118690819105,"73":-0.21548248237381537,"74":0.07597118924492363,"75":-0.2854206408608936,"76":-0.02213956458719282,"77":-0.12518353820193262,"78":-0.01852296582803552,"79":-0.07008001981645794,"80":0.1864763676867301,"81":0.11109548411774779,"82":-0.017425441851339984,"83":-0.06473054402959273,"84":-0.12714906923191685,"85":-0.03724394946005588,"86":-0.09677250647011816,"87":-0.20668482652056475,"88":-0.1150849381328147,"89":0.129978010195887,"90":0.07234530862500207,"91":-0.2491062526042143,"92":-0.2932606967019325,"93":-0.10823588181805895,"94":0.11050681841907609,"95":0.1511856811671852,"96":-0.13249016914963638,"97":-0.0432414397042438,"98":0.03857980521340271,"99":0.04964447536840611,"100":0.14815071550726785,"101":-0.01044296055222477,"102":-0.0789314915270965,"103":-0.2430979327472534,"104":0.07638238960587371,"105":0.049296005530893534,"106":-0.0929016163752164,"107":-0.16071579794313023,"108":0.013649888745759797,"109":0.029176857901614273,"110":0.07846779991345743,"111":-0.08189168418433018,"112":0.06056764206639202,"113":-0.034947627676279264,"114":0.14669252517124776,"115":0.16740423120198802,"116":-0.019945653374699838,"117":-0.18923233536098927,"118":-0.08782078057169011,"119":0.2365748562482592,"120":0.09650481659361711,"121":0.17140257057896555,"122":0.1781958582897069,"123":0.12258534556511388,"124":-0.10051112270633474,"125":-0.10667225580430889,"126":0.19169329648793093,"127":-0.009569547114290774,"128":0.10380467160964728,"129":0.0579539665126857,"130":-0.06691437670487091,"131":-0.17545108238217305,"132":0.02058694512728113,"133":-0.08722394466646623,"134":-0.049978315669786715,"135":-0.2264288978471195,"136":-0.11749000063299396,"137":0.06363364723637471,"138":-0.16875060020653507,"139":0.0408232550967363,"140":0.08893430416021844,"141":-0.17402288422485454,"142":0.16384749443300206,"143":-0.08852325671431015,"144":-0.12207516540664552,"145":-0.14191739189037986,"146":-0.1391049482425259,"147":-0.06725301227617854,"148":0.16494451009476965,"149":0.06442919824802745,"150":0.043117926882061945,"151":0.009906887112669812,"152":0.00496903878415652,"153":0.06671072179627434,"154":0.18654744220371447,"155":-0.17310971909789277,"156":-0.13203038727333966,"157":0.10538592936245755,"158":-0.02762738110569721,"159":0.16378291625947988,"160":0.08607579691133149,"161":-0.13604194113410506,"162":-0.1768187026461278,"163":-0.16114423184945184,"164":-0.0800416853112629,"165":0.0730907042679263,"166":0.0035802908414864477,"167":-0.05059356986709542,"168":-0.10768778273657358,"169":-0.0035340841620512906,"170":-0.013090325320792757,"171":-0.005553276550476601,"172":-0.03442364404236475,"173":0.0494557203374011,"174":0.15610069646923652,"175":-0.10035355967593222,"176":0.0885480355201756,"177":-0.08828849677796344,"178":0.0886057450053051,"179":-0.23200105419994504,"180":0.15440006253237962,"181":-0.03057509408767795,"182":-0.1302880391344816,"183":-0.15080824202237203,"184":0.08325861061522712,"185":0.014644131350776387,"186":0.07631418182324667,"187":0.02764231666064058,"188":-0.08624882220669927,"189":-0.13124273825724325,"190":-0.25907011596837737,"191":0.11249626972399371,"192":-0.19733940687583923,"193":-0.08936966964514167,"194":0.05049434056697703,"195":0.02883654948018458,"196":0.08398392611264467,"197":0.09311906045962554,"198":-0.020110168803513368,"199":-0.13150636892672046,"200":-0.20398558433979974,"201":0.23011783706468153,"202":-0.08882131449422115,"203":-0.12527608284800257,"204":-0.19779761522059724,"205":-0.07631166861888547,"206":-0.2283222157751865,"207":0.042562391859075996,"208":-0.24970063691461214,"209":-0.1567110549127322,"210":-0.10328638557075506,"211":-0.057033657981057806,"212":-0.013830892509049078,"213":0.19399074346359155,"214":0.30149273553646777,"215":-0.04562423562250134,"216":-0.016546056069802684,"217":-0.1896636195999894,"218":-0.16519900993159495,"219":-0.15643736042579873,"220":0.12983513230255989,"221":-0.15429054895882208,"222":-0.11758707996239062,"223":0.06440694435234065,"224":0.08753812838190571,"225":0.06198104993414703,"226":-0.09563537884155811,"227":0.1048200913794248,"228":-0.13867318284002417,"229":0.05425157007898163,"230":0.12440068661072914,"231":-0.13642558493547124,"232":-0.19473283424667864,"233":-0.1818069928322704,"234":-0.1293264307752456,"235":-0.011364281731952273,"236":-0.281602715987939,"237":-0.07344924894479742,"238":-0.1368406195106592,"239":-0.16814185232737408,"240":-0.1907464511503841,"241":0.0693402859471842,"242":-0.034302370978670525,"243":-0.14404802967337732,"244":-0.026776249714578627,"245":0.05468304734099362,"246":0.13070460981194373,"247":0.03656043369689089,"248":-0.01996260435508637,"249":0.021521701837946258,"250":-0.10077182455689809,"251":-0.16213537443188977,"252":0.09429350027308903,"253":-0.18188611962602008,"254":-0.15560873500736683,"255":-0.14324609431401122}},"3":{"bias":0.19807135981305424,"weights":{"0":-0.06863677819723148,"1":0.31543356228431213,"2":0.18588848391710433,"3":-0.16748507602903087,"4":-0.2668485490277202,"5":-0.21689733892576357,"6":0.0045741481163523124,"7":-0.255409545024834,"8":-0.15056810252383945,"9":-0.2590968717686739,"10":0.011729372745286145,"11":-0.40303672244062716,"12":-0.032428855258452884,"13":-0.2854147097922057,"14":-0.06493030969769982,"15":-0.05090955190329831,"16":0.16559218432118852,"17":0.15550529702826096,"18":-0.08488530487051946,"19":-0.16780975243017618,"20":0.1504340554865922,"21":-0.030075907410946113,"22":-0.27089670752683603,"23":0.017119497592095228,"24":-0.20659455852624692,"25":-0.26228312699807776,"26":-0.043278933766111624,"27":0.005118038133081115,"28":0.017047818903353155,"29":-0.028033964851304948,"30":0.17199952195281262,"31":-0.058229692027881974,"32":0.08524992903230051,"33":-0.10021680782259126,"34":-0.16399481050411757,"35":-0.21611592907942634,"36":0.05533323704185098,"37":-0.03421455004804469,"38":-0.22228631477415187,"39":-0.14768547356467868,"40":0.11552613471314982,"41":-0.02098518637774452,"42":0.2973576984844023,"43":0.1876393912344526,"44":0.1731869210548059,"45":-0.11836042472677316,"46":0.013443250212384331,"47":-0.19806447655644227,"48":-0.1630750983876952,"49":-0.3717457670658287,"50":-0.3089780123717424,"51":-0.18185359553609098,"52":-0.20765355456187104,"53":-0.16683104700591136,"54":0.10908845924532339,"55":-0.015561824636607543,"56":0.2760435416138791,"57":0.2690576294793761,"58":0.22401328861225522,"59":0.1771429798788702,"60":0.20867056245873938,"61":0.00035794032315200386,"62":-0.05395409276294183,"63":-0.05788907528835293,"64":-0.11135283968354522,"65":-0.35905526344103106,"66":-0.25737950718640284,"67":-0.133149354191946,"68":-0.11697450661256369,"69":0.07464572679744383,"70":-0.06319596633829616,"71":0.24130438418688105,"72":0.07916200463813129,"73":0.07794562207915522,"74":-0.02359297859214867,"75":-0.05373293643450942,"76":-0.02366539582689558,"77":-0.08503814526219595,"78":-0.20563401437200501,"79":-0.021595320115900027,"80":-0.15861919367368507,"81":-0.39244149417582885,"82":-0.18690474294991158,"83":-0.24054750100261515,"84":0.17355198360061747,"85":-0.14814128755360925,"86":-0.003303858138667154,"87":0.19847223510643175,"88":-0.0663849917125615,"89":0.011658562410679087,"90":0.04290135301832399,"91":0.01603278854504747,"92":0.08084380403650629,"93":-0.2324162457511944,"94":0.1380236017516605,"95":0.1448847539512473,"96":-0.3705114000841163,"97":-0.25977656145937533,"98":-0.03108351666313026,"99":0.23891482283415796,"100":0.04309870928282281,"101":-0.034692045174694104,"102":0.18285107793393077,"103":0.17903237190718713,"104":0.06320525430290382,"105":0.07575863919511924,"106":0.08142044526728986,"107":-0.0003707009156834331,"108":-0.10698328152210071,"109":0.030730900063956547,"110":-0.014381493132800639,"111":-0.174233923815414,"112":-0.062411649279900575,"113":-0.19496261112257046,"114":-0.113697162063875,"115":0.008366165032128762,"116":0.16245874650205153,"117":0.17099256743585792,"118":-0.060983471356897134,"119":-0.08985460604746238,"120":0.40981108361386326,"121":-0.12304142249455688,"122":-0.296712950942743,"123":-0.1210246522738593,"124":0.065150915033764,"125":-0.05553869203351369,"126":0.07899188414420677,"127":-0.009617838379128803,"128":-0.05553263179738326,"129":0.06627111340861387,"130":0.13607499340278398,"131":-0.006032396646372224,"132":-0.11394139911006851,"133":0.13410823847568323,"134":-0.09880084729040849,"135":0.19214546777565936,"136":-0.02180045059512763,"137":0.23878704398439077,"138":0.052141161987846095,"139":0.20074716411319596,"140":0.3933974346616124,"141":0.3164429003579936,"142":0.06622557325986382,"143":0.04811434233763844,"144":-0.10594288009483394,"145":-0.0439252924500763,"146":-0.17353770704048538,"147":-0.01080853827826353,"148":0.03213143175411743,"149":-0.06799648572478219,"150":0.061097902208814246,"151":0.0769534312576576,"152":-0.01075813965891323,"153":-0.022258532837462593,"154":0.19135522280415054,"155":0.1956276521275193,"156":0.20271180942221811,"157":0.15498214981204783,"158":0.21758845655493914,"159":-0.0013284383097463368,"160":-0.13978586314239647,"161":-0.12049464689669319,"162":-0.13819770736456946,"163":0.078181848626554,"164":-0.020556741669403904,"165":0.19213426460173125,"166":-0.12691443229757715,"167":0.05295953863657856,"168":0.2871501904705277,"169":0.25483957427055437,"170":0.24435247708571453,"171":0.2686784878041999,"172":0.270002117546377,"173":0.20996442944661753,"174":0.06771979136608185,"175":-0.0401094783754678,"176":-0.1785288067542195,"177":-0.19085920452845978,"178":-0.19854508470860474,"179":-0.16444636393912604,"180":-0.16114898775853903,"181":0.07783471528736517,"182":-0.057463110523204866,"183":0.024813685036675203,"184":0.08784000632691606,"185":0.041412276096563984,"186":0.3238975872585899,"187":0.1595923047321073,"188":-0.009803600926007829,"189":-0.005311990478642928,"190":0.09532224849432969,"191":0.15152811560884685,"192":-0.20259582940319282,"193":-0.1354253513570003,"194":0.02262279502614899,"195":-0.04419520368729357,"196":-0.015543654447315265,"197":0.14420531341634962,"198":-0.06824455897217067,"199":-0.09841605003683611,"200":0.294416202763301,"201":-0.06889377826749095,"202":0.16247246565625825,"203":0.2979637928741136,"204":-0.10216964230017385,"205":0.09825532414904724,"206":-0.16580977797877358,"207":-0.28961413115515683,"208":-0.13528420323880966,"209":0.17894395014633988,"210":0.16476146716465964,"211":-0.06113834911026112,"212":-0.31289701791830576,"213":-0.17417452491556254,"214":-0.006787410570916546,"215":0.1294607362353291,"216":-0.2508385663623742,"217":0.07817799300802153,"218":-0.4323212138671649,"219":-0.027105776204296647,"220":-0.00171260453819938,"221":0.10597187509431544,"222":-0.2002057571940348,"223":-0.14713211378144805,"224":0.04173636676425302,"225":-0.2776626987295957,"226":-0.38882915412796626,"227":-0.2436304226804712,"228":0.05201756767953975,"229":-0.056412652238303745,"230":-0.06027181843627839,"231":0.04720905075242275,"232":-0.23571340161595894,"233":-0.19811385059138414,"234":-0.036269408917644054,"235":-0.22374481780701694,"236":-0.0916541828665315,"237":-0.09816075028008799,"238":0.027218089869243827,"239":-0.05343198646212282,"240":-0.1300140367361715,"241":-0.003985891002872102,"242":-0.0841826083762374,"243":-0.11162619785881711,"244":0.04798668604943808,"245":0.18908177776724386,"246":0.14928623528293603,"247":-0.12201191834543523,"248":-0.0985805803242843,"249":0.04100280131422899,"250":-0.1893658281385207,"251":-0.1230135785657513,"252":-0.00035569825272185125,"253":-0.256743083332327,"254":-0.2120400515558975,"255":-0.09091078691552458}},"4":{"bias":0.007486899868441515,"weights":{"0":-0.13368288980316023,"1":-0.05807667433827884,"2":-0.2004655206284643,"3":0.13387464107623664,"4":-0.015948716729038304,"5":0.048556287712558786,"6":0.20691608541547554,"7":0.15207693693030366,"8":0.12837893451640178,"9":0.17854200793888367,"10":-0.11799906318936453,"11":-0.13746775360212277,"12":-0.15271314150785234,"13":0.04899041698955284,"14":0.20667957884916185,"15":0.11099394737734251,"16":-0.1244066812089644,"17":-0.12140820845194814,"18":0.019584654699867123,"19":-0.07802213155751749,"20":-0.1134515189179933,"21":-0.1180469905353378,"22":0.23905131490014994,"23":-0.08183966918987766,"24":0.2857478013102704,"25":-0.060735079040917184,"26":0.1987638726613434,"27":0.0018022097579107493,"28":0.19827183801705348,"29":-0.054961962407657,"30":-0.045693166934963766,"31":-0.08348319067714118,"32":0.16881140940150124,"33":-0.14516002045021673,"34":-0.11178828344671188,"35":-0.024154059906396682,"36":-0.011285371624366118,"37":0.1602913223744701,"38":-0.042894187847640826,"39":-0.3040032802751048,"40":-0.17372212694811529,"41":-0.025003938924002996,"42":-0.0853287324305358,"43":-0.19273294012208356,"44":-0.06903270701108169,"45":-0.08307076116160081,"46":-0.029391861156784188,"47":-0.11753606479880313,"48":-0.058496489725866116,"49":0.12253750883547541,"50":0.012284596621205375,"51":-0.009000355667739685,"52":-0.02808274670368721,"53":-0.13659111301920482,"54":-0.15535514256277783,"55":-0.11169706154823661,"56":0.08637822518694849,"57":-0.1873293956244663,"58":-0.046148616288590974,"59":0.11995559889709118,"60":-0.006767977216134485,"61":-0.08124883872469085,"62":0.088872778614292,"63":0.09409020642835912,"64":-0.1797807807588028,"65":0.01645110014762919,"66":-0.2765198474894109,"67":-0.08187447067076935,"68":-0.09484889982714731,"69":0.1620569274617379,"70":-0.06988827597565225,"71":-0.10457691270145375,"72":-0.17624160387892296,"73":-0.2088292143501452,"74":-0.05933483693694476,"75":-0.1497200897770539,"76":-0.006714087916718609,"77":-0.2961364406678699,"78":-0.15729102216939536,"79":-0.28611395479093815,"80":-0.24740188987863887,"81":-0.20473333814818073,"82":-0.04645339666294631,"83":-0.0397815137126518,"84":0.11755792666442197,"85":-0.16299799953378435,"86":0.1527044216678971,"87":-0.1427347146751097,"88":-0.08427729779431295,"89":-0.11063479223607778,"90":0.021113331684690834,"91":-0.007835769837843997,"92":0.032965033232032925,"93":-0.10605028729245289,"94":-0.2626523495404003,"95":0.06102238266927669,"96":-0.221304511583305,"97":-0.35396772796430875,"98":0.08951039140755762,"99":-0.15869490508398967,"100":0.04265811496101188,"101":0.16601730223822825,"102":0.09497037493218835,"103":0.10154542159051547,"104":0.1408088162307982,"105":-0.1297453118430489,"106":-0.03557806602293328,"107":0.007254086709150183,"108":0.025603478978503454,"109":-0.10147663762502444,"110":-0.03068029969188155,"111":0.003074110292736331,"112":-0.18842071525574022,"113":-0.26991196881082846,"114":0.03432401193661305,"115":0.21372100689913134,"116":-0.10196382835338262,"117":-0.08167268108261139,"118":0.14598924040674555,"119":0.29316902380457105,"120":0.26091560736859104,"121":0.08697941078282168,"122":0.1279554418757755,"123":0.20340159666575033,"124":0.18818076410130377,"125":-0.18981232477029272,"126":0.07629489287272513,"127":-0.16972401213726235,"128":0.09502107135871425,"129":-0.14389312672625484,"130":-0.15931093570796864,"131":0.1429437311945688,"132":-0.2614850989508253,"133":0.04571044683103269,"134":0.20871774333798054,"135":0.24175888281150706,"136":0.037203194544243465,"137":0.3094389807561244,"138":0.15286864719095325,"139":0.2885404586030199,"140":0.06725743944798206,"141":0.07334127519427523,"142":0.06865589687211071,"143":-0.26015906434937575,"144":0.07936890152217811,"145":0.005247714985692989,"146":-0.0903916166259775,"147":0.12040869536927278,"148":-0.07303148731083575,"149":-0.041272777754224665,"150":0.18766276001630175,"151":0.1530305288745695,"152":0.20418132186670643,"153":-0.11860307873914581,"154":0.04252613062190271,"155":0.010090650734887366,"156":0.15083348258742643,"157":-0.10808044360289819,"158":0.10285519989289174,"159":-0.1559236695112702,"160":-0.047018724499475625,"161":-0.2016329741150375,"162":-0.21866622998546836,"163":0.029930425033515503,"164":-0.014441398803550665,"165":-0.11587267525363504,"166":-0.1139226981537181,"167":0.08197367214227462,"168":-0.13829462908305157,"169":-0.07420984770785517,"170":-0.19551645981258556,"171":0.1743428912135485,"172":0.03988960793012703,"173":-0.15365494827066684,"174":-0.1950989415676802,"175":0.009440923950000677,"176":0.05455651265134265,"177":0.12412231169461888,"178":-0.13089821255682912,"179":0.27510834034487897,"180":0.15913424588053982,"181":-0.15930531562270925,"182":0.05040087608972096,"183":0.14672980448538692,"184":0.19932763689321578,"185":-0.08644394396022323,"186":0.1530907147616249,"187":0.1342097973065265,"188":-0.1505940200966439,"189":0.02120674225978723,"190":-0.290275599677461,"191":-0.02997681440200194,"192":0.10176423589281497,"193":0.015956272133290383,"194":-0.026358951182598706,"195":-0.18026994143341657,"196":0.053451620212283696,"197":-0.11301023589926423,"198":-0.04338870149445878,"199":-0.06090973978573544,"200":-0.19107282230170455,"201":0.06913871622795169,"202":0.0422252534648709,"203":-0.10967201318478798,"204":0.03461592717622358,"205":-0.1272405004852083,"206":-0.12731930570317912,"207":-0.13062629438170964,"208":-0.15714761845643832,"209":-0.05539273302440008,"210":0.13457431713376655,"211":0.02580009629764241,"212":0.05081240872009659,"213":0.2322763596139017,"214":0.0660933842061645,"215":-0.009092582037569305,"216":-0.202136589181649,"217":-0.09597345007004746,"218":-0.2717904459547728,"219":0.02336442071731994,"220":-0.0725104932193428,"221":-0.13375227136210366,"222":0.007815975520268088,"223":-0.023907507230769464,"224":-0.2167480980813212,"225":0.15633276692831077,"226":-0.03613431527538935,"227":0.039742390871179034,"228":0.18739927853872865,"229":-0.15932904482791288,"230":0.10165765977147442,"231":-0.0639958126861057,"232":0.101123512760407,"233":0.005446933253440115,"234":0.14668433766232028,"235":-0.11639980849556834,"236":-0.10286538977920133,"237":0.18457821936356122,"238":-0.2115376961894555,"239":-0.1224505590477706,"240":-0.12278918118674763,"241":-0.15743315840479843,"242":0.07232492212461028,"243":0.04440417208828722,"244":0.04786380353013902,"245":0.1288367679644737,"246":0.10382450947413188,"247":0.15766179317041887,"248":-0.026133578277805443,"249":-0.08122247489238481,"250":-0.06254185721367925,"251":-0.0051790283407689135,"252":0.1339119278368005,"253":-0.17949499037811276,"254":0.019854699040805526,"255":0.10239455932594291}},"5":{"bias":-0.2889914692601737,"weights":{"0":-0.06130161701246101,"1":0.0009051881282218938,"2":0.1337882309437877,"3":-0.09812545104285988,"4":-0.14173866325736725,"5":-0.21524787588377142,"6":0.05163177397492363,"7":0.16322440172762775,"8":0.05904975223015129,"9":0.41595680617479386,"10":0.1631060338891154,"11":0.5006263364413102,"12":0.17640924120486248,"13":0.11410356500737137,"14":0.1702234183138156,"15":-0.12908602523098006,"16":0.2456869979823986,"17":0.13959289222092142,"18":0.0948099768188021,"19":0.013500724302086648,"20":-0.30729597020462235,"21":0.05933555403708011,"22":0.024767794780525026,"23":0.0902900261560282,"24":-0.21265782288181045,"25":0.12842609373210184,"26":0.12819617066245437,"27":0.0076488161797778394,"28":0.06294307120352323,"29":-0.17602372284068502,"30":0.14935686837816972,"31":-0.09815686017792555,"32":-0.06647560556002684,"33":0.08061458230251348,"34":0.03887911610810291,"35":-0.07944446811430753,"36":-0.11514642488226266,"37":-0.034617575863449025,"38":0.08032581860267514,"39":0.09281481448925272,"40":-0.18600653246597637,"41":0.07968138448426426,"42":0.11608318430196798,"43":-0.08391536798668507,"44":0.11207990174722493,"45":0.05073883464453767,"46":0.20341974171707164,"47":0.4500631227122603,"48":0.21110602433263737,"49":0.0683596430347668,"50":-0.04732824931494512,"51":0.07669567864295655,"52":0.09527065814360561,"53":0.1644886684768739,"54":0.026559540353843697,"55":-0.11112590232425874,"56":-0.15440988618549667,"57":-0.09377863772101776,"58":-0.2096988456710391,"59":-0.17765789303439583,"60":-0.029886235408667267,"61":0.05044785888176615,"62":0.44772186289522786,"63":0.33680191549747585,"64":0.17080189258271034,"65":0.3724944564706997,"66":0.181612638842725,"67":-0.02848454560389904,"68":-0.009993841210481578,"69":0.02497670676642535,"70":0.020091768888489216,"71":0.05227748752041661,"72":-0.06975588483933012,"73":-0.04192942306824859,"74":-0.005714356345896344,"75":0.22320658907663166,"76":-0.12042204768297925,"77":0.08730434650308073,"78":0.06106742227604739,"79":0.25547269123263344,"80":0.07672849926750652,"81":0.10790886318825742,"82":0.2400868023348704,"83":0.3774248334932192,"84":0.050310238140753076,"85":0.09642104727319423,"86":0.32513986783876025,"87":0.10280422353002393,"88":0.17176784182929186,"89":0.05250937174787976,"90":0.12557987541994486,"91":0.3158606317684122,"92":0.3037458963538428,"93":0.16211845861098836,"94":-0.07755591456454643,"95":-0.0981335278102784,"96":0.006108891059588627,"97":-0.049309419704691056,"98":0.25772027228464545,"99":-0.275303751707184,"100":0.06350227345349274,"101":0.184006453465523,"102":0.20813001341425688,"103":0.08292277607227896,"104":-0.2628351227901536,"105":0.0008116384334513971,"106":0.044181760682569744,"107":-0.1574855266310864,"108":0.11863105664364774,"109":0.23891156231187977,"110":-0.11217476483434925,"111":-0.16670908644407723,"112":-0.19828157096715107,"113":-0.0732961460881365,"114":-0.23691654872844575,"115":-0.08415195069368271,"116":0.028251148568841023,"117":-0.001971673330221275,"118":-0.203347665847209,"119":0.13913783713945832,"120":-0.2840181747200705,"121":-0.22649841638039112,"122":-0.2536735257699788,"123":0.07335003703821547,"124":-0.05455589251164917,"125":-0.14938412067219997,"126":0.10280256030066001,"127":0.09826669607150526,"128":-0.17537652863718786,"129":-0.11096404943836806,"130":-0.043373143981623355,"131":-0.19808556976814704,"132":0.06343786220771058,"133":-0.2324274581783605,"134":-0.03940481800737922,"135":-0.10478579420669934,"136":0.1171190270372548,"137":-0.25518428079793914,"138":-0.2740846698366862,"139":-0.4797549287586535,"140":-0.07295266498798049,"141":0.18871632502850244,"142":-0.026751010117710926,"143":-0.05595311111562813,"144":0.14090586299762553,"145":-0.10973266309268961,"146":0.005484867315609116,"147":0.10479146470262127,"148":-0.3027747975164485,"149":0.024942478692655774,"150":-0.03902192936294056,"151":-0.05050615573217113,"152":-0.1801619399421976,"153":-0.10480939483804905,"154":-0.5434320318514992,"155":0.13822675179968222,"156":-0.18399162668897243,"157":-0.015336278072509143,"158":0.23521628073147005,"159":0.19586095086056327,"160":0.14383170213773952,"161":-0.15910346766229863,"162":-0.02914147017763442,"163":-0.00932605201546814,"164":-0.4054823590649088,"165":-0.46852666984945296,"166":0.01613252551675668,"167":-0.577664528596425,"168":-0.31028718504076225,"169":-0.1847972952809131,"170":-0.28900022578633405,"171":0.044669787618838504,"172":-0.13955058814399382,"173":-0.10186752084068434,"174":0.256897368474782,"175":0.07583806344155526,"176":-0.05655920083925173,"177":0.08269766810953645,"178":0.2932150315042332,"179":-0.012159537657238331,"180":-0.11228615167772438,"181":-0.2539991589659637,"182":-0.08107819635813439,"183":-0.471775062291278,"184":-0.3480001389615348,"185":-0.376238209290579,"186":0.018966262386961634,"187":-0.23020522047486253,"188":-0.223347033060854,"189":0.17635646022433651,"190":0.1831246609091423,"191":0.3224379041606448,"192":0.38518157372316125,"193":0.3890000668488672,"194":0.11687736419994303,"195":0.034819796083335866,"196":-0.21597823036160202,"197":-0.08696183189628826,"198":-0.34808451105630656,"199":0.03076000969739641,"200":-0.20125160674931644,"201":-0.09534627118566265,"202":-0.12819446597347905,"203":0.021929917707211168,"204":-0.1041658913727868,"205":-0.10483184407765844,"206":0.38291824674526287,"207":0.18336275061090102,"208":0.2762177353258632,"209":-0.0643507880313744,"210":0.0924908210693842,"211":-0.10027054653597044,"212":0.3065130999397405,"213":-0.09106121635420966,"214":0.0010527415095168435,"215":-0.16078787589724922,"216":-0.12412713954734518,"217":-0.16545629648440052,"218":0.11442877913644965,"219":-0.19185144013627606,"220":-0.26293239670036345,"221":-0.13768970220653556,"222":0.16509531806208944,"223":0.12703092081287212,"224":0.2661058663545906,"225":0.3088284915499992,"226":0.11827214128843176,"227":0.28672552037476806,"228":0.07480494532508193,"229":0.25668520689079666,"230":0.28714329749692274,"231":0.5639823763606098,"232":0.2823158649259742,"233":0.25296111491490136,"234":0.12757843601902744,"235":0.189806905658001,"236":0.05967056919461138,"237":0.07606771105657115,"238":-0.146224435277959,"239":-0.15917380275871176,"240":0.07329875026928437,"241":0.07328921499320257,"242":0.10325155022330938,"243":0.13498490248397796,"244":0.3173311651789846,"245":0.21234244565203425,"246":0.01898016215360245,"247":0.19050915504388616,"248":0.3371693970021253,"249":0.24223094633250009,"250":-0.009524155883330795,"251":0.07957113069394195,"252":-0.05204769667500237,"253":-0.02103589965895848,"254":-0.26531691709759464,"255":-0.09940517531955045}},"6":{"bias":0.06955612108320808,"weights":{"0":0.0821392819713385,"1":0.049642715073755145,"2":0.11720930252960157,"3":0.08586109226597191,"4":0.2814407314629744,"5":0.31561309067364185,"6":0.004244939421717123,"7":-0.019510526170303535,"8":0.04162706020248877,"9":-0.1257531624700959,"10":0.09239687981357068,"11":-0.27969347831200914,"12":0.07911005716242137,"13":-0.2236410102417607,"14":-0.21045728689411144,"15":-0.09749350999233138,"16":-0.05249920835785146,"17":0.02612116243795401,"18":-0.11655128154657325,"19":0.03556180278796004,"20":0.178038598801266,"21":0.1945793688052638,"22":0.09724857023847223,"23":-0.014225005338007767,"24":0.0668258843172572,"25":-0.2521459234857105,"26":-0.044771223357236226,"27":-0.13748905748205975,"28":0.043021751197364344,"29":0.19884827121737159,"30":-0.07968718066987761,"31":-0.04755481696694332,"32":0.10612598979775342,"33":-0.04800650633499842,"34":0.11326276113496524,"35":0.13070519512255024,"36":0.042886902103325596,"37":-0.054527672826004736,"38":-0.008343220995209186,"39":0.13834309271894032,"40":0.015257161459575298,"41":-0.10246274089220152,"42":0.042261895136412694,"43":0.05354293481519658,"44":0.10143852459080695,"45":-0.1343627661560706,"46":0.021168276758608013,"47":-0.24922046822003585,"48":-0.14311855988506436,"49":-0.07851401798494381,"50":-0.058172935057425955,"51":-0.1513722649862772,"52":0.119126711093713,"53":0.011461356690017566,"54":-0.08231543828958161,"55":0.20667352176299236,"56":0.06324109722106108,"57":0.22631712995758294,"58":0.1760001747208689,"59":-0.006009578672222241,"60":0.11043122791605497,"61":-0.02266251488535738,"62":-0.05538698606164969,"63":-0.3112989999377005,"64":-0.16384309446839807,"65":-0.27408589967981056,"66":-0.05385700033723641,"67":-0.1715495207890579,"68":0.12052819068849051,"69":0.11057962265321741,"70":-0.1660242155141929,"71":0.056485061849480024,"72":-0.0008515434625236127,"73":0.10141831151442644,"74":0.002534368587248437,"75":-0.07510292842376359,"76":-0.0008337308190982011,"77":-0.04253538249498721,"78":-0.202292019056369,"79":0.03935301126279052,"80":-0.12657227632960677,"81":-0.46607702501826026,"82":-0.16451585919388761,"83":-0.3446954346986902,"84":-0.015740026322151025,"85":-0.17525640388245628,"86":-0.41806081853916466,"87":-0.12854534610721402,"88":-0.10058671260788896,"89":-0.08368676768075303,"90":0.029536924329914102,"91":-0.19090569155199688,"92":-0.21474799374830672,"93":-0.020554822288560332,"94":0.08847978795530644,"95":0.2239208969665633,"96":-0.13237283123073845,"97":-0.3169372373084144,"98":-0.3291348513820334,"99":0.09441174275326979,"100":-0.020516274929408437,"101":-0.2904870826362509,"102":-0.060307089960618766,"103":-0.1632798372935444,"104":0.3324021532282632,"105":-0.11732344446521627,"106":0.30287489253906097,"107":0.044223899170091285,"108":-0.08663758990894119,"109":-0.006879499250922957,"110":-0.10291436743370504,"111":-0.01933901191352713,"112":-0.09509238620086484,"113":0.12475537860956155,"114":0.18281163081205878,"115":0.07738127667345764,"116":-0.2078623763740252,"117":0.14307618583344361,"118":0.024405347098537235,"119":0.03499506985198759,"120":0.34119267111870527,"121":-0.10184758852983301,"122":0.24168299674340188,"123":-0.03291649907158834,"124":0.0519695700711365,"125":-0.05434929749325245,"126":-0.11766289381549372,"127":0.04820456001159321,"128":0.02250262923902467,"129":-0.030877385620368347,"130":-0.0727211544633152,"131":-0.172836925037779,"132":-0.15441904978860524,"133":0.2307862943661936,"134":-0.020222936829357722,"135":0.23337438945733713,"136":0.0029382547340883348,"137":0.2533270054939737,"138":0.18684455690236149,"139":0.281845401695081,"140":0.2259014165954542,"141":-0.24683821044660173,"142":-0.11369144078896196,"143":0.16232180774132196,"144":0.03418822560748522,"145":-0.07059566290956604,"146":-0.08804217128130452,"147":0.10968766786928659,"148":0.29357978519906913,"149":0.1240426334323647,"150":-0.04001533549097596,"151":0.29290128799712595,"152":-0.028077708521424438,"153":0.19927053163585967,"154":0.39091340334470037,"155":0.020498968718066477,"156":-0.2763477330579338,"157":-0.04761229673270208,"158":-0.24670826742787552,"159":-0.07079108884351103,"160":0.11336707415631303,"161":-0.11537563794037746,"162":0.19001040690365562,"163":-0.042871736078577145,"164":0.3275774042433471,"165":0.0876157180528142,"166":0.15060356605677208,"167":0.41764064673011364,"168":0.0953675488549464,"169":0.1482724562735607,"170":-0.011636160932316925,"171":-0.03245106907842567,"172":0.07554208900047055,"173":0.08382816620041411,"174":-0.057886355337286484,"175":0.10234555023234213,"176":-0.1518787719858277,"177":0.06245606262727444,"178":-0.08016606288236558,"179":0.30118455072915723,"180":0.18355654838775026,"181":0.22675649047520005,"182":-0.05198460790270122,"183":0.029756735482952414,"184":-0.03708303898998813,"185":0.2798727660113508,"186":0.11832530980964383,"187":-0.18275076489438935,"188":-0.2324892022747967,"189":-0.07651868809802127,"190":-0.42470484323785496,"191":-0.07842215678882122,"192":-0.2483276105146322,"193":-0.2808227410577258,"194":0.12135179742277147,"195":0.05958636597609373,"196":-0.1059843069511733,"197":0.12839238131206862,"198":-0.024002726010859152,"199":0.09970475285852734,"200":-0.006279593588847505,"201":0.029247028758989317,"202":-0.0815462471213791,"203":-0.05157448068530855,"204":-0.1130718345932179,"205":-0.2707947894761981,"206":-0.339193796931749,"207":-0.3138369395356734,"208":-0.25864085357554883,"209":0.004506498770939018,"210":-0.0940025104857547,"211":0.0737874493478444,"212":-0.10800888962326265,"213":0.09989677385402443,"214":0.0210480437838677,"215":0.03463719492501006,"216":0.1457522046905997,"217":-0.2248351633979054,"218":-0.05353038910391169,"219":-0.21557529715995083,"220":-0.060576654718870346,"221":0.06314268299431362,"222":-0.28382638660718623,"223":-0.03837303609921193,"224":-0.17077456510050887,"225":-0.11407390091108385,"226":0.023408882567880356,"227":-0.3806648682455099,"228":-0.35755817330517076,"229":0.026499474523112222,"230":-0.23846539988813167,"231":-0.2665360623887677,"232":-0.31487739107529206,"233":-0.2662040418947217,"234":-0.20358957195777744,"235":-0.12507773957624918,"236":-0.17087943515798115,"237":0.053950345298012826,"238":-0.09089085471445346,"239":0.15367731048256844,"240":-0.29870548581366607,"241":-0.09654585331161866,"242":-0.3536769904471314,"243":-0.2865556066930736,"244":-0.19053420437392635,"245":0.1309866443705293,"246":-0.048449509254514814,"247":0.0600847374040549,"248":-0.2889562760083302,"249":-0.15891250076236355,"250":0.02396491657242845,"251":-0.019967003592956337,"252":-0.15609504902014384,"253":-0.16762345065297427,"254":0.04696287827072215,"255":0.12880100873706238}},"7":{"bias":-0.2343729182249459,"weights":{"0":0.020405477037751557,"1":0.029088095551686545,"2":0.2902230749195122,"3":0.23479598534170262,"4":0.11114236221379382,"5":0.14376618906366848,"6":0.12867340956965623,"7":-0.10261284816962594,"8":0.10006193068195832,"9":0.16725965661485784,"10":-0.02559109559330322,"11":0.1061837689386578,"12":0.11090770451467961,"13":0.02077694387885486,"14":-0.17283266558690355,"15":-0.151237468633401,"16":-0.01893791908801739,"17":0.22154287035807166,"18":-0.08169470259667108,"19":0.17277115902348145,"20":-0.13547021699063178,"21":-0.033529215190400814,"22":-0.09163872215700361,"23":-0.003056378574336958,"24":-0.01420376301671564,"25":0.161978179609503,"26":0.13563948808737947,"27":-0.08474507216461304,"28":-0.15402773742276937,"29":0.2621776766891529,"30":0.24555835912006874,"31":-0.03464902967583975,"32":-0.02390899766188382,"33":-0.05961593225973485,"34":0.005753517678157726,"35":-0.0744227959710081,"36":0.1609949942732953,"37":-0.1725741342473292,"38":-0.0960337971787965,"39":-0.2936841908073337,"40":0.0785868580155794,"41":0.17664104251720145,"42":0.24600293799946524,"43":0.21731629784872744,"44":-0.006126356678062643,"45":0.277621330929902,"46":-0.02687434840838257,"47":0.19478644440309129,"48":0.04152888788221542,"49":-0.3021556317580494,"50":-0.00862179645266414,"51":-0.2480194733013805,"52":-0.05138795703953472,"53":0.058225051738873136,"54":-0.00916458547650384,"55":0.04059399816964878,"56":0.01721663607111256,"57":-0.10583579878697633,"58":-0.049103631323955656,"59":0.3411592481901254,"60":-0.051630003502362465,"61":0.02160319754315052,"62":0.1291881634015478,"63":0.03620626618729193,"64":-0.042468726100112104,"65":-0.33181063165874314,"66":-0.14691675896131065,"67":-0.2496926596627911,"68":0.06123288295991257,"69":-0.24044978993815777,"70":-0.20653551453612667,"71":-0.40141856584475366,"72":0.1836649103087746,"73":-0.04562932681620798,"74":0.15328520496330642,"75":0.07986461985224098,"76":0.10138649182031455,"77":0.16663311434899508,"78":0.2712364620841225,"79":0.019234942929406005,"80":-0.25108758180409235,"81":-0.20948696236251588,"82":-0.012343609854553909,"83":-0.018718376036419314,"84":-0.35757646389325054,"85":0.021095896089433405,"86":0.04468172380074653,"87":0.15486011747382927,"88":0.1714779252461157,"89":-0.04655305615130207,"90":0.01046019814232011,"91":0.05291249059912164,"92":-0.12031552907939276,"93":-0.18111349860988496,"94":0.1078900326413766,"95":0.037620211331074224,"96":-0.1282336143268541,"97":-0.2868154045893596,"98":-0.14543373630475456,"99":-0.2805840813396114,"100":-0.28371711411878753,"101":-0.12912442741141625,"102":0.14313810601730995,"103":-0.05874462941397279,"104":0.05629838640553611,"105":0.13428174006296117,"106":-0.26308670996727535,"107":-0.11785985192673938,"108":-0.027986436259847095,"109":0.02350317784330798,"110":0.013073291815738934,"111":0.1671439710068823,"112":-0.24868681993229705,"113":-0.1487518329044331,"114":-0.17391383055775292,"115":0.11722332600340223,"116":0.07937925397310579,"117":0.1243289314203676,"118":0.15118777443187092,"119":0.14885889625455884,"120":-0.03794290790206581,"121":-0.22273077319980075,"122":-0.1169971713036803,"123":-0.08295482934867948,"124":0.040331915072332754,"125":-0.1795187278248788,"126":0.09175063621553632,"127":0.16372798333170438,"128":-0.16940424233731796,"129":0.06642288372417149,"130":-0.09972134152381286,"131":-0.08543130901406112,"132":-0.15823367638567926,"133":0.07600648773367703,"134":0.10992199059057146,"135":0.2329696878858575,"136":0.3323051446140837,"137":-0.007267103936342245,"138":0.161374707223546,"139":0.09549832434110139,"140":0.1078016354464795,"141":-0.03866227472059716,"142":-0.03291990897508371,"143":-0.05861618276489613,"144":0.11694128455740806,"145":0.22993373191674005,"146":0.2831403698236286,"147":0.14539179936091562,"148":0.29900559925874187,"149":0.04528175539608517,"150":0.25892690029262555,"151":0.19257066716464444,"152":-0.1008152412608324,"153":0.21862838579670976,"154":-0.19232662483233914,"155":-0.08664039270274963,"156":-0.2490705623662735,"157":0.13066611997676023,"158":-0.09705632971006162,"159":0.09387676084226919,"160":-0.011945852326397508,"161":0.20565067449582355,"162":0.26192149970063877,"163":0.03116214165907694,"164":0.1058900806743211,"165":0.07025103153440007,"166":-0.1365125208018238,"167":0.013577720317683919,"168":-0.19897561304432324,"169":0.07247286872337409,"170":-0.21646706821469713,"171":-0.23157262554360525,"172":-0.058340733434642265,"173":0.016703557076110803,"174":0.12661650529211801,"175":-0.179485746426272,"176":0.12673941593367216,"177":0.39914568467813605,"178":0.26767292623594896,"179":0.1595900190384346,"180":0.2674734339430556,"181":-0.19315165350753707,"182":-0.16617775144834881,"183":-0.19087850936027956,"184":-0.03138295348069545,"185":-0.07111566299227941,"186":-0.26585733878070533,"187":-0.18709928584327662,"188":0.006518802210444145,"189":-0.1312968630014383,"190":-0.19477194370484932,"191":0.090769048161475,"192":0.4530120663260891,"193":0.3899151674695198,"194":0.2152576762688434,"195":0.3321095649014831,"196":0.24671207082434465,"197":-0.07558527232969539,"198":0.06980370157369682,"199":0.02655565303125612,"200":-0.000835476960840973,"201":-0.19337757126564975,"202":-0.0906136205579435,"203":0.11560695123234475,"204":0.09215525617855269,"205":-0.2221177388706639,"206":0.001099907990364123,"207":0.08062559264669494,"208":0.19102814745005933,"209":0.21811082930921222,"210":0.24782289400497742,"211":0.17308285403373344,"212":0.13121078033835637,"213":0.12005776950107497,"214":0.09711399868090112,"215":0.11200449319617722,"216":0.00181598626932393,"217":-0.19867341486912438,"218":-0.2194705844968007,"219":-0.002384650364723485,"220":0.10958508039503478,"221":-0.04020017228948482,"222":-0.18365120721189598,"223":0.12585505514644899,"224":0.07568673778554853,"225":0.006505631752052777,"226":-0.011020049364380842,"227":0.058614695468486334,"228":0.25173226798580056,"229":-0.14258892128011721,"230":-0.05901035952137255,"231":0.223596928262832,"232":0.15236171201190368,"233":-0.00532073665005306,"234":0.0994506369878027,"235":-0.025444772273826265,"236":-0.2247050146723269,"237":0.1654160654202725,"238":0.025573416977942912,"239":-0.07513966364351057,"240":0.1602171976827924,"241":0.10839351082966177,"242":-0.11281111253128862,"243":0.10195973594894743,"244":-0.027968617974115827,"245":-0.046531604396552455,"246":-0.06760851682133832,"247":-0.06047288904094943,"248":0.21648674307063778,"249":-0.19255942891376446,"250":0.05649521811078411,"251":-0.12791298120986913,"252":-0.16086958395438458,"253":-0.2811322296054143,"254":0.007225972026076905,"255":-0.030758600927911932}},"8":{"bias":0.18333800060811475,"weights":{"0":-0.06095035216246361,"1":0.05643748546509658,"2":-0.07990593446710842,"3":-0.11574031723664936,"4":-0.23362063207519965,"5":-0.019027807440294395,"6":-0.15287017172215092,"7":-0.06722191820887938,"8":-0.1696406300099256,"9":-0.07446911271066602,"10":0.16727866693477675,"11":0.0420314564421566,"12":0.15975002240954222,"13":0.1346520255259218,"14":0.1918964739447003,"15":0.19489916254187103,"16":-0.019675159733786703,"17":0.0017258656047841622,"18":-0.01836808824488791,"19":-0.08866168223429656,"20":0.1619702389784604,"21":-0.03696947244137919,"22":0.05540221751839208,"23":0.20794142167690438,"24":-0.015241151924975115,"25":0.11898013763470812,"26":0.03304639004345773,"27":0.009089000411605772,"28":-0.030419569929435567,"29":0.06689820918842097,"30":-0.12788400345898443,"31":-0.004033884761651593,"32":0.1277267961909804,"33":0.04736554872661258,"34":-0.1579365590446246,"35":0.0836768948548847,"36":-0.17270789825499214,"37":0.08921143081194587,"38":-0.08716530700608834,"39":0.08819340894491107,"40":-0.11916674525430666,"41":-0.013842594394464877,"42":-0.013597673145394324,"43":0.03424664373594974,"44":-0.19806571833028053,"45":0.01889929319777805,"46":-0.19857510653103344,"47":-0.32653277750682297,"48":0.126454003617798,"49":0.1646527829037158,"50":-0.06623040235294636,"51":0.2250913418484191,"52":0.1751328119439731,"53":-0.0870528406160622,"54":0.05339688039580982,"55":-0.20431637108357303,"56":-0.07662945219425639,"57":-0.08507026827914557,"58":0.031092579360680793,"59":-0.1828147315839298,"60":-0.22146194546946302,"61":-0.3748717750187702,"62":-0.02798246559788048,"63":-0.27821939019573566,"64":0.23100544113851348,"65":0.3413023198746836,"66":0.26771971427988583,"67":0.2118135003924536,"68":-0.0637988713248645,"69":0.18254718027798808,"70":0.14230542941944896,"71":-0.10055379243013991,"72":0.04884403720939228,"73":-0.29129752507094314,"74":-0.3189702999994071,"75":-0.332845653073147,"76":-0.15253689591801142,"77":-0.3944947367878012,"78":-0.1965360783726095,"79":-0.06430045562891538,"80":0.30749842105202374,"81":0.21796515412852743,"82":0.1220451204316067,"83":0.058900986752532546,"84":0.146261221300474,"85":0.1859312320809631,"86":0.08319152490935058,"87":0.04551924922410531,"88":-0.13193978234329287,"89":-0.14358007210355592,"90":-0.006472988163529561,"91":0.009362952227527834,"92":-0.2206883118459146,"93":-0.008178876204350764,"94":-0.1019398254395132,"95":0.02935256458259641,"96":-0.06835499296796405,"97":0.1812021593234749,"98":-0.0031749635059639407,"99":-0.11868625523484196,"100":0.138816471673215,"101":-0.19142578576724928,"102":-0.10055433681766347,"103":-0.0366032929356915,"104":-0.1983998201347404,"105":0.08059209968839123,"106":-0.171778463307343,"107":-0.188371302870318,"108":-0.1906263856115629,"109":0.09574127599696249,"110":0.1443639514407641,"111":0.008016107150243427,"112":0.12425853187716016,"113":0.019142957259245127,"114":-0.026366960333940568,"115":-0.01162867252896979,"116":0.10768425196869212,"117":-0.1569731155360658,"118":-0.06883795848574581,"119":-0.13631656136634437,"120":-0.10266682235902065,"121":0.12343327775430095,"122":-0.0019592117666562656,"123":-0.17324552464719295,"124":-0.08017699855384847,"125":0.16062367171228736,"126":0.2331091932034025,"127":-0.010190910821872103,"128":-0.05535420969565308,"129":-0.07034924778345095,"130":-0.11189311505301895,"131":-0.18176406967827455,"132":0.09230370026251977,"133":-0.1062487194057599,"134":0.054050794388905754,"135":-0.08318167691048875,"136":-0.22948921197621433,"137":0.012069970890367447,"138":-0.047850351027169676,"139":-0.10935826150290731,"140":0.12278211757203575,"141":-0.24851526754538528,"142":0.08107772538848412,"143":0.23940932156724853,"144":0.15918997100466165,"145":-0.029616583608867333,"146":-0.07070795497783912,"147":-0.05448367518566553,"148":-0.08046965411551758,"149":0.03235533629081255,"150":-0.03951370573683504,"151":-0.12325917297871888,"152":0.06551781129721838,"153":-0.05720769628423569,"154":-0.18971879266865285,"155":0.1385799226166982,"156":-0.11494430993179951,"157":0.0009016408383905403,"158":-0.02950748514885186,"159":-0.02986146354133301,"160":-0.20038485747435783,"161":0.09369560609861949,"162":-0.134836994785638,"163":-0.09175484468865273,"164":-0.25566026728463653,"165":-0.06604888320107738,"166":-0.048819716831028044,"167":-0.1035759123206743,"168":0.014057418144809364,"169":-0.010527356155706656,"170":-0.05235703651911479,"171":0.09818231564574793,"172":-0.10170202061722164,"173":-0.032222287677673975,"174":0.17409930601249676,"175":-0.14982806384972105,"176":-0.11883469927267708,"177":-0.12781780757657774,"178":-0.26135202217993303,"179":0.029366050512175803,"180":-0.028227735833924152,"181":-0.14047237856443362,"182":-0.16935778320233588,"183":0.07586452009980366,"184":-0.24832662715248685,"185":-0.06818162193573486,"186":-0.0015940894334875199,"187":0.10340492834377613,"188":-0.17311095535763196,"189":-0.0874271440858694,"190":-0.054756153310430676,"191":0.1403549259192206,"192":0.13666280701845898,"193":-0.04090825469775377,"194":-0.2386108036826353,"195":0.015929436936792718,"196":-0.021608500362150448,"197":-0.12253967180329002,"198":-0.2571176621035583,"199":-0.1255332741477863,"200":0.16219550347047065,"201":0.002977099847250456,"202":0.016427712822902223,"203":-0.09604483704891775,"204":0.07259904379659568,"205":-0.021884368812317662,"206":0.10327408234995826,"207":-0.010391155045836474,"208":-0.18934211280075175,"209":-0.1806229436809234,"210":0.09325277328935501,"211":0.14862033561772767,"212":-0.042307032035242775,"213":0.042643953312945224,"214":-0.05575804243782727,"215":-0.06338245811165731,"216":0.12141594410415814,"217":-0.13183096555229482,"218":-0.16015713169646503,"219":-0.04970883140311415,"220":0.0719024842919198,"221":0.05958781485052651,"222":-0.14358104345113396,"223":0.04576664363711743,"224":-0.02863960744032192,"225":0.2307203238025865,"226":0.015235948076684493,"227":0.13548384041908404,"228":0.051385887909697475,"229":-0.15774045725677557,"230":-0.06796654986636128,"231":0.04013968657030574,"232":0.0389163219225617,"233":-0.04390318222736109,"234":-0.22036700273746732,"235":0.0057518619957543675,"236":0.07197202960474573,"237":-0.1760269985203352,"238":-0.1481715502791292,"239":-0.20881423823697245,"240":-0.08536204053043503,"241":0.22920296383956873,"242":-0.00017191887530466652,"243":0.12145191454236745,"244":-0.1892954829228272,"245":-0.16798234596938633,"246":0.0018609435036180298,"247":-0.07306415776654414,"248":0.1788704760109764,"249":-0.006974665324344574,"250":-0.07890150241833019,"251":-0.00885663084573245,"252":0.05822896719447282,"253":-0.14368663825974193,"254":-0.004052860171468021,"255":0.06245870176352044}},"9":{"bias":-0.1438698992966911,"weights":{"0":-0.004048106531212313,"1":-0.1327873013185773,"2":-0.4462370917796774,"3":-0.045153150369610706,"4":-0.0547818094221768,"5":-0.20865020696557368,"6":-0.04670904227046364,"7":-0.41368060095264986,"8":-0.3083091431869727,"9":-0.17229316261008165,"10":-0.22754409305667034,"11":-0.10134646070795851,"12":-0.3831898149467788,"13":0.03161849264901516,"14":-0.0726484382322077,"15":-0.19468587734999654,"16":0.0171563601798419,"17":-0.25230740373127575,"18":0.014679801506861628,"19":-0.05868415978253879,"20":-0.20923828448505138,"21":-0.27503850466288915,"22":-0.31952590187836916,"23":-0.14082674131608794,"24":-0.29648839942670074,"25":-0.24245037561661953,"26":0.08256922016692106,"27":-0.018705448055857075,"28":-0.25114621965497247,"29":-0.13997434343405007,"30":-0.1490361534861416,"31":0.28022789290211786,"32":-0.24031972205893587,"33":-0.2178674062851239,"34":0.09508106477009126,"35":-0.22027931325801176,"36":0.13990922004019032,"37":0.01662951702813549,"38":-0.11562763124344229,"39":-0.1161128186684929,"40":0.01674325233034702,"41":-0.3715716552700901,"42":-0.18760366214428423,"43":-0.22462363422892384,"44":-0.2347079704908308,"45":-0.261842292924669,"46":-0.22788734856668738,"47":-0.02666133593175136,"48":0.09374384886277384,"49":-0.08865923593417126,"50":-0.044413972833979055,"51":-0.11826984623018177,"52":0.1184142610079866,"53":0.133787221683524,"54":-0.19168693419082625,"55":-0.0032872958717116104,"56":-0.162034377387571,"57":-0.20354231933861414,"58":0.028160342332155933,"59":0.07886636403052631,"60":-0.3098721986413473,"61":-0.06865376163596586,"62":0.03592570171223138,"63":0.18804012190238456,"64":0.06200170571473249,"65":0.18777793019272807,"66":0.10735801633505558,"67":0.03799204371191893,"68":0.10442917348103749,"69":-0.008408154384757833,"70":0.0800449049886437,"71":0.19128181388245794,"72":0.18350012804448085,"73":-0.017556382746109555,"74":-0.00065033843833341,"75":-0.005237277913130559,"76":-0.14469563872061691,"77":-0.002579783297048571,"78":-0.010437615066633123,"79":-0.151330437660474,"80":0.10085238558852583,"81":-0.15478353254609742,"82":-0.01835930550625856,"83":0.12504645744913848,"84":0.13542454397012554,"85":0.19709158995462614,"86":0.2604351868602769,"87":0.11866396877095316,"88":-0.05285907854411119,"89":-0.019759687047959405,"90":0.1814975234078799,"91":-0.03764911062289181,"92":0.2614731185002604,"93":-0.06819136233249885,"94":0.12841155449063776,"95":-0.08293996651949422,"96":0.11153615122048913,"97":-0.2065206442326147,"98":-0.17972223432157697,"99":0.1706479887642042,"100":0.21034153699790745,"101":0.21004396587948637,"102":0.1803696198420321,"103":0.24945621988782415,"104":0.04224437795482798,"105":-0.25972885575585436,"106":-0.06429022276587794,"107":0.015441217513214374,"108":0.15307956836133618,"109":0.06880815794412853,"110":-0.22363005841687542,"111":-0.11061712987188581,"112":0.21998237846813243,"113":0.31574778170905354,"114":-0.06483823241673592,"115":-0.19418669393006618,"116":0.021958368116576543,"117":0.11849185202557093,"118":0.20361048062608503,"119":-0.07890913244434475,"120":0.20230176713241668,"121":0.07271251039719497,"122":-0.01906528174869863,"123":0.20674792666140096,"124":0.19147300150135527,"125":0.10357587353617156,"126":-0.1298240425350316,"127":-0.32304674786288107,"128":0.26450316001399243,"129":0.3739814348419091,"130":0.21769270966977272,"131":-0.04463314907307382,"132":0.16160808109058078,"133":0.08000830550633611,"134":0.10526592234085436,"135":0.09577911627260809,"136":0.03635075444431357,"137":0.07411178960117053,"138":0.14208161785654636,"139":0.10332961106429517,"140":-0.13830393354181128,"141":0.11885534183634995,"142":-0.16779602884746025,"143":0.09711249494539913,"144":0.30844447682338966,"145":0.30551526825570235,"146":0.14591741960826882,"147":0.05560522836607955,"148":0.25704913049938705,"149":0.0925968791883833,"150":0.03456670420488207,"151":-0.03920005985257418,"152":0.18965778519160786,"153":0.020804959470739067,"154":-0.08824469220401934,"155":0.0022126833623366915,"156":0.16535346739955759,"157":0.06349692590402897,"158":-0.29411004630976995,"159":-0.20469599401964808,"160":0.05761316128598611,"161":0.47211580406644904,"162":0.28501929943548193,"163":0.26146126696898747,"164":0.03661752072024933,"165":0.2680395869815319,"166":0.06377880749307246,"167":-0.0009299781637253496,"168":0.3416229943237766,"169":0.07342812442503562,"170":0.15265392848957893,"171":0.12363010102755316,"172":0.0249286796220374,"173":0.13599060968059254,"174":-0.1775947821390784,"175":-0.16431127697524023,"176":0.11925982136102024,"177":0.32311669856064296,"178":0.01542199127874856,"179":0.20068704043084779,"180":0.10671046764815201,"181":0.045717129346495404,"182":0.03442252256453918,"183":0.22479706793350895,"184":0.07480378074652042,"185":0.024883860094065548,"186":-0.04640749719886341,"187":0.10426978542318345,"188":0.04756528181005243,"189":-0.09222012967856985,"190":0.04341636444684592,"191":0.04947762698236434,"192":0.15153428336771035,"193":0.12300524883839227,"194":0.2023554234837182,"195":0.2700863244992274,"196":0.32339678935450406,"197":-0.01675241952775027,"198":0.1330407806394744,"199":0.18273521611497476,"200":-0.04365030409817271,"201":-0.18260676868536685,"202":0.11436437448675255,"203":0.027055327516686697,"204":-0.2010358028508303,"205":0.012070965854424501,"206":-0.09956024426888822,"207":-0.08136189591987618,"208":0.2486510012353349,"209":-0.14955179562801882,"210":0.2456880878300595,"211":0.09955789465555316,"212":-0.09873485729982946,"213":-0.2246940935086509,"214":0.1437179644138203,"215":0.07322404501620229,"216":-0.04529160682417625,"217":0.21317028391934764,"218":-0.056743097961753,"219":-0.05831621140696971,"220":0.002964797531543277,"221":0.1352767899251365,"222":-0.12020602624259255,"223":0.13931073061369498,"224":-0.1498723906593723,"225":-0.1139988273393792,"226":-0.03988018062124448,"227":-0.16627075242097417,"228":-0.02838584093546606,"229":-0.0564073307573216,"230":0.20694612803744686,"231":-0.2025280689186335,"232":-0.06418994044070975,"233":-0.04347317521826551,"234":0.060917210863346394,"235":-0.1479945597268007,"236":-0.07716605087010268,"237":-0.0575658392530592,"238":0.15565740993390256,"239":-0.027499732747620506,"240":-0.05823674385224926,"241":0.123352323539542,"242":-0.2461717270944915,"243":0.2162802159297971,"244":0.11881742105680121,"245":0.17997138796633372,"246":-0.06801263463291549,"247":0.08743390932973646,"248":0.042558061401898634,"249":-0.24913391086312756,"250":0.09521900141365434,"251":0.030991474084190777,"252":0.05734934316707765,"253":0.2266649033472941,"254":-0.0017261078808789515,"255":-0.1167471102579871}},"10":{"bias":-0.20749924779432558,"weights":{"0":-0.4081243238437974,"1":-0.4210831825880048,"2":-0.31710963831628614,"3":-0.35274694136274964,"4":-0.394304220226376,"5":-0.20442288229398592,"6":-0.1877758581050318,"7":-0.3346579699711239,"8":0.0916681102591077,"9":0.05360276029580201,"10":0.10330099806117127,"11":-0.00610241047574182,"12":-0.2124411312796848,"13":0.07452785720790568,"14":0.02449488672047267,"15":-0.026792194199691918,"16":-0.14042697769507703,"17":-0.22965441336521034,"18":0.16255318873648056,"19":-0.2719991601200368,"20":-0.20072534667685626,"21":-0.13631765627498016,"22":-0.2295010080392585,"23":-0.17398224360193212,"24":0.01655715447218656,"25":-0.058735249737705685,"26":0.13075023281259665,"27":0.24089215416670343,"28":-0.24899963737864997,"29":-0.1157854300062364,"30":-0.13489001357317368,"31":0.10990393087168195,"32":0.03390682484566227,"33":-0.10867822097817663,"34":0.05082189505655138,"35":-0.06444775951410071,"36":-0.11518013834884924,"37":0.31311479972978157,"38":0.29421162370009557,"39":0.15701545298681824,"40":-0.27248879737272463,"41":-0.2391409320301569,"42":0.1320863117104321,"43":-0.0813209044673633,"44":-0.010222907228748853,"45":-0.0012690924511536367,"46":-0.1959974461131394,"47":0.020285387201508062,"48":0.10271808841837282,"49":0.3168114717682025,"50":0.11075153113633829,"51":0.14646715150313866,"52":0.1499627932852317,"53":0.10768080480476681,"54":0.02516725570107064,"55":-0.30650321954845977,"56":-0.31477274925083676,"57":-0.17437199992503985,"58":-0.13385065627235654,"59":-0.04071869940786602,"60":-0.1786106994388356,"61":-0.0009118671737853058,"62":-0.028202939518840647,"63":-0.1329505343374205,"64":0.3786480046088047,"65":0.43975797390428073,"66":0.47734497264353676,"67":0.05091708095261198,"68":0.33315934397522334,"69":0.2509178420224507,"70":0.11240900880606655,"71":0.18893072374341313,"72":0.10697808321698862,"73":0.01525741224430932,"74":-0.028586912055547087,"75":0.03173708897407677,"76":0.11997310393863347,"77":0.12761063971173453,"78":0.0050377912193518915,"79":0.28084084294429296,"80":0.5249539028470582,"81":0.32986373680808534,"82":0.2711272826929551,"83":0.24739251184768316,"84":0.35689647547048,"85":0.009155128288942828,"86":0.040743516404993546,"87":0.07180208699142808,"88":0.06928837626557152,"89":-0.07803755674096947,"90":-0.21723687592540164,"91":-0.07785351966533678,"92":-0.08403929971353427,"93":0.22008629862152715,"94":0.3171118210897612,"95":0.20148324907109522,"96":0.4864386071343221,"97":0.1480875974947721,"98":-0.04004116166028277,"99":0.13979642031591427,"100":0.1660238117473612,"101":0.07233384568256399,"102":0.1710926102697874,"103":0.006871755331236036,"104":0.0032488836477513757,"105":-0.08815061737063432,"106":0.050593598774777385,"107":-0.09420678953841737,"108":-0.1540517183881527,"109":0.28275201652372267,"110":0.07867729295979597,"111":0.287050924588107,"112":0.04188639468202834,"113":0.10939304808096799,"114":0.03172730364620018,"115":-0.0248276736936677,"116":0.11605037414215268,"117":-0.030730713692140255,"118":-0.13592731405630795,"119":-0.014561337400846894,"120":-0.07060203537263925,"121":-0.19108777446198197,"122":0.15089159490742549,"123":0.042074033296680385,"124":-0.2539052410713068,"125":-0.024069147821781732,"126":-0.0524887136438622,"127":-0.24328122053091783,"128":-0.12369534098804241,"129":0.35168973324152514,"130":-0.15192360470448968,"131":0.07611341613419863,"132":0.08688742177908627,"133":0.03940442780565192,"134":-0.005749320648204648,"135":-0.17723021385742074,"136":0.03048422880141012,"137":-0.12460351864589714,"138":0.004505307196060442,"139":-0.37505549870834115,"140":-0.3412848213660276,"141":-0.15429442320530123,"142":-0.13677131097932665,"143":-0.04252715493603617,"144":0.16160311715801534,"145":0.2261053290977518,"146":0.17610878669708782,"147":-0.08146167438987972,"148":0.19689442449658992,"149":0.08786834776932335,"150":0.007955037076525291,"151":-0.04169560463277461,"152":0.03353110956566161,"153":-0.11963419722355417,"154":0.05960327479708615,"155":-0.15717033771434766,"156":0.23572848160295906,"157":-0.2954223403235944,"158":-0.16503632442266541,"159":-0.2763215585086869,"160":0.23178335907939102,"161":0.4530302992060359,"162":0.10732627578582114,"163":0.048475004962268996,"164":0.0214547390362805,"165":0.09042321519708907,"166":0.2887431259278679,"167":-0.09153535084917995,"168":-0.1321109362738806,"169":-0.10674888807666504,"170":-0.026641772616277228,"171":0.09925274335297804,"172":-0.17287189385368318,"173":-0.029499806048588557,"174":-0.19686230208423738,"175":0.03159988302764197,"176":0.07137185918663881,"177":0.1002295055632055,"178":0.20193391335027291,"179":0.0716762214492979,"180":0.13640734758515866,"181":-0.011807342037730617,"182":0.24208735273271387,"183":0.10102432010390852,"184":0.29741476185675964,"185":-0.08468050796456432,"186":-0.13647744954828644,"187":-0.18360112149519506,"188":0.07685325035317642,"189":0.08796466433773645,"190":-0.10053745973210694,"191":-0.2801371738872298,"192":0.1884126206758632,"193":0.1462942858357171,"194":0.10583121595028486,"195":0.141617553906594,"196":0.3000467120261244,"197":0.24422959674453032,"198":0.19011926601371595,"199":0.03925168116998076,"200":0.0235933823510532,"201":0.1483278839458791,"202":-0.053824926062946005,"203":0.053381474116772805,"204":0.2704984539765514,"205":0.2247700310652038,"206":0.07724573778623485,"207":0.2998249742237281,"208":0.0700504836007874,"209":-0.10033425814585964,"210":0.054766896723308416,"211":0.17108755540654208,"212":0.09728910279159195,"213":0.08852603142720196,"214":0.011489195239380762,"215":0.11008863552729517,"216":0.27634178401727866,"217":0.27912260267990174,"218":0.27221570842057513,"219":0.3143726665186274,"220":-0.0630653234802906,"221":0.18667338011171028,"222":-0.15772348414798912,"223":-0.10525107638545243,"224":0.16781604890159826,"225":0.14713428187478353,"226":0.16990051749282467,"227":0.11831497282801781,"228":-0.08632142337860346,"229":-0.13741104682394809,"230":0.29742452439061284,"231":-0.05537477356496818,"232":0.021432161140276924,"233":0.17338482393742174,"234":0.06097759993511547,"235":0.14022056210321224,"236":0.16822147371536728,"237":-0.003155834638887249,"238":0.2123710284536085,"239":0.16708406128300154,"240":-0.18710434846520682,"241":0.006919224490941898,"242":-0.1631924864897112,"243":-0.019309996387749228,"244":0.27757492451309007,"245":0.29881235731080796,"246":0.1969582133180822,"247":0.08929996631354443,"248":-0.05425302458131014,"249":0.10763374851332841,"250":0.0852406043358822,"251":0.31708817310575704,"252":0.011166055248664729,"253":0.26846509200674956,"254":-0.024846564735977128,"255":-0.08613085506745406}},"11":{"bias":-0.09005436956336534,"weights":{"0":-0.12110263776322518,"1":-0.11467893030499254,"2":-0.21258537107674147,"3":-0.06901112556354168,"4":-0.13230261075740496,"5":-0.17360824890499005,"6":0.148090146023366,"7":-0.20645271802100823,"8":-0.06841906076662373,"9":-0.3564927076157338,"10":-0.23313776318687268,"11":-0.2006835137433,"12":-0.04423640329917325,"13":0.07058440224167141,"14":-0.22959199463058094,"15":-0.1645945515294009,"16":-0.0868819190302928,"17":-0.14814921493358027,"18":0.05002544037797715,"19":-0.2230531404243261,"20":0.15337739721750884,"21":0.12346030069460089,"22":0.0457061036973509,"23":0.05091067557976231,"24":0.06456028310582473,"25":-0.11802440489295754,"26":0.04864938868172496,"27":0.06383029321546366,"28":-0.05225982979505594,"29":0.07723164383923692,"30":-0.0011285608814379283,"31":0.03436897910154938,"32":0.007332489133019487,"33":-0.17841319698373626,"34":-0.051040690425197925,"35":0.06510987475856905,"36":0.16752451259752016,"37":-0.1079176581348423,"38":-0.10182349204893767,"39":0.19054508763720096,"40":0.1978949052832368,"41":0.15106796688319318,"42":0.026275463740798265,"43":0.07406489214823579,"44":-0.23016417482983978,"45":-0.22166709302499008,"46":0.09246051311874197,"47":-0.12661518560186913,"48":0.1156461241838455,"49":0.1539816127478312,"50":0.1027222223146942,"51":0.01650492183331705,"52":-0.04129408309652794,"53":-0.11066128852873387,"54":-0.1310160905853712,"55":-0.1036534117831364,"56":-0.22593672599644327,"57":0.27667498755591746,"58":-0.11460421899874831,"59":0.1004354576883443,"60":-0.1781562872359116,"61":0.08189254787987152,"62":-0.15856890962533332,"63":-0.16065639447005547,"64":-0.07828535121095635,"65":-0.014365317446431337,"66":0.020215250534652018,"67":-0.047491873992151365,"68":-0.09025712374096102,"69":0.04739048406842373,"70":0.09174225166649799,"71":0.13184168037924182,"72":0.021108708408500806,"73":0.0026990960453913337,"74":-0.30764391183766154,"75":-0.12565032466402318,"76":-0.28510193915501625,"77":-0.14989944842484706,"78":0.0856781471669171,"79":-0.1708615130381103,"80":0.25979818561575,"81":0.2172473303014122,"82":-0.1761276320251762,"83":0.06023041194492465,"84":0.0012637267852981299,"85":0.06905053346593701,"86":-0.2078128089445401,"87":0.10496686186316287,"88":0.0712075216331031,"89":-0.18885442501719676,"90":-0.10561294018915376,"91":-0.19432654424375126,"92":-0.2061613743644818,"93":-0.1000333046937656,"94":0.0375505319489047,"95":0.06490401331658013,"96":0.28420462280164166,"97":0.0836704757849849,"98":-0.06451594523795655,"99":0.22065185237115556,"100":-0.0050101304106868125,"101":0.08007783440594099,"102":-0.026500412474052437,"103":-0.23445431518317691,"104":-0.031772140132028316,"105":-0.21725324402838875,"106":0.11149951936236996,"107":-0.28786332825608296,"108":0.1544797607500529,"109":0.1227487950078046,"110":0.2852774342448289,"111":-0.0716068669215745,"112":0.15582628942710133,"113":0.3385441543101,"114":0.16158387829749513,"115":0.13076627095847304,"116":0.1505233454320836,"117":-0.11143080859785096,"118":-0.03724204060590099,"119":0.1518175673341437,"120":0.1875665576743518,"121":0.13927939812745463,"122":-0.21074490429928627,"123":-0.14160594423130785,"124":-0.06111010160264114,"125":0.2385885962815206,"126":-0.0813803335813086,"127":0.09064360353836617,"128":-0.08828696862425593,"129":-0.08761552551798657,"130":0.18398758891175673,"131":0.17710745262432234,"132":-0.004895830624335385,"133":0.10166360145353781,"134":0.03649381081385378,"135":-0.22517219374139602,"136":-0.20569037862300538,"137":0.09530653669547938,"138":-0.23002924767629698,"139":0.07227048155669724,"140":-0.018765317790911458,"141":0.2507633998845769,"142":0.02659910031486129,"143":-0.019810143133241184,"144":0.012419709948185352,"145":0.04020628485357551,"146":-0.06776928086679018,"147":-0.029580302095866345,"148":0.2117997463105629,"149":0.17556924836051954,"150":-0.023591742486287575,"151":-0.05006065645790467,"152":-0.21438123600964706,"153":-0.11845591236394595,"154":-0.030729787124261713,"155":0.14277546203009525,"156":0.15879429908627737,"157":0.19625667773714328,"158":0.033248121138430065,"159":-0.17023961020720216,"160":0.11151912094945828,"161":-0.006413131660359596,"162":0.05593957534023075,"163":0.03571385403032956,"164":0.05923865123603719,"165":0.09797590803506644,"166":0.20890370955989454,"167":-0.11314426666131744,"168":-0.00853186337673331,"169":0.2616811042285346,"170":0.15601768611474048,"171":0.04646702463007777,"172":-0.011329822047860984,"173":-0.007448062290213412,"174":0.21444997132962962,"175":0.12508597624736148,"176":0.021950778160785576,"177":-0.007096031125806803,"178":0.04674261841450414,"179":-0.031987208510599746,"180":-0.13088918271031602,"181":0.2120948763025381,"182":-0.12280741900906332,"183":0.186113248514326,"184":0.0835685493650727,"185":-0.05342485220454345,"186":-0.0030724355139245146,"187":0.11138263027400735,"188":0.13355847290651873,"189":-0.08466128378906086,"190":0.021866448969978684,"191":-0.017758251666746213,"192":-0.19146182219805954,"193":0.11116739446779779,"194":-0.07868100609059435,"195":0.15806664903778803,"196":-0.14470658268319297,"197":0.18142796428731517,"198":0.14563857843327663,"199":-0.17503137328042545,"200":0.025483716690200678,"201":-0.08197273841358985,"202":0.1917601181049804,"203":-0.105610029842705,"204":-0.06605876962592226,"205":-0.18655337524935636,"206":-0.10518474486506445,"207":0.13972089519327982,"208":0.04516014501587889,"209":0.07728649321052598,"210":-0.060575082393058206,"211":-0.05317296027311954,"212":0.10054315164540402,"213":0.03958492771211039,"214":-0.020761304259299323,"215":-0.06180574294140819,"216":-0.11260936810023524,"217":-0.13936860672503767,"218":-0.10182708728128304,"219":0.030625670986573525,"220":-0.09911373260281944,"221":-0.166411354131695,"222":-0.1582819434845503,"223":0.0199710889544329,"224":-0.15690609553616694,"225":-0.12236362796566011,"226":-0.016863072836617383,"227":-0.04287445979460441,"228":-0.2554255651480741,"229":0.14671464909420162,"230":0.04365432125520999,"231":-0.25594483278605035,"232":0.07808089311854349,"233":-0.13030996299249115,"234":-0.24689961862555415,"235":-0.1070979779864,"236":0.03359086695762723,"237":-0.15171227969309287,"238":0.00410074419428044,"239":-0.21227763100013125,"240":0.04071331225513026,"241":-0.038651928266501184,"242":-0.19725840562217944,"243":-0.18368396695265016,"244":-0.19506223110478016,"245":-0.18374549139089152,"246":-0.029429377154537185,"247":-0.05489812190877549,"248":0.07065587226843474,"249":-0.038879313526042986,"250":-0.1828511520837489,"251":-0.1512016733963145,"252":-0.12697817690187949,"253":0.012004639599187942,"254":0.16437056031037603,"255":0.18374069961286602}},"12":{"bias":-0.018779558696525936,"weights":{"0":0.14235031360544365,"1":-0.04985204145686614,"2":-0.07292854717889133,"3":0.06564901118434029,"4":0.021964060603802404,"5":0.09756209534543127,"6":0.065181194169083,"7":-0.20948447159818046,"8":-0.2105623602330023,"9":-0.0331767044204327,"10":-0.25920122637176474,"11":-0.2709590779665373,"12":0.022807325346100103,"13":-0.1131907260380078,"14":0.0844785921857361,"15":0.06045048503556466,"16":0.06492667290827349,"17":-0.16427604835346452,"18":-0.12310979217003556,"19":-0.17906768933501419,"20":-0.0239984306388104,"21":0.16887957238995968,"22":-0.2709959696347192,"23":0.014645587271269942,"24":0.07512166112129419,"25":-0.24008876062249596,"26":-0.2480553298456698,"27":0.014512620111946657,"28":-0.21784702507068035,"29":-0.10392052542096152,"30":-0.21510961484051627,"31":0.11112106303574591,"32":0.07252115237253891,"33":-0.09315819301830383,"34":0.17534511433913946,"35":0.12885977063230414,"36":-0.14101938630330194,"37":-0.10358568063960698,"38":0.0889510906350127,"39":-0.10319779471018832,"40":0.08212226831730209,"41":-0.1156958818937052,"42":0.1984720994232378,"43":0.005580791964708211,"44":0.048719820076151284,"45":-0.13020587141896764,"46":-0.17808050118818844,"47":-0.20461686274157415,"48":0.1184948390303398,"49":0.24722720080265545,"50":-0.022335838900108703,"51":-0.12535032526751103,"52":-0.20522844083137207,"53":-0.25067485894615665,"54":-0.0775536803441064,"55":-0.2101797494997531,"56":-0.041547576618634445,"57":-0.04324301008413732,"58":0.06204637460709333,"59":-0.15221348671134727,"60":0.13606228400317477,"61":0.007330393208282609,"62":-0.2619848647396671,"63":-0.2587558313760473,"64":-0.040422104585377004,"65":0.09541679660653143,"66":0.09357666657667382,"67":-0.002849222146852565,"68":-0.05007180875573708,"69":-0.2040916509328097,"70":-0.11794277036192592,"71":-0.023314680543435357,"72":0.10107070087011862,"73":-0.13330526263633535,"74":-0.30963984374566833,"75":-0.07058969243072201,"76":-0.08271810186943676,"77":0.12568362702980362,"78":-0.001497709335851474,"79":-0.17141034158499288,"80":0.13208589448603705,"81":0.12012780275315758,"82":-0.19109579276005684,"83":-0.13765578560343822,"84":-0.023221713115970582,"85":-0.10604298371235135,"86":-0.07558515110217816,"87":0.0442656715674833,"88":-0.2803788863758201,"89":-0.19830045592855067,"90":-0.2223549591244315,"91":-0.31851315270878844,"92":-0.09665165833150581,"93":0.14128547562523558,"94":-0.11713420376345236,"95":0.029441176124147005,"96":0.04594493993671471,"97":0.3869819816826339,"98":-0.06217037388118288,"99":0.09181305413918243,"100":0.183850954998256,"101":-0.17771808437732833,"102":0.066620089858295,"103":0.09479205218378156,"104":0.12593054593270375,"105":0.10484952795752973,"106":-0.0722113102306499,"107":-0.23924684127197338,"108":-0.27915898298126013,"109":-0.11838757420131886,"110":0.2922391112746797,"111":0.22045975713202143,"112":0.3509828416706268,"113":0.19478134526419988,"114":0.22789238285971813,"115":-0.07642100637455762,"116":-0.020219599416474974,"117":0.20790963196889786,"118":0.0005558366308892562,"119":0.009655314562383548,"120":0.214017938378526,"121":-0.07920850551252476,"122":-0.07502584221505748,"123":-0.10897539562790085,"124":-0.13191952710174124,"125":0.05831315349637496,"126":-0.014557338323986707,"127":0.006429189594719248,"128":0.08534455758281637,"129":0.24179225556535883,"130":0.04986225250493401,"131":-0.09494944749270585,"132":-0.04841224720725834,"133":-0.08464037095384083,"134":-0.1903954281906806,"135":-0.19086672278336267,"136":-0.13965179924305396,"137":0.0721807123007686,"138":-0.20566460242510556,"139":0.09108815282369345,"140":0.04351811529772427,"141":0.24384715260334122,"142":-0.0020119943671711303,"143":-0.11095596750412869,"144":0.08085746943241706,"145":0.17027764986544958,"146":-0.04830321008617384,"147":0.12182111042636924,"148":-0.20824485867847067,"149":-0.11418940683963145,"150":-0.05644048990257422,"151":-0.08297016989315513,"152":-0.12059675643960183,"153":-0.18032868439438918,"154":0.22216440480092123,"155":0.11175358795491251,"156":0.262606327812773,"157":-0.1749471018499844,"158":-0.048573238415008255,"159":-0.08838687004334105,"160":-0.07250582218835902,"161":-0.06870196104242943,"162":0.10641710161861546,"163":-0.07482318981131426,"164":-0.03250300983298831,"165":0.10658338163974093,"166":-0.2154614201967266,"167":0.21438910000941885,"168":0.18654448249323272,"169":-0.0032887410999648614,"170":0.21474950023729428,"171":0.15637337892094755,"172":0.2484523769975464,"173":-0.03478281762689393,"174":0.10636616724221998,"175":0.3545260135358028,"176":0.07501231971243076,"177":0.04596418633893022,"178":0.1301679488916389,"179":-0.20440158447985163,"180":0.1952129227806963,"181":-0.0006399990864971927,"182":0.15660594831919275,"183":0.026242219183057608,"184":0.015816215724093072,"185":0.11043355955573761,"186":0.25478481905602973,"187":0.12736830867013707,"188":-0.017558411342971824,"189":-0.016672058389803353,"190":0.16844441942264773,"191":-0.08985835540209651,"192":0.13229615759786648,"193":0.044106435911390456,"194":-0.2307573464461175,"195":-0.07381845504212081,"196":0.2557225358157781,"197":0.29618272948726165,"198":-0.11112822741935449,"199":0.1808257451711197,"200":-0.03549072556006445,"201":0.15502333161277276,"202":0.09922338795483727,"203":0.20012594904743927,"204":0.008724746073673115,"205":0.07264292586383186,"206":-0.11434236837350498,"207":-0.15114484795663974,"208":-0.17247031587688924,"209":-0.09976419200647195,"210":-0.24525988611230964,"211":-0.12753864778742247,"212":0.048237246920782274,"213":0.08225558066320293,"214":0.20817478105859738,"215":0.011542103366105136,"216":0.12960037128383148,"217":0.05291589167193196,"218":0.05633988420546896,"219":-0.07419309820709813,"220":0.2076268915414188,"221":0.11916927509540473,"222":0.016106491781931787,"223":-0.017497542944578826,"224":0.006661917595307002,"225":-0.1937830105771764,"226":-0.2631542604726302,"227":-0.3085750756624008,"228":-0.08330299397196834,"229":-0.22082862108215387,"230":0.009487774404721306,"231":-0.33925824168666796,"232":-0.011577560880259184,"233":-0.09131313406234338,"234":-0.035275128996660264,"235":-0.08546558480595935,"236":0.2155244670189889,"237":-0.15630516930809055,"238":-0.09221329058903577,"239":-0.03877267734946061,"240":0.04984591096457673,"241":-0.05661722773626264,"242":-0.1455489030359068,"243":-0.22220480674413381,"244":-0.17513678551980316,"245":0.1867672680041944,"246":0.16789483240382388,"247":0.15307464773888016,"248":-0.17538211712235174,"249":0.08962264371808044,"250":-0.05610171020307704,"251":0.0077862235130926995,"252":0.15784465181938218,"253":-0.026791995473087832,"254":-0.22980390963053968,"255":0.13553356957008691}},"13":{"bias":0.2712665444747751,"weights":{"0":0.18423110169279372,"1":-0.02642734386118914,"2":0.05914397228503616,"3":-0.25141401239693373,"4":-0.18216855899525677,"5":-0.15496284689747106,"6":0.24089939465966134,"7":0.017394247081931928,"8":-0.04258274618661757,"9":-0.04196392757701472,"10":-0.19658992371165848,"11":-0.014677739647635461,"12":-0.25266157380519866,"13":-0.23773272607187568,"14":0.05117867679652614,"15":0.06227641919785375,"16":-0.11783407386160732,"17":-0.07989547268080027,"18":0.03994986178803987,"19":0.09797195723877838,"20":0.23762900167638995,"21":-0.12685426227142174,"22":0.12249711463607446,"23":-0.105013713982709,"24":0.2547743206133009,"25":-0.05891870806990057,"26":-0.11402611725434733,"27":-0.23198609038727883,"28":-0.04850368953334492,"29":-0.12904743644110664,"30":0.01672989936406382,"31":0.016568905619560526,"32":0.00315018681213999,"33":-0.15698234237244688,"34":-0.036029291303223736,"35":-0.08287593282519544,"36":0.061413644458531126,"37":0.0687185809339388,"38":-0.11911097001131242,"39":-0.058583046885952374,"40":-0.05317885581034974,"41":0.05250468127879258,"42":-0.08349500090763075,"43":0.15956008388339318,"44":-0.04658801821076341,"45":-0.0000727261837188183,"46":-0.10956976316083973,"47":-0.2441349804426086,"48":0.039294692508577235,"49":0.011681799801342815,"50":0.14868029467430238,"51":0.0501950910070654,"52":0.11883327849411712,"53":0.02696656295439091,"54":-0.10589153144013598,"55":-0.13044672281241323,"56":0.13837193019452695,"57":0.08118773092323636,"58":0.10348629763633675,"59":0.10548601793647024,"60":-0.001062429773060187,"61":-0.23498640817637134,"62":-0.20374703618387455,"63":-0.27950176357882284,"64":-0.20922485153613363,"65":-0.24703077092893186,"66":-0.05684287369503582,"67":0.04192916164901187,"68":-0.12034062626523277,"69":0.1376120574520842,"70":0.037941663413984236,"71":0.0422219502140641,"72":-0.044020915125177494,"73":0.0664773220865922,"74":-0.062432693943183036,"75":-0.14587825530914011,"76":-0.2923947077276424,"77":-0.20358694433133517,"78":-0.19951936358714686,"79":0.11289264449547484,"80":-0.1990429350225348,"81":-0.02879367714645472,"82":0.11419813991693988,"83":0.028051847276060034,"84":0.16566499450273256,"85":0.09310320607249153,"86":-0.10948662234023278,"87":0.1475502034826377,"88":0.2038860010856436,"89":0.05781024533183118,"90":-0.17327532080646088,"91":0.0716030071652951,"92":-0.016316656303032244,"93":-0.01106006763351391,"94":-0.23603825385586996,"95":0.004867196962440375,"96":0.06542629451064648,"97":-0.165528350707647,"98":-0.03735157708627924,"99":-0.02819642595010494,"100":-0.028716692557008493,"101":-0.1188532854977317,"102":0.12671338357449008,"103":-0.15530542642660056,"104":0.09263278795209604,"105":-0.09185917718328981,"106":-0.056567685206545544,"107":-0.06086842094295924,"108":0.0935492715728217,"109":-0.27388767065789515,"110":-0.15083569630790766,"111":-0.186909622723538,"112":0.00756823649375972,"113":-0.16531835642468592,"114":0.04743865253427672,"115":-0.147471199155477,"116":0.09235223274968869,"117":-0.12088333901219171,"118":0.17784295560392252,"119":0.21994801198546166,"120":0.0990522750116227,"121":-0.04935681246776299,"122":-0.12698609542715128,"123":-0.3384534965866617,"124":-0.10684443627898105,"125":0.2139157728858725,"126":0.09078509583911329,"127":-0.2190779863940057,"128":-0.06738651778103108,"129":0.06905102533028806,"130":0.12730093730636904,"131":0.17208935188745147,"132":0.175739060516252,"133":0.05404032276227997,"134":-0.10017288604970669,"135":0.06498184924382032,"136":-0.17941454524758674,"137":-0.036197773049999576,"138":-0.061822198126484144,"139":-0.13001047639656363,"140":-0.028595314793147537,"141":-0.1704464973417307,"142":0.11205150693615883,"143":-0.1382484638390043,"144":0.029913614922003572,"145":-0.10248118062310989,"146":-0.1101297752935814,"147":0.15283372644329443,"148":0.278208586739242,"149":-0.07836019771082081,"150":0.23105079776196022,"151":0.02657265921179225,"152":0.22551442864272248,"153":-0.08718896683476635,"154":-0.000024349203789474326,"155":-0.206040632809996,"156":0.07674812747689273,"157":0.11264017720346914,"158":-0.22994042148035562,"159":0.08590168852128331,"160":-0.09093739673496525,"161":-0.0913324443064476,"162":-0.09194458444874597,"163":-0.15318940013644966,"164":0.1411153545372798,"165":0.223312082630086,"166":-0.06874755735351343,"167":0.2524820141434812,"168":0.07234231518075948,"169":0.21476926728168613,"170":0.06693354936545776,"171":-0.058923167367480524,"172":-0.1370226652029198,"173":0.1617704536075325,"174":-0.01443254876943841,"175":-0.09903057730254809,"176":-0.12672555134228966,"177":-0.020241240293264347,"178":-0.08426915911910106,"179":0.23901000195751645,"180":0.2356337044488858,"181":-0.031218991497281783,"182":-0.10470597264056089,"183":0.17999938997782988,"184":0.14115335921150612,"185":0.17483022257911893,"186":0.16130351847869065,"187":-0.1671437102129116,"188":0.17422185332662998,"189":0.07202274004826702,"190":-0.31004808967892983,"191":-0.26961122955693145,"192":-0.14871169852254917,"193":-0.06371632227385204,"194":0.2152102306980015,"195":0.2440598380880043,"196":-0.030126751269908623,"197":-0.01072682737423147,"198":0.04985682421289941,"199":-0.19076179921818898,"200":0.21137095206833637,"201":-0.029332899273792016,"202":0.10583200152093569,"203":-0.013062134721357274,"204":0.15200501335540748,"205":0.016793527467210054,"206":-0.22895344213078184,"207":-0.08861214056250724,"208":-0.19619327504818973,"209":-0.11213235603718005,"210":-0.11748002891916065,"211":-0.04710851796190288,"212":-0.2612755615742554,"213":-0.19356950411695928,"214":0.08367888951214836,"215":0.17917351672789633,"216":-0.026554085362058426,"217":0.05021446651549032,"218":0.09287449417589945,"219":-0.06630517968336846,"220":0.03487793772859753,"221":0.024114814229141777,"222":-0.00971965914617466,"223":-0.024864492296104247,"224":-0.2708239320567014,"225":-0.17713173317041697,"226":-0.3314667009835512,"227":-0.18402083401681993,"228":-0.26353257282454456,"229":-0.08518321973046775,"230":-0.2843183612974085,"231":-0.09594272324811086,"232":-0.17002536084360106,"233":-0.2564573965747323,"234":-0.25169593253225175,"235":0.0902176566374593,"236":0.08082100447516945,"237":0.10795707610833866,"238":0.07703016989340007,"239":0.08595096086749658,"240":-0.189631126198009,"241":-0.13961703800017683,"242":0.016355323228022446,"243":-0.25275824359836263,"244":-0.19972408482861587,"245":-0.14079180297578625,"246":-0.16492393057287938,"247":0.11220726579949841,"248":-0.12199820793935721,"249":-0.19782295765697266,"250":-0.17568312279304768,"251":-0.03774050358621404,"252":-0.03846006341100262,"253":0.052065559732961605,"254":-0.03333895256439821,"255":0.18592852767468723}},"14":{"bias":0.04857009849323835,"weights":{"0":-0.07245828103502826,"1":-0.15111799166570808,"2":0.06980080727584818,"3":0.004482578965099504,"4":0.11885625054135754,"5":-0.03415125067227728,"6":0.07122985257240376,"7":-0.09508407392162893,"8":-0.21532133346606763,"9":-0.1956562067808035,"10":-0.05228509927344186,"11":-0.07180236850923111,"12":-0.02952016120564644,"13":0.03898537856811274,"14":0.2123031340743966,"15":0.23623661401213292,"16":0.008079966045381332,"17":0.042204332435619024,"18":-0.046136170947804964,"19":0.07196996913147641,"20":-0.009285971578343792,"21":0.12323573502742534,"22":-0.06517856895139733,"23":-0.09151791255470106,"24":-0.06394289224309702,"25":-0.1585647741931347,"26":-0.026466801377091786,"27":-0.02188369306099932,"28":-0.027941354079898218,"29":-0.013565840937454731,"30":-0.0004871509520741647,"31":-0.015740251781007422,"32":0.14517900139130036,"33":-0.23142442485315587,"34":-0.050713370389643866,"35":-0.024112138376463862,"36":0.04718715666074177,"37":0.03684139666575674,"38":-0.16940778459124245,"39":0.07768910919105076,"40":-0.09961905636796493,"41":-0.06684636718995918,"42":-0.013559711655474363,"43":0.04712184177259793,"44":-0.044330443067009215,"45":-0.09359368122121592,"46":-0.05487843023828716,"47":0.020880229935797346,"48":-0.04473263629040377,"49":-0.0358573540734212,"50":-0.21537145280800574,"51":-0.19811868996755616,"52":0.09847723296484621,"53":-0.11575788168149558,"54":-0.15064861661639575,"55":0.12377883118982397,"56":-0.12126529515282129,"57":-0.10226273664114988,"58":0.17521863820809988,"59":0.05278278822942135,"60":-0.15779644618982847,"61":-0.19834651378270504,"62":-0.26020337640715746,"63":-0.22430392981264063,"64":0.09128913699295575,"65":0.04949585838952508,"66":-0.11709916634990261,"67":0.14628472913227694,"68":0.1803593801455561,"69":-0.05549885220007755,"70":-0.19385079063221555,"71":-0.012017225917281243,"72":-0.007477576716197821,"73":0.016543552169641783,"74":-0.011496657316160976,"75":-0.14470381073858704,"76":-0.1409854380869605,"77":-0.25664355701996244,"78":-0.21966209935395778,"79":-0.0380524138012836,"80":-0.15927133577527566,"81":-0.24029249927516916,"82":-0.05166449043291684,"83":-0.2382144429067724,"84":0.06994818355935314,"85":0.060829959485531625,"86":0.021858492770579947,"87":-0.2704621938735664,"88":-0.17081197706627146,"89":-0.05861416717873597,"90":0.08615596302897392,"91":0.0371000340644257,"92":-0.176614999825628,"93":0.09982527027684726,"94":-0.1049343961789293,"95":0.11475837048930546,"96":-0.2115956640101249,"97":0.016485788588410058,"98":-0.20495885649160228,"99":-0.0034342792485173583,"100":0.05316577668679917,"101":-0.111179568028379,"102":-0.20551650506091923,"103":-0.0964528811551608,"104":0.043390782799388586,"105":0.007846360844394143,"106":0.0015934836549392184,"107":0.05797463466722633,"108":-0.08854042418035873,"109":0.004951921503888352,"110":-0.0721531828525891,"111":-0.19866001432840838,"112":0.020516656810868585,"113":0.0943463805678948,"114":-0.0634054028458179,"115":0.00470194342176897,"116":0.010646063312135506,"117":-0.04603406588069362,"118":0.12202585168591448,"119":-0.05410868795328448,"120":0.025283342702345373,"121":0.1480982375812656,"122":-0.10190875898353738,"123":0.04580299757995464,"124":0.11292576014958051,"125":-0.14920183877706117,"126":-0.06305865479818162,"127":0.12557824057152972,"128":-0.04518291426584083,"129":-0.16980269974066897,"130":-0.10878652484821447,"131":-0.0627162291255635,"132":-0.21829118862571364,"133":0.10748177286369012,"134":0.218929564117243,"135":0.07215091510784642,"136":-0.026004775791115566,"137":-0.058909924786162374,"138":-0.10599653569601017,"139":0.06473513048104769,"140":0.05791001355152862,"141":0.14216925176388237,"142":-0.17433981454614017,"143":0.041703495644592775,"144":-0.16991128725422622,"145":-0.04070403761363237,"146":0.014175190700489565,