{"layers":[{"0":{},"1":{},"2":{},"3":{},"4":{},"5":{},"6":{},"7":{},"8":{},"9":{},"10":{},"11":{},"12":{},"13":{},"14":{},"15":{},"16":{},"17":{},"18":{},"19":{},"20":{},"21":{},"22":{},"23":{},"24":{},"25":{},"26":{},"27":{},"28":{},"29":{},"30":{},"31":{},"32":{},"33":{},"34":{},"35":{},"36":{},"37":{},"38":{},"39":{},"40":{},"41":{},"42":{},"43":{},"44":{},"45":{},"46":{},"47":{},"48":{},"49":{},"50":{},"51":{},"52":{},"53":{},"54":{},"55":{},"56":{},"57":{},"58":{},"59":{},"60":{},"61":{},"62":{},"63":{}},{"0":{"bias":-0.1251566678072163,"weights":{"0":-0.15515147205442192,"1":0.09747765030115997,"2":-0.2586629469160213,"3":-0.06422820078841962,"4":-0.22013781097372104,"5":0.04866816057744636,"6":-0.0018098711457875975,"7":0.042556731131741826,"8":0.19010615506732786,"9":-0.17823289376996002,"10":0.24283673317667032,"11":-0.1512355519993454,"12":-0.056215380383943,"13":-0.13412860191670112,"14":0.29208820683751374,"15":0.07135157309480675,"16":0.016309719448914753,"17":-0.11023622607237825,"18":-0.45738582507422654,"19":-0.3452812030628092,"20":-0.6872772911026043,"21":-0.09131631277623661,"22":0.515948059697457,"23":0.1765340369902866,"24":0.19605066553788333,"25":-0.7167101881555263,"26":-0.7993396331080278,"27":-0.7834195865462843,"28":-0.8496908331457595,"29":-0.18401341398136925,"30":-0.15088713479736682,"31":0.06805265931172809,"32":0.07797797722741961,"33":-0.5572576048774867,"34":-0.21457690658420076,"35":-0.021377538248145454,"36":-0.5249028437855581,"37":-0.6706281499188538,"38":-0.23065520697662095,"39":0.1578166578896344,"40":-0.18302035507067493,"41":-0.28714139724443766,"42":0.5443087493475314,"43":0.47204116510700583,"44":-0.2286488980012071,"45":-0.6644953690230729,"46":-0.20441914234566666,"47":-0.04512397821821613,"48":0.03633813428211118,"49":-0.23127787767606647,"50":0.5221106177327511,"51":0.38260527813239176,"52":-0.6451799726425775,"53":-0.4264844095702175,"54":0.15615807848441035,"55":-0.017177537447556714,"56":-0.05890484517597138,"57":0.06660295521718568,"58":-0.2895862744600231,"59":-0.29089124767967567,"60":-0.5542575420334545,"61":0.18917489644438035,"62":0.31165404266462593,"63":-0.15976276185070165}},"1":{"bias":0.005813771435133019,"weights":{"0":-0.05298675112426282,"1":-0.14476903022680587,"2":0.09759619436628193,"3":0.5812173434958136,"4":-0.4225118562809696,"5":-2.221599017428689,"6":-1.5083360445373677,"7":-0.460227298595045,"8":-0.035182263166290806,"9":-0.11063796926663641,"10":1.229228949150463,"11":1.6920664225801236,"12":-1.7711210626767826,"13":-1.1697914860659977,"14":-1.1633112957878722,"15":-0.3786535512025279,"16":-0.1577584831818092,"17":0.8173134076596105,"18":5.6007867686662784,"19":3.983572975417787,"20":-0.16008751682131966,"21":1.6625134303899736,"22":0.17350690882369602,"23":-0.04259970891589226,"24":-0.11034872897618729,"25":1.1452451365151448,"26":5.107065657112744,"27":4.016255339668888,"28":0.7419341222437905,"29":1.4609704750848287,"30":0.7020830301959611,"31":0.025177384298422558,"32":0.12121137920767072,"33":0.8146080988739856,"34":1.702465853703121,"35":1.9648475954835418,"36":-0.7045337722027557,"37":0.0848221806775554,"38":0.5055326528734848,"39":0.025134516693651687,"40":0.11354243635014988,"41":0.3757631079072177,"42":2.3000890226996917,"43":1.180337531369685,"44":0.8937436132342618,"45":1.2244926479309537,"46":0.597494510900387,"47":0.042408907766642356,"48":0.15506303166913135,"49":-0.3137036152060061,"50":1.9949908482376066,"51":0.4875790370779218,"52":0.8259284585667798,"53":0.8575359359885417,"54":0.510912046447763,"55":0.03711465564093373,"56":-0.12279782312350038,"57":0.16617429609824294,"58":-0.31717998560018196,"59":0.8502695748523026,"60":2.317242924406454,"61":0.309263673460981,"62":0.3200565466747066,"63":-0.5197477492533442}},"2":{"bias":-0.34606892173373033,"weights":{"0":0.15712705412879585,"1":-0.731435750604823,"2":-6.158375928792452,"3":-7.266151051229584,"4":-5.397097601825192,"5":-4.45026190509648,"6":-2.4431023726193155,"7":0.29234714583868915,"8":-0.12085704799997109,"9":-4.237896983346469,"10":-9.697438966647528,"11":-2.5318682793857885,"12":-5.1158631884879595,"13":-5.0053250038431365,"14":-1.7921327972716135,"15":0.11458074373616395,"16":-0.2599704033783505,"17":-4.002164856755185,"18":-2.8801458238718394,"19":4.118663739863315,"20":-0.8536465092372164,"21":-5.7628897245172706,"22":-0.7413223487678644,"23":0.1049880875295939,"24":-0.09761102853813118,"25":-0.32717158441667826,"26":1.2271000295718664,"27":-0.47234169341416,"28":-0.9163902558867013,"29":-2.462361882926906,"30":0.012280403655923759,"31":0.060923836891022834,"32":-0.17996003702282906,"33":1.4744741716220435,"34":1.998759971469476,"35":1.5146796172673116,"36":3.5676293779441752,"37":1.0253500166882166,"38":-1.1776885658535257,"39":0.08984025446698068,"40":-0.1693692246132805,"41":-0.33347760771605334,"42":0.2846899748696591,"43":1.5274407466941917,"44":1.5301845730180297,"45":0.3080448939597293,"46":-0.31234250971107835,"47":-0.12542311113887497,"48":-0.18467811433401335,"49":-0.7404648709956472,"50":-3.5896945241423497,"51":-0.31919772709191324,"52":-1.7941908457129387,"53":-2.2656698028461526,"54":-1.003534322007798,"55":-0.08225657238783372,"56":-0.113746288995521,"57":-0.8807507820787688,"58":-6.883278678462471,"59":-6.403192434142827,"60":-1.073295726694748,"61":0.9614548769332038,"62":-0.5709073150033172,"63":0.2653276323034487}},"3":{"bias":-0.062177461721011476,"weights":{"0":-0.023206593468785286,"1":2.4318139438527018,"2":4.421896507768299,"3":11.761158101947446,"4":12.554475978716834,"5":23.13772950356381,"6":22.90143704759301,"7":1.8387555951608767,"8":0.16317739948463453,"9":-0.8218666566322512,"10":12.012041213582354,"11":7.374237308917144,"12":11.921245623065706,"13":7.650486661040831,"14":6.39883302073339,"15":2.0408270907279045,"16":0.0391359933351231,"17":-6.3708297338863265,"18":-7.810153732935718,"19":-11.895617700870929,"20":5.663890798133734,"21":-0.5129109773779036,"22":-9.692754009574173,"23":-0.6827016386178505,"24":-0.005722852794880316,"25":-13.712910508106221,"26":4.9406258065038635,"27":10.351655217611544,"28":17.60908114647421,"29":2.7913348113153553,"30":-5.056413187959362,"31":-0.14533487695024222,"32":0.1050316016189754,"33":-10.222770064506708,"34":-7.506802476759305,"35":1.8761165524434276,"36":0.5722444609365267,"37":17.69978599438381,"38":13.943111797917853,"39":0.19094171086326245,"40":0.18007839882487184,"41":-3.201863487510184,"42":-35.03096144425272,"43":-30.654448111984056,"44":-4.808411478221746,"45":15.472070477558239,"46":14.706302183388551,"47":-1.2251549780070359,"48":-0.07697361282704825,"49":-0.008965837433757295,"50":-24.32033765781631,"51":-18.781648157296036,"52":-26.328684055096577,"53":-14.209376587535282,"54":-8.06297714120479,"55":-5.6266901654411585,"56":0.13587494352163176,"57":1.268996765226417,"58":12.00635065427214,"59":-7.050712599988132,"60":-14.431186543440448,"61":-4.783478752694268,"62":-15.986045068287,"63":-10.243526856667586}},"4":{"bias":-0.04651303679355421,"weights":{"0":0.18617104021832348,"1":0.2943081240476601,"2":-0.0710406458337895,"3":-0.6159919508861108,"4":0.9135739673036603,"5":1.1675672223471683,"6":-0.6715357664084551,"7":-0.4860311057662186,"8":-0.08991894186465957,"9":0.08813646225958248,"10":-1.8588765358207497,"11":0.9240604722826735,"12":1.4442090369461678,"13":-0.717439005655603,"14":-1.6631958226564976,"15":-0.4683745495991964,"16":0.19090760762553388,"17":0.5079538981966191,"18":1.1167186862933207,"19":3.4323933636481527,"20":0.8133752076404606,"21":-2.2607967361900827,"22":-0.6632381048791017,"23":-0.2308751021671156,"24":-0.14256885731113375,"25":2.21151945820983,"26":2.953070715437712,"27":0.8199531982514308,"28":-0.8291561259273614,"29":0.1455538051109477,"30":0.3364556209855222,"31":-0.09244950719059791,"32":0.13896756907925012,"33":1.2818111280861615,"34":2.06280714775045,"35":-0.6012565089777876,"36":0.5813808737287419,"37":1.25673067257981,"38":0.24515127334710857,"39":0.031251501105725776,"40":-0.08057028652151238,"41":0.30662356066559565,"42":1.0184460850363573,"43":1.7401068958511199,"44":1.6066657613644817,"45":1.3718296022110223,"46":0.04554959624818158,"47":-0.10758546937670745,"48":0.1811569647804791,"49":-0.20984719471066748,"50":-0.181197616026383,"51":2.1521945677070646,"52":3.0983606217436126,"53":1.4562722027649826,"54":-0.29218321065122377,"55":0.013472389485097753,"56":0.1521131641588531,"57":0.10349023801695276,"58":-0.05979451250395401,"59":-0.9415267829958801,"60":1.3947805909322728,"61":1.7032900596764373,"62":-0.4601242596781913,"63":0.023293769875507696}},"5":{"bias":-0.006339571612860276,"weights":{"0":0.051584907341748476,"1":0.08056991521030021,"2":0.4074026899060366,"3":0.3021885310283318,"4":0.17313498406753774,"5":0.20950745000584764,"6":0.19284124898313482,"7":0.1680711806490573,"8":-0.041829152180853875,"9":0.3243744393762662,"10":0.32803015657375645,"11":0.28523610771166863,"12":0.26738430108564865,"13":0.12950402947433803,"14":-0.08169473331517312,"15":0.09965725789137075,"16":-0.1290251317494689,"17":0.09842949199321777,"18":0.2667286487072968,"19":0.29242110463626275,"20":0.0650418324060114,"21":-0.042199067624065965,"22":0.059177920748938885,"23":-0.03136173429155967,"24":0.12525369093829916,"25":0.2544498427899115,"26":0.6114904035522671,"27":0.5774568606986367,"28":0.39487093961532466,"29":0.3431519071446327,"30":-0.11747291692472901,"31":-0.1677384795545424,"32":0.006040428392589087,"33":0.1281779206556315,"34":0.3483336414419236,"35":0.11048417852841547,"36":-0.10902043083763782,"37":0.12939948573206564,"38":0.011106688383918584,"39":-0.052912465948611515,"40":-0.1077131731279776,"41":-0.08114334835902111,"42":-0.318727813515822,"43":0.2995081791030667,"44":0.38644366596015195,"45":-0.18650818874357997,"46":-0.2126926961104462,"47":0.0552917534956976,"48":0.00809853742986099,"49":-0.062486996885555805,"50":-0.2946672663945786,"51":0.1089192476577565,"52":0.4544235241590208,"53":-0.07221840100752602,"54":-0.1649326808477985,"55":-0.004314071801293181,"56":0.085965747382091,"57":0.007823719665939638,"58":0.07820066693695746,"59":0.4024293627336306,"60":0.20270081165396842,"61":-0.3406541176901852,"62":-0.12996332265991106,"63":0.09815068421366133}},"6":{"bias":-0.03685094137434977,"weights":{"0":0.061406733561307214,"1":-0.0368463050349709,"2":-2.9526259629445644,"3":-3.5890646914441215,"4":-3.744761011197932,"5":-2.0827472443836537,"6":-0.03825620765372977,"7":0.8530936261064237,"8":0.08586328527254225,"9":0.027552974751334208,"10":-2.182708483274065,"11":-3.833161388253273,"12":-2.6872608786445777,"13":1.197449564398558,"14":2.088130840035857,"15":0.9345213102147726,"16":-0.05258753730391769,"17":-0.21619973752183644,"18":-2.2621538100997842,"19":-1.3182895483237922,"20":1.3016639599803237,"21":5.22986653699754,"22":2.2562300550353442,"23":0.3621148662126674,"24":-0.12621266735066664,"25":-1.915949009927047,"26":-2.151126209409703,"27":3.6201328954929983,"28":2.4180687448817295,"29":2.4811295403689635,"30":0.960461252115888,"31":-0.19793211519084514,"32":0.15931718284264207,"33":-3.200634360167842,"34":-2.1310279767445457,"35":5.001370586215713,"36":-1.8002611648683524,"37":-2.4425977641986925,"38":-1.375409776776015,"39":0.19740646975114945,"40":0.027604786082907232,"41":-1.0042960656410678,"42":-2.192567911775338,"43":-0.19208681094837846,"44":1.259750183767161,"45":-1.6209858799937016,"46":-0.6204600426551545,"47":-0.20311976571032098,"48":0.12376488183220238,"49":-0.5095864477592288,"50":-3.9369850555196453,"51":-6.130211461637546,"52":-6.319838330195039,"53":-3.458155848282578,"54":-1.4892754310108092,"55":-0.2631960177237389,"56":-0.16964382017157523,"57":-0.14428360838653193,"58":-2.960555608429712,"59":-4.372384435570991,"60":-2.740128247159248,"61":-2.076707223418388,"62":-3.937094816670157,"63":-0.9840361466375552}},"7":{"bias":0.11072802767583442,"weights":{"0":0.03657514797523617,"1":0.13854880569608857,"2":0.27423645365645255,"3":0.4919152866681555,"4":0.15647005077262788,"5":-0.058251623952769796,"6":-0.216216144306933,"7":-0.011798025780625011,"8":-0.12692594619096753,"9":0.19964517989760636,"10":0.26374294554402783,"11":0.42556162554442173,"12":0.5340664911286367,"13":0.15961946914336234,"14":-0.10050397996328292,"15":0.18859829667814665,"16":0.08043708634548735,"17":0.18189373427718775,"18":0.5328072754692857,"19":0.09014017693760959,"20":-0.00005296094134783903,"21":0.20746956353854842,"22":-0.029640511892529017,"23":-0.14882974757338618,"24":-0.18883971503648567,"25":0.024440349642400244,"26":0.46232696836157383,"27":0.16257328333594465,"28":0.38577378674027374,"29":0.2620337642024164,"30":-0.03058988329578673,"31":0.17003594835835023,"32":-0.03504946501925588,"33":-0.09972434332429576,"34":0.2019130333980456,"35":0.3530570346544459,"36":0.05610103391210165,"37":0.21914473507117163,"38":0.18081721317702204,"39":-0.18821752816438675,"40":-0.11389130097893131,"41":-0.059641694641278394,"42":0.10117333768744871,"43":0.16229871062635082,"44":0.229533602571436,"45":0.2886621272336159,"46":0.2034462254890653,"47":-0.10062257637615715,"48":0.14857364274022325,"49":0.2033871289351844,"50":0.18583868849948126,"51":0.13828182145291967,"52":0.33804704650591316,"53":0.18956879005619098,"54":0.09531603467721632,"55":0.1375430194802666,"56":-0.10592487462362284,"57":-0.07215150960290474,"58":0.050384871378965246,"59":0.4769882264265128,"60":0.41518939563453633,"61":0.05640697723886014,"62":0.19998155940714246,"63":-0.18934873535720242}},"8":{"bias":-0.22307543267222837,"weights":{"0":0.00976500753313303,"1":0.17267182470875597,"2":0.21795569829305408,"3":-0.022141577057764032,"4":-0.036757441333625275,"5":0.12057290464627238,"6":-0.012678180491130172,"7":-0.2427342707221583,"8":0.03259701532166637,"9":0.6029730891395512,"10":0.620907184723275,"11":-0.9958451801102305,"12":-0.7644327675642767,"13":0.36537706503386874,"14":-0.12659913742791656,"15":-0.032771665691754506,"16":-0.187453929604497,"17":0.135228919767729,"18":-0.06962523450073262,"19":-1.3931502207201814,"20":-1.096579725207834,"21":-0.44526460156458375,"22":-1.0034224542537897,"23":-0.013397416981909174,"24":0.1696964042980032,"25":-0.7844601058814918,"26":-0.7933262351084741,"27":-0.2973549691824154,"28":-1.5623994795260907,"29":-1.8270711343560937,"30":-1.489292003215756,"31":0.014258816851351221,"32":-0.05563205191865564,"33":-1.000879080755627,"34":-0.9853181937668861,"35":-0.1071465314947091,"36":-1.3879938599343464,"37":-1.5127185197036714,"38":-0.9076591713591161,"39":0.011575025413185364,"40":-0.1662005177159738,"41":-0.8681279672084931,"42":0.24096548742867616,"43":-1.1526116069683827,"44":-2.0150371995681797,"45":-0.3067287679023024,"46":0.8343054330638187,"47":-0.17191077176357852,"48":-0.24097452933246738,"49":-0.33301561749380454,"50":0.39297305667586385,"51":-0.4928839039423008,"52":-0.33646858433961546,"53":0.5070737282821701,"54":1.167620864391324,"55":-0.047612604996956215,"56":-0.06561962781569597,"57":0.058390489229514356,"58":0.6712249439563713,"59":0.37520978255184817,"60":0.05873539040815735,"61":0.3828178847849086,"62":0.6524495583817037,"63":-0.2382815238664978}},"9":{"bias":0.17651480034906716,"weights":{"0":-0.18863387741148474,"1":-0.09955776867988579,"2":0.09831255404357658,"3":0.7069547580371124,"4":0.5468025936703155,"5":-0.2899317760369478,"6":0.14185188736047036,"7":0.0914934128148947,"8":0.10859581136501746,"9":-0.13831996407985417,"10":1.3918692874396459,"11":0.46600614430414,"12":0.9456033235148467,"13":1.351386754737142,"14":0.26699110376370894,"15":-0.16155755328127847,"16":0.11828828972017424,"17":0.5348982486326461,"18":1.6317653676822381,"19":0.8425213240310105,"20":0.23114835670798542,"21":2.5428145527331907,"22":0.41215487624045793,"23":-0.08051946734010267,"24":-0.19762643899836305,"25":-0.01765838423213789,"26":0.6203549799532814,"27":0.6249448164219881,"28":-0.15539800402938667,"29":1.09902993212562,"30":0.7386794613718133,"31":-0.17968886047239332,"32":-0.04809615425765515,"33":-0.0847235000757404,"34":-0.0993471385454597,"35":-0.1921839118009538,"36":-1.3751015457881068,"37":0.01728804499134958,"38":0.641731142330482,"39":-0.15824924167245627,"40":0.08538537140796748,"41":-0.10193485563402548,"42":0.6754276005356894,"43":-1.1262742647773223,"44":-0.6811981733934223,"45":0.529076951053862,"46":-0.0523098842377464,"47":-0.1332043902258071,"48":0.07937537798115088,"49":0.2188321519565824,"50":1.1281272661221595,"51":0.007678141039134372,"52":0.42608213223926583,"53":0.4723354988909554,"54":-0.48830809731192953,"55":0.07979767283542788,"56":0.193817293746914,"57":-0.07355062316492919,"58":0.0010231969096235072,"59":0.7621457784853046,"60":0.6376463033756966,"61":0.07262751122836152,"62":0.20460873061412044,"63":0.0013236229997410705}},"10":{"bias":-0.005757231071021265,"weights":{"0":0.14561080243438485,"1":-2.6182073611422725,"2":1.3144674946768788,"3":6.043670727402002,"4":-11.733559264035595,"5":3.531332319831526,"6":4.30086078358386,"7":0.9023269215766202,"8":0.05441756146559726,"9":-3.7734122342744167,"10":5.977995024668771,"11":1.8596982379585265,"12":9.97816834915646,"13":21.291564972304286,"14":13.316206119878494,"15":1.0370727942584506,"16":-0.11854206386793313,"17":-3.8816161372507865,"18":-5.643145772479676,"19":-8.215421942618752,"20":20.584316029417145,"21":28.02393491593683,"22":13.81270935750832,"23":-0.7837598824166867,"24":-0.20399721928403555,"25":-13.752034548423692,"26":-16.45123173544916,"27":7.749025800216064,"28":16.156373640875,"29":9.14796528643987,"30":-1.1516805816313793,"31":0.16414848357015968,"32":0.04965944411233067,"33":-18.95445313706033,"34":-20.93370793942765,"35":21.49609323748124,"36":13.26493150796183,"37":-17.158493822196913,"38":-22.892725300277448,"39":0.06468307739123702,"40":0.09759365234297343,"41":-9.767633593295136,"42":-9.334164443722868,"43":4.799570768453961,"44":3.218107467469298,"45":-14.768393049212072,"46":-22.19132066032576,"47":-2.0309802093933627,"48":-0.09995900769293671,"49":-0.5140792318067695,"50":-1.815748763179089,"51":1.240328359681844,"52":-3.2445743220216117,"53":-4.892677410547654,"54":-2.7065927973519743,"55":1.5781590085092405,"56":0.022529535866970235,"57":-1.956886718276258,"58":-1.403885006943323,"59":-6.331293054756046,"60":-6.239637198721706,"61":5.808247429342555,"62":9.732783290852485,"63":5.522861217949735}},"11":{"bias":0.011008675052978019,"weights":{"0":-0.08340403875336051,"1":-0.0013656463438541655,"2":-0.05795949331825744,"3":-0.4671145096828516,"4":-1.1697609771729878,"5":-0.42360996713913346,"6":-0.05671319792135171,"7":-0.04337444313964118,"8":0.009443542721659296,"9":-0.06864562322971296,"10":-0.22200750635080382,"11":-0.6543920589247452,"12":-0.8080708697806391,"13":-1.318646309692894,"14":-0.25919908439369804,"15":-0.025823595611508193,"16":-0.013550519340700128,"17":-0.37586839128892274,"18":0.24605913289037643,"19":-0.35201151668249897,"20":-0.8528811443990212,"21":-1.0924342833464344,"22":-0.42052500742651294,"23":-0.13071184067512095,"24":-0.05380822503580404,"25":-0.286008643884018,"26":-0.7507576704753958,"27":-0.8730440943973985,"28":-0.6801805700281668,"29":-1.1503263169250164,"30":-0.36312878523323194,"31":0.10039912244817781,"32":0.07094750348478557,"33":-0.4271322644771636,"34":-0.36684233905568153,"35":-0.02382925613326072,"36":-0.5416408505149511,"37":-0.8428572469647827,"38":-0.5406210344046044,"39":0.1753447256051004,"40":-0.01557465317583549,"41":-0.4061400553382799,"42":-0.09132605865956123,"43":0.09190311532031335,"44":-0.5256600827358461,"45":-1.3243357318797693,"46":-0.5319660031550567,"47":0.1572349185280351,"48":-0.04399975470038932,"49":-0.01789780875348474,"50":0.1916471517267866,"51":0.43555808321372,"52":-0.40427509182548277,"53":0.13014021109283777,"54":1.0185772902857595,"55":0.14450814390055233,"56":0.16855905465988652,"57":0.2288348983624483,"58":0.08674894352925475,"59":-0.6992431216187694,"60":-0.30563136276851544,"61":0.9497927824422786,"62":1.0694380774070438,"63":0.4306480097665287}},"12":{"bias":-0.09580842040037629,"weights":{"0":0.06601603105664255,"1":0.2759623992318379,"2":0.8695735017797512,"3":1.132460489238156,"4":1.1657935982658016,"5":0.5516084898368319,"6":-0.07943299584709504,"7":-0.20622776673446022,"8":0.015016807274073249,"9":0.6809342491895224,"10":1.68502526583563,"11":0.607882828880925,"12":0.6266633752914271,"13":0.8972181973372787,"14":0.2827218936544159,"15":0.04320205498443312,"16":-0.05304965729210035,"17":0.5037865852329506,"18":0.8029876274524403,"19":-0.7347529587421551,"20":-0.44209297595754043,"21":0.1742051892540106,"22":0.14741398321079532,"23":-0.006612731492022833,"24":-0.07576782308317663,"25":0.01655062145876625,"26":-0.11133818383767095,"27":-0.6949544540860668,"28":-0.2867965787586106,"29":-0.658032068815274,"30":-0.46764528458434024,"31":-0.002549177722344353,"32":-0.19563765954226256,"33":0.06612634727656086,"34":0.45594313686909455,"35":0.07020596924868451,"36":0.18738076674366577,"37":-0.1287245406124721,"38":-0.4249337259932837,"39":0.1768909920938313,"40":0.06766984856386739,"41":-0.3332575753267877,"42":1.337116502094052,"43":-0.4792752525336624,"44":-1.0138420860619064,"45":0.5418023717098512,"46":0.625169898339748,"47":0.08757813960493824,"48":-0.13402550586707015,"49":0.10645253330157842,"50":1.4060442764078622,"51":1.1588489966722644,"52":0.5300560445446707,"53":1.4175013726255368,"54":1.0202794257361885,"55":-0.07042286495137277,"56":-0.07518423821849779,"57":0.08485833343020954,"58":1.4373406264412345,"59":1.4928713120256083,"60":1.3338453946268063,"61":0.8372059291069229,"62":0.6177543976630094,"63":0.279541399823404}},"13":{"bias":0.09445363301776329,"weights":{"0":0.12787631303071978,"1":0.07886093592686778,"2":-0.030303198720951743,"3":-0.05810859935843997,"4":0.37189847350251665,"5":0.42431654573245725,"6":0.2366657511927975,"7":0.14648092849627953,"8":0.14169251320581533,"9":0.09167512075596838,"10":0.36098687255829703,"11":-0.38441330656077577,"12":0.0021382950641111787,"13":0.10416641771529224,"14":0.082246523569083,"15":0.16218206958137085,"16":0.12120405318723242,"17":0.1650291817925333,"18":-0.10896824800538411,"19":-0.7945315329833441,"20":-0.2598095209994224,"21":-0.1881643153692987,"22":0.002818897085597526,"23":-0.17110269327692257,"24":0.19285710107715456,"25":-0.028032887605047734,"26":-0.26651452674982856,"27":-0.2635149378432744,"28":-0.35922443874403864,"29":-0.0765801303167263,"30":-0.04294244201245243,"31":-0.158073769532293,"32":0.06863415092229841,"33":-0.1830546451083872,"34":-0.18574209134361033,"35":-0.06068900758204674,"36":-0.5051345692783402,"37":-0.09740711780134642,"38":-0.08954836398668105,"39":-0.17843184685334565,"40":0.0444865675803675,"41":-0.031487058313045935,"42":-0.45517906266391034,"43":-0.5699837044882194,"44":-0.6908711300725778,"45":-0.1699779515039309,"46":0.11415984614795721,"47":-0.07761956895509435,"48":0.03448206959098924,"49":0.13315965856449793,"50":-0.1274933735905905,"51":-0.26142402671135034,"52":-0.6086781170981658,"53":0.02890210846188556,"54":0.07972498261276177,"55":-0.09014260492240272,"56":-0.1607685363057718,"57":-0.03999382130184095,"58":-0.2239003568716738,"59":-0.10006568266699735,"60":-0.39248200923163373,"61":-0.1651127708057755,"62":0.04715173997083377,"63":0.07831064605140746}},"14":{"bias":0.0034701172473206583,"weights":{"0":-0.11611126232892276,"1":-0.21104624085731472,"2":-0.5648194298943657,"3":-0.0867149040511728,"4":-0.17067198434699052,"5":-0.5243396789320448,"6":-0.5373821951326948,"7":0.11703719197327125,"8":0.06891660950454152,"9":0.09876737230157369,"10":-0.06931997676855736,"11":0.4231094141499992,"12":-0.07453461320259802,"13":0.18480888491159536,"14":-0.38395723937686765,"15":0.07893107461222154,"16":-0.1380029539377968,"17":-0.021513663391507214,"18":0.08478219762350701,"19":0.32817808553075634,"20":0.8224149326255151,"21":0.5854822894282454,"22":0.11037496064424508,"23":0.16251226631655125,"24":-0.1706098283068224,"25":-0.03013458520837215,"26":0.4200279098666007,"27":0.4836830840789806,"28":0.5954209507057059,"29":0.49682408046647564,"30":0.13267961417377194,"31":0.1625047412652223,"32":0.028895999025553454,"33":0.1324152116415614,"34":0.6045968743197739,"35":1.4367957226178587,"36":1.0999910919881413,"37":0.6247258589061285,"38":0.2779382182307416,"39":-0.028888930659741158,"40":0.14322344560016995,"41":0.302458583536786,"42":1.1862205345131966,"43":1.6223323223002875,"44":0.8495619284314851,"45":0.1369010884186564,"46":-0.4351344542189073,"47":0.11138171786035855,"48":-0.06469804109984821,"49":0.25056900106381913,"50":0.31629206740784244,"51":0.5419320574704543,"52":0.045022486000953675,"53":0.1583533443254215,"54":-0.3812979867807682,"55":0.1795734344012462,"56":-0.06445933106933151,"57":0.010047539827429702,"58":-0.5157831927091744,"59":-0.016755397790076686,"60":0.5166730009044987,"61":0.5825313815104134,"62":0.07613612110530442,"63":-0.03643456541459978}},"15":{"bias":0.1576317976116825,"weights":{"0":0.026530830748379225,"1":-0.03582172492441091,"2":0.08951309314995136,"3":-0.004188617249568054,"4":0.27837334860877905,"5":0.07161167190392279,"6":0.02394729768888276,"7":0.026687972267165093,"8":0.023584870568429808,"9":0.10000616375642137,"10":0.005334764926886265,"11":-0.018543057197797638,"12":0.042124552110504816,"13":0.14877814092753708,"14":-0.17390522648096166,"15":-0.07799577793907543,"16":-0.08668367386639797,"17":0.0021012301761014593,"18":0.23651872346805333,"19":-0.021093502957056098,"20":0.09530399434654539,"21":0.1351882296082117,"22":0.12697857886622965,"23":-0.001558733416784916,"24":-0.0728887113273905,"25":-0.1445196555163601,"26":-0.009141436353011486,"27":0.2166538530575423,"28":0.06959255267542844,"29":0.20852912987587768,"30":-0.13487790242397393,"31":-0.0970443945198358,"32":-0.05655327206477523,"33":-0.033152802142342154,"34":0.24551757452951173,"35":0.2893624673441996,"36":0.3477243026254611,"37":-0.06681457487831122,"38":0.08910184852294228,"39":-0.07751935049891473,"40":0.09925031803847234,"41":0.20769842404288183,"42":0.1953738291502749,"43":0.05968480054962791,"44":0.2841130663834877,"45":0.20704461304133462,"46":0.18179497355384844,"47":0.03315256588843632,"48":-0.14841422376712426,"49":-0.18884668858387638,"50":0.0012605051955209509,"51":0.1389346644572005,"52":0.28254548537267565,"53":0.15763028107488483,"54":0.0630287421985414,"55":0.004252737451219761,"56":-0.11815397039267607,"57":0.10022195045418597,"58":0.23514096830066988,"59":0.16570453499548463,"60":0.30945189926923283,"61":0.2832961706569257,"62":-0.01575081402993471,"63":0.01884604082254923}},"16":{"bias":-0.14382513896787463,"weights":{"0":0.15244270823895933,"1":-0.07061452322741033,"2":-0.22772223674437075,"3":-1.7021095079777595,"4":-1.6810355314250316,"5":-2.0223976278021327,"6":0.5442998805306566,"7":0.4290073092520094,"8":0.13845876423865575,"9":-0.5005083294795527,"10":-0.5334766551348729,"11":0.6935613804411968,"12":-0.15300640147771802,"13":-0.6106610095795978,"14":-1.925875997592149,"15":0.21924810869083036,"16":-0.07695536353417728,"17":0.29638887110030376,"18":2.7563722343512915,"19":-0.6876864250887466,"20":-1.4034275244953551,"21":2.2989798179981022,"22":-0.5277003577817349,"23":-0.16586669815030405,"24":0.1510485842766092,"25":1.2088421300953496,"26":1.609812648922521,"27":-1.0110496741354045,"28":-2.1493950301693543,"29":3.1060777461834146,"30":3.8626000800240274,"31":-0.1453999767432271,"32":-0.015316368266940106,"33":2.349708628406269,"34":0.9822427128591509,"35":-3.3550874798226316,"36":-5.855933301402977,"37":0.5364954812509651,"38":3.4645645048097897,"39":-0.032588227931410085,"40":0.11864896300128439,"41":0.9795265182787788,"42":-2.8952026538700433,"43":-2.4667355375734004,"44":-1.7848661422914953,"45":-2.209559649176493,"46":-0.12017049918675968,"47":-0.2792992590882248,"48":0.03466239113638563,"49":-0.5183659566611186,"50":-4.221353565796968,"51":-2.03018541799033,"52":-1.9287827312861796,"53":-4.063614725813459,"54":-1.6218353992963874,"55":-0.12058527383565903,"56":-0.025613201969428,"57":0.009179132922600246,"58":-0.8717962715250434,"59":-1.804573325965807,"60":-2.772254037019429,"61":-3.1133428895044304,"62":-0.38061688286031786,"63":0.10919190841588405}},"17":{"bias":0.7337850732307195,"weights":{"0":-0.1917355258949101,"1":-0.5672519419895167,"2":-7.417829901394369,"3":5.9716988592253815,"4":14.230302605343581,"5":-7.310533400672412,"6":-11.856895518586025,"7":1.4703141310377557,"8":0.2734614206122564,"9":1.4821536173029843,"10":4.308322504412469,"11":4.536667780584478,"12":15.101108300901132,"13":18.36004358883592,"14":1.4064846626381955,"15":0.6704507949376666,"16":0.06316096322436617,"17":2.8574171149482157,"18":-5.554901112029852,"19":1.6588669650725136,"20":22.6824553404372,"21":37.72023686495171,"22":15.30032784011681,"23":0.5299282949638043,"24":-0.08222152290455366,"25":0.4731786892270571,"26":-4.963342522696943,"27":-8.443069612776608,"28":-4.6679911392031315,"29":8.539084910658582,"30":15.756162089639146,"31":0.01692119008750032,"32":-0.14699676893651487,"33":3.364374364614122,"34":-5.420216029547637,"35":3.8084344430047294,"36":17.043633800099666,"37":8.419561111029092,"38":1.6047124021379675,"39":-0.0002495937980711571,"40":0.26026432840049546,"41":11.04139013247094,"42":0.42928621471141115,"43":2.796305719485066,"44":15.115263897827854,"45":3.3890870217289595,"46":-0.9837018944090751,"47":-0.49342645119246376,"48":0.28827740655787176,"49":3.136238258395367,"50":0.4647702084562228,"51":-5.841933712048358,"52":0.1843764086474768,"53":-7.229202595704278,"54":-3.6336193000940398,"55":-0.3244528467537014,"56":-0.03659558351446297,"57":-1.496655716327192,"58":-6.733096127066918,"59":-2.4574898566293233,"60":5.618777004168052,"61":-4.1666462273954,"62":-2.181442930761341,"63":0.49169466181732135}},"18":{"bias":0.0364588112292483,"weights":{"0":0.12679802607744933,"1":-1.0239751700751687,"2":0.7413900789980257,"3":-0.6394097008882027,"4":1.7569703669273946,"5":4.662069495314638,"6":-6.822898369117659,"7":-4.678341073709084,"8":0.3262814095873783,"9":-4.562921095897962,"10":-1.4226934019179898,"11":0.006780861090697542,"12":-20.35937194267816,"13":11.346760454662842,"14":0.23647190912628632,"15":-3.1673792716175,"16":-0.0038471875225868164,"17":7.578051237170895,"18":6.847554622382739,"19":21.310179921317992,"20":-3.593648925767749,"21":-0.3209509946576606,"22":-6.276180897002091,"23":-0.9148956515772879,"24":-0.15219899784919105,"25":5.177064428125574,"26":16.361797614775746,"27":37.19800178545074,"28":6.5162541871828115,"29":-17.613479623248114,"30":-24.664682860981696,"31":0.16194706407422255,"32":-0.162836838234216,"33":-9.430035255950944,"34":-5.866248876375396,"35":11.11513194824386,"36":2.5086215701657553,"37":-13.441038824564162,"38":-9.106256535101096,"39":-0.14764062389731408,"40":0.03068188955637343,"41":-7.405278697775804,"42":-9.16503519369082,"43":-25.519393903755383,"44":1.6745460368246365,"45":23.698913327088366,"46":15.773951181732565,"47":0.0886918446331414,"48":-0.16165127869933835,"49":-6.688847166669687,"50":10.331861756443391,"51":-18.978725015567402,"52":-6.16951469111931,"53":11.41169630166298,"54":5.402493464431865,"55":1.0509506615426816,"56":-0.08092620494972279,"57":-0.6797093561703235,"58":-1.8911039699566305,"59":8.084889434996864,"60":13.690316816006945,"61":5.340494402082592,"62":-8.683589780054064,"63":-7.360221158665929}},"19":{"bias":0.1960011233594697,"weights":{"0":0.08480092678219081,"1":0.13073489813404707,"2":0.5699670035529459,"3":0.29811825179222096,"4":0.48715275748748876,"5":1.1926891613785326,"6":0.5837999649043154,"7":-0.17491001624240135,"8":-0.04879962497040131,"9":0.611122441435006,"10":0.7517992443071879,"11":0.4023317118311454,"12":-0.004190193890324827,"13":-0.2718078820189673,"14":0.03645387403556394,"15":-0.1628989571061183,"16":-0.1965200520497339,"17":0.5556520118447911,"18":1.1159547474019804,"19":0.7521980634231266,"20":-0.43132217730564854,"21":-1.2715869782906593,"22":-0.5990421170843673,"23":0.11689404446576157,"24":0.08530940902734768,"25":0.24271103781648684,"26":1.1307403849437307,"27":1.022159103395526,"28":0.5812515230091407,"29":-0.7653563471581839,"30":-0.9733172563252671,"31":0.028629430407911733,"32":-0.10579119957983495,"33":-0.40981500248080194,"34":-0.2906733727138943,"35":0.2404279874446964,"36":0.5801618383997166,"37":-0.10542983892981264,"38":-0.19978238504417645,"39":0.12183499941602349,"40":0.02588715742893834,"41":-0.2100060016616191,"42":-0.17692083197737793,"43":-0.2402956071223841,"44":0.420346424969639,"45":0.13855796273144141,"46":-0.04315083847275168,"47":0.06275162204481789,"48":0.083724135622138,"49":-0.10578542179443479,"50":0.47574983708306606,"51":-0.28204882191100433,"52":0.6554277031790043,"53":0.6652485621417186,"54":-0.11724229680432305,"55":-0.14208664821903558,"56":-0.1768876149414484,"57":0.17772720464303698,"58":0.6264176086622943,"59":0.8716141704457125,"60":0.4819742156740065,"61":0.1344442884057134,"62":-0.2569052805028435,"63":-0.14678248681908926}},"20":{"bias":-0.16951197928118092,"weights":{"0":-0.12212688876315952,"1":-0.07638117180288688,"2":-0.01834574767512878,"3":-0.05903318490554204,"4":0.19929282346662747,"5":-0.41906971179941926,"6":-0.12477360226131579,"7":0.1275268032669667,"8":0.0751340847538858,"9":-0.04047232742135773,"10":0.3106428689665534,"11":-0.0992439725620686,"12":0.14246726478894975,"13":-0.021746559528154286,"14":-0.15488044837059575,"15":0.021961226234713974,"16":0.025386744333554454,"17":0.21123488427756973,"18":0.4283473337031965,"19":0.5052288045401171,"20":0.5954448525782737,"21":0.6326210287493902,"22":0.15185769654442113,"23":0.0062620612601669914,"24":-0.057778693071192384,"25":0.44042839033478964,"26":0.7822703872210932,"27":0.2874555143183748,"28":0.3801737942325197,"29":0.7510012888702265,"30":0.709454729708993,"31":0.1482819542985866,"32":-0.045585531927645195,"33":0.34068699978118006,"34":0.287028628810631,"35":-0.19719430214689362,"36":-0.542320537947654,"37":0.5375214875635217,"38":0.6563900438820917,"39":0.11021304996684195,"40":0.1789933902041631,"41":0.35976651771676377,"42":0.028573058616909848,"43":-0.10754467655135332,"44":0.0984470183373457,"45":0.30853453466742203,"46":0.02601055249984684,"47":-0.004684408806159033,"48":0.07214283658751702,"49":0.0608939981619647,"50":0.1336436203893674,"51":-0.4895430000564269,"52":0.23831491191352278,"53":-0.11931591988449686,"54":-0.1195857907586884,"55":0.04314158401178423,"56":0.1325616134667358,"57":-0.12088617596879885,"58":0.07857702753594817,"59":0.11464385533389508,"60":0.7513388287154467,"61":0.19858473356490566,"62":0.029321189239449545,"63":0.13173355884412188}},"21":{"bias":-0.5303702286658365,"weights":{"0":-0.1578961618244648,"1":2.1768007840281163,"2":2.891700005042491,"3":1.7384120054225622,"4":-2.7949110239835138,"5":6.353913816654095,"6":-0.1500830158832956,"7":-1.4711398231368982,"8":-0.41406886473824994,"9":7.13220193324716,"10":-15.994148386836516,"11":-12.280975398428687,"12":16.59083528927115,"13":5.568979446218081,"14":-0.9255400526498773,"15":-0.3923657560183044,"16":-0.10007288660543263,"17":-9.436372692358699,"18":-36.89431969843779,"19":0.24214799543266363,"20":29.287455686595337,"21":-6.041391125914917,"22":-0.3371585013855971,"23":-0.21437434514468326,"24":-0.17637141773762255,"25":-6.097304778831915,"26":-18.86564703265323,"27":-22.438127978113787,"28":-2.942852831319821,"29":-10.830878840853794,"30":-18.646297849907636,"31":-0.1795804276045551,"32":0.1555777220055461,"33":-3.276908211007899,"34":-14.869210217817963,"35":-11.239419331719404,"36":4.003554553188427,"37":-7.2606100104493505,"38":-16.918946902946463,"39":0.041063870303332806,"40":-0.14283277514743506,"41":-11.526180422178562,"42":-22.499217135818157,"43":5.7221814008050815,"44":-13.518582296125757,"45":-16.812206034475192,"46":-2.4582963542657037,"47":-0.5834512792770977,"48":0.07745889142809499,"49":1.0833842787797887,"50":-10.386221702358048,"51":13.115709399719794,"52":35.45465197877185,"53":20.361758142077466,"54":8.263170381467686,"55":2.212017893741911,"56":-0.13090480678800054,"57":0.9207901286823188,"58":3.337586338031298,"59":3.5890171375559405,"60":9.364423265603023,"61":33.22675357853348,"62":10.057362989983964,"63":3.7725443707029775}},"22":{"bias":-0.04032081380149079,"weights":{"0":-0.0996587835252285,"1":0.05250388248287966,"2":3.2797218902222447,"3":-7.533712136420154,"4":-15.69859275490497,"5":16.803525565737377,"6":14.086288799867772,"7":1.080565989847099,"8":0.09121671127979233,"9":-2.938751320978481,"10":-28.406921493222793,"11":5.374689185498989,"12":-4.885050742311224,"13":-9.839164732167017,"14":-9.741140591922878,"15":1.4502897911766826,"16":0.007080145057000844,"17":3.3203693632949647,"18":-11.123991036735823,"19":27.116782281614515,"20":12.003351247245027,"21":-23.738118898883364,"22":-11.796852789362086,"23":0.3961898458389109,"24":0.15001096272577613,"25":7.631662730958963,"26":17.553123003332146,"27":11.71779588828835,"28":8.625257998676746,"29":4.200489799325627,"30":8.784641421213955,"31":-0.018556935931387446,"32":-0.07844921592622996,"33":9.535066049135294,"34":7.005283229437152,"35":-5.626604159643828,"36":7.520494105949762,"37":14.828194682528972,"38":8.212257308171042,"39":0.18963678721338512,"40":0.2841935311124569,"41":7.847158893833739,"42":-29.38315864343799,"43":15.862850741662784,"44":24.552820676448377,"45":-4.34789528344835,"46":-21.11506693382238,"47":-0.7516795251177312,"48":-0.02731009667556006,"49":0.7711042026602768,"50":-25.375640297008044,"51":2.6006476535169916,"52":-1.5778757421081786,"53":-31.032124772582232,"54":-17.46873455080493,"55":5.494230932611443,"56":-0.12415512982553945,"57":-0.8132129144188455,"58":3.1379439187818967,"59":-8.664023656954376,"60":-20.913751873995224,"61":-13.449301855096767,"62":-2.2815005331230673,"63":2.819128223046946}},"23":{"bias":-0.21719811346923756,"weights":{"0":-0.05879602571949363,"1":-0.18662706668177498,"2":-1.0088883158089654,"3":-0.7670849246893933,"4":-0.8731294460806244,"5":-1.8870978564768164,"6":-0.48681620205550963,"7":0.008902426855728477,"8":-0.03691446380703493,"9":0.05915450918383891,"10":-1.2483603567519985,"11":-0.24953753153303562,"12":0.3573562681615452,"13":0.6380302624877202,"14":-0.19035241441779172,"15":0.12239246155359398,"16":-0.05531509462684483,"17":0.23466786124886654,"18":-0.2790318350563386,"19":-0.23703715490351895,"20":-0.1194685115314461,"21":2.224294553752935,"22":1.3315856589116457,"23":0.048940428543961495,"24":-0.08673262366880484,"25":0.11786713134423928,"26":-0.3703923581155702,"27":-2.4495754515728896,"28":-2.3414001926790307,"29":1.225116123668164,"30":2.1256424810181063,"31":-0.17307703750716572,"32":0.106469173822552,"33":0.6475246781714301,"34":-0.28481649065419407,"35":-2.1610818832632055,"36":-2.9259432382916906,"37":-0.00833554480786379,"38":1.2846438686262134,"39":-0.15889400439336898,"40":0.17291749406048776,"41":0.7740155125617982,"42":-0.1437126363710129,"43":-1.3086309809531005,"44":-1.723008258474007,"45":-0.335855344564418,"46":-0.06645173249529678,"47":0.009815687911386909,"48":-0.038617498097679746,"49":0.013176499427120602,"50":-0.13999708201652164,"51":-0.5604753327393206,"52":-0.5276363015329154,"53":-0.49959159469841286,"54":-0.6026087587255133,"55":0.24016574406616187,"56":-0.06443850896956631,"57":-0.31648022929091835,"58":-0.4440598325658162,"59":-1.2790859853170589,"60":-1.0266220633860856,"61":-0.8560809057221432,"62":0.024485767685174745,"63":0.35805757880178596}},"24":{"bias":0.35043277864984645,"weights":{"0":-0.10900740968063474,"1":1.3973982173169543,"2":-4.56281963840988,"3":-6.169973870554357,"4":5.756551175207783,"5":24.19928004676889,"6":9.952266597847194,"7":1.8590705871272004,"8":0.08731861561415775,"9":2.8990040927307548,"10":-6.240613428032453,"11":2.2381415248830447,"12":2.2609117723793615,"13":2.71183742087029,"14":7.610291274057714,"15":1.759057743734985,"16":0.033544988124868294,"17":-2.703054890456526,"18":-16.598209696847555,"19":-5.3633133417422,"20":12.833795466748052,"21":-17.182944665442292,"22":-2.165626567905904,"23":0.7326649126660125,"24":-0.026291761902126776,"25":-9.735693950244535,"26":-18.721088805852794,"27":-9.043338044792847,"28":9.835438109496137,"29":-14.014968620303913,"30":-13.852038276235104,"31":0.004419837297487735,"32":0.11677098320797086,"33":1.228774560068689,"34":2.3786429767290613,"35":3.368777796304642,"36":33.36089465768394,"37":3.7050497633509982,"38":-10.114373732292444,"39":0.06287648789584638,"40":0.13681207123565126,"41":1.8342387226040595,"42":12.300608093381593,"43":20.35099807497852,"44":22.280820820861972,"45":-0.5410658073559194,"46":2.8900383512348413,"47":-0.05983514884812462,"48":0.1847451626063753,"49":1.1941734924637273,"50":-0.7488456637818633,"51":5.4224982175077345,"52":1.2250454659428724,"53":-1.9814115255153224,"54":1.8176528604914841,"55":-0.822165438803658,"56":-0.04688788545505454,"57":1.22197644292921,"58":-3.477913845722068,"59":-1.00564244030199,"60":-0.6770932283250105,"61":5.200786221591846,"62":-1.678803252152757,"63":-2.3009314763096107}},"25":{"bias":0.19018754823763948,"weights":{"0":-0.022599732503294945,"1":0.20729389764500508,"2":0.09994559567702369,"3":0.2714241435954091,"4":1.1968729099548963,"5":0.47353651469639635,"6":0.0026650019042373263,"7":-0.14526355327475352,"8":0.16561216751658522,"9":0.5723698300799386,"10":0.9627129569157896,"11":0.17122862972444122,"12":1.0979389183232786,"13":1.0151947142116808,"14":0.23478386239626284,"15":-0.05326406977130383,"16":-0.08787443369201085,"17":0.21968744799875292,"18":0.24240084140925788,"19":-0.14173231787523544,"20":0.7013185517901774,"21":0.886889729296869,"22":0.03115118408962513,"23":0.15461034317408992,"24":0.04328706505202934,"25":-0.2376368058837587,"26":0.03413192805077056,"27":0.6617956859057565,"28":0.5815352954015298,"29":0.36770029089322154,"30":0.19254290671521107,"31":0.15847381807701702,"32":0.005440708249807358,"33":-0.35132564607659483,"34":0.8360895583922331,"35":0.995776287727667,"36":0.5611634868383435,"37":1.475734917772413,"38":0.3036516021177357,"39":0.18531356668099763,"40":-0.12828540112503528,"41":-0.15861128120522824,"42":0.6616567598804495,"43":0.37063000265350254,"44":-0.5308249182119075,"45":0.7715504249326804,"46":0.9444706542089433,"47":0.03251006882712946,"48":0.01078474193684801,"49":0.07834137168801578,"50":0.5840897233775184,"51":0.4246883615906133,"52":-0.8887952533573732,"53":-0.2844357128327233,"54":0.10985053655452702,"55":-0.23362555406199723,"56":0.19054388077631376,"57":-0.003996271060623647,"58":0.4484745001822069,"59":0.27944884784206375,"60":-0.020190445361186124,"61":-0.03780490035766475,"62":-1.1180221396534367,"63":-0.7225034341107693}},"26":{"bias":0.04792608936255258,"weights":{"0":-0.15569973178207874,"1":-0.014984612227145349,"2":0.01772149357449808,"3":0.7984962379884918,"4":-0.18822536996407627,"5":0.642444017154824,"6":0.2749587393620835,"7":-0.09935925484185258,"8":0.09058895515404619,"9":-0.13322225197528198,"10":0.15660150837000036,"11":0.4005593736246791,"12":0.8306429842410824,"13":1.7833065041242915,"14":1.0343474067661091,"15":0.14265533600643474,"16":-0.16796225442151516,"17":-0.11553615411179875,"18":-0.5552164591516585,"19":-0.026069218442148514,"20":2.0763896117073823,"21":2.382693482953129,"22":1.0742580416359542,"23":-0.18659148125237462,"24":-0.07046282767523428,"25":-0.6872369834535983,"26":-1.423697062444321,"27":0.4443396806221858,"28":2.0808458567792214,"29":1.8129025800490153,"30":-0.22445052402192966,"31":0.06394021209966083,"32":-0.06177377691492439,"33":-0.7447360381636159,"34":-0.5205885165733684,"35":1.45910435141655,"36":1.2849905943555902,"37":0.26771818164231165,"38":-0.46538501158182544,"39":0.1333831934258342,"40":0.18721583952474644,"41":-0.32930689256554563,"42":-0.15849660350099348,"43":0.8156856385974306,"44":0.6555003042727555,"45":-0.39743425121724896,"46":-0.8599096111610762,"47":0.12156539542006349,"48":-0.09158165727767799,"49":-0.19534567566807387,"50":-0.009833886245478348,"51":0.6929434649208668,"52":0.8206448836379759,"53":0.5926959093471563,"54":0.02179046675109669,"55":0.11749513879165772,"56":0.041587450697805096,"57":0.02653525443521181,"58":0.12394244845940564,"59":0.5776272166384119,"60":0.41246173843777983,"61":1.073287524645228,"62":0.6367318229493781,"63":0.09293509228725232}},"27":{"bias":-0.09621518497483982,"weights":{"0":0.06057032654061911,"1":-0.05184737432746881,"2":0.029849110484015243,"3":0.0932899435622466,"4":0.28094333779997516,"5":0.25633896930323913,"6":-0.006958114948868517,"7":-0.037274220502035285,"8":-0.07654610082837966,"9":0.030481241663842123,"10":0.4334951612821741,"11":0.3326351036335688,"12":0.13362921715889806,"13":0.41594443511732837,"14":-0.05589290427924492,"15":0.0631502520260912,"16":0.11505560587839851,"17":-0.18984491178873636,"18":0.3498815127871502,"19":0.2718401738691558,"20":0.20845797886322767,"21":-0.0078324023533947,"22":0.09383260634110283,"23":-0.06476988945398905,"24":-0.02502886186336607,"25":0.16937869358676452,"26":0.0413758593535167,"27":0.29903019697948546,"28":0.04961430586229891,"29":0.12777286028279689,"30":0.17624125263128343,"31":-0.10450183257801837,"32":-0.015449282713234425,"33":0.23423616331561273,"34":0.09476206799135121,"35":0.08694224049284194,"36":0.2975344927317509,"37":0.17341568346422384,"38":-0.01451384232450047,"39":0.036373001988977194,"40":0.06587283765105519,"41":0.05026905907938622,"42":-0.015801722111910048,"43":0.06622429839113952,"44":0.2349141875290949,"45":0.14255008797465496,"46":-0.18013398472431386,"47":-0.1221497591454388,"48":0.14799936384835172,"49":0.014483311345169137,"50":0.2440596810023251,"51":-0.02109221589516835,"52":0.2752692387634076,"53":0.16099749323289894,"54":0.06911376188637786,"55":0.11448475032415092,"56":0.10700153255338438,"57":0.01223448572774561,"58":0.1519600743789238,"59":0.10106560510077814,"60":-0.06070146310554034,"61":0.04487927732068761,"62":-0.15410095431356183,"63":-0.027561369572726997}},"28":{"bias":0.14931690214839502,"weights":{"0":-0.16023351652547718,"1":0.17315511987347,"2":-0.13092654138297627,"3":-0.40001465607958453,"4":-0.2157182274282593,"5":-0.1686633812566756,"6":-0.1630588035820183,"7":0.1366393478223634,"8":-0.09320039697319225,"9":-0.0730484553603031,"10":-0.25251179306422333,"11":-0.33555484867747526,"12":-0.1274254478273321,"13":-0.014843711731299015,"14":0.05536933216356911,"15":0.03224506562587497,"16":-0.04845058760082109,"17":-0.26259863106084497,"18":-0.14153314183370538,"19":0.07937040609883059,"20":-0.13741778271714092,"21":-0.18640990481830091,"22":-0.14545936661426156,"23":0.030486171485781713,"24":-0.00671482302384287,"25":-0.20275933189918316,"26":-0.15810571763590148,"27":-0.07444080970307056,"28":-0.17574745214668855,"29":-0.451379990900928,"30":-0.08828339717459634,"31":-0.12598938003682583,"32":-0.03554429849609733,"33":-0.08054448931536064,"34":-0.2350218815109367,"35":0.09540120663138445,"36":-0.07960082465900556,"37":0.056514783732988474,"38":0.19770501005594163,"39":-0.03401277130469679,"40":-0.11251363703755224,"41":-0.1521999274169761,"42":-0.1726354636630239,"43":-0.12640913489528494,"44":-0.44289168274063023,"45":0.20562318224776577,"46":0.15662031681937563,"47":-0.19238845212912986,"48":-0.10373194206725533,"49":0.13672290205828283,"50":0.11120526356917199,"51":-0.25052732258229415,"52":-0.14221524563117252,"53":-0.06369174610046834,"54":0.1264830439473767,"55":0.11520761229592187,"56":0.1916571474249072,"57":-0.0793017051206913,"58":-0.07303049685096778,"59":-0.1326280195105387,"60":-0.06865052988940189,"61":0.1467388429091627,"62":-0.10451783100291165,"63":0.08406922329250127}},"29":{"bias":-0.12873151742311237,"weights":{"0":0.05849376767873765,"1":0.08368941720401774,"2":0.07314279850048781,"3":0.269393767552403,"4":0.11464916374425703,"5":0.006142159205372393,"6":-0.07203278971496,"7":-0.10703260176101774,"8":0.16938218310779415,"9":0.14286970374415692,"10":0.08283175396154206,"11":0.09531827373410877,"12":0.1972179154173734,"13":-0.013155768006406283,"14":0.11033342795441668,"15":0.012869635428479716,"16":0.14154070729779009,"17":-0.0451703283532705,"18":0.03903706263893765,"19":0.19516026476946682,"20":0.13602436393330739,"21":0.0988219930982925,"22":-0.15712486389565122,"23":-0.12498803653374477,"24":0.07458649540951508,"25":0.08899015906124932,"26":0.02695870608922239,"27":-0.037759983365608166,"28":0.10817860830899736,"29":0.1904775425827363,"30":0.05425259494124078,"31":-0.06329203151111273,"32":-0.043884116504341375,"33":0.023557283301832568,"34":0.20639380841162486,"35":0.11596778385371156,"36":0.27616475363536347,"37":0.16973520086311022,"38":-0.16737745034649826,"39":0.16624323604628444,"40":0.10028364914981397,"41":-0.0184040848096339,"42":0.050726986465642866,"43":0.11381823957504254,"44":-0.04418015351019648,"45":0.1847309059773907,"46":0.11070727990907761,"47":-0.1507240133562089,"48":-0.041715669861642386,"49":-0.10233214047717039,"50":-0.012104014840727541,"51":0.15956772662598784,"52":0.12239661736627915,"53":0.1697858190972672,"54":-0.16233402525245477,"55":0.18004637772162216,"56":0.04563510353459974,"57":-0.1711020311148926,"58":-0.01971449767860857,"59":0.2501761612401565,"60":0.15610868975451644,"61":-0.13853212834921955,"62":0.13813657025378223,"63":0.19271376603401386}},"30":{"bias":0.5651600428334932,"weights":{"0":-0.1861920237541199,"1":4.041377900096332,"2":18.587694308972686,"3":20.876002743032352,"4":18.36610571820925,"5":17.038171990203267,"6":11.61307613049955,"7":1.3755243240479957,"8":0.05703590158236272,"9":16.597613636386193,"10":18.921143645671727,"11":13.366490247952585,"12":15.532685963547337,"13":1.6022179303158952,"14":6.456934101140849,"15":0.8961662049595517,"16":-0.5028608500197473,"17":8.015755386413606,"18":-16.159108871223566,"19":-22.512555233636423,"20":-12.705691271906149,"21":-12.798596418591025,"22":-3.353479021408249,"23":0.22930295208339563,"24":-0.1749786873562629,"25":7.361330837597224,"26":-10.825170177009236,"27":-12.564897365004226,"28":0.6989035931324832,"29":-5.807488233957039,"30":4.708267505020304,"31":0.04721069739482049,"32":-0.18243658551946285,"33":2.2872574461341406,"34":-3.1682374662184634,"35":-6.298327763458242,"36":-9.75460351097469,"37":-7.767855821880249,"38":9.960282378748637,"39":0.029762881621718418,"40":-0.12497413980606822,"41":0.18222804181418598,"42":-27.319510694710786,"43":-17.518630429049047,"44":-9.842716467918587,"45":-2.0250540230274328,"46":-3.9115611515231405,"47":0.14785900387904358,"48":0.21083536257639404,"49":8.598683370972545,"50":-3.728063445865071,"51":6.079463946524046,"52":4.751143951320083,"53":-1.3468255915807203,"54":3.3163192890962625,"55":-0.762218834670164,"56":-0.049134812248918684,"57":4.93002857914132,"58":26.512765662544464,"59":13.128357166091563,"60":-16.32400248793018,"61":-7.817354766711828,"62":6.813085404149044,"63":-4.2541931995519295}},"31":{"bias":-0.041489965446109674,"weights":{"0":-0.11879942007362843,"1":-0.17052785806620233,"2":0.14923557890918052,"3":-0.8950374732957653,"4":-3.9780024428154617,"5":-0.9746895537864083,"6":-1.5478421268836269,"7":-0.0593438531598728,"8":-0.060941774742191084,"9":0.5970896041547451,"10":-0.868190531158314,"11":-3.464958972505749,"12":-0.8204927387649151,"13":1.8754669792717795,"14":0.26251942940549583,"15":-0.14861302762535794,"16":0.08096438570817523,"17":0.18808359520418327,"18":-2.0370289267627615,"19":-1.5719665224046393,"20":3.3476743735739816,"21":3.436571647828476,"22":-0.0487116773092647,"23":-0.22243347160344715,"24":0.16274517466970662,"25":-1.8926777460300088,"26":-3.7306948230084247,"27":0.515304862268752,"28":1.8186004691028224,"29":-0.09814835489009614,"30":-2.4651201957685873,"31":-0.17121780365685632,"32":0.003224670328199869,"33":-2.7729751805441185,"34":-5.127901026479067,"35":0.4713929117581959,"36":-0.9545056564885731,"37":-4.616967612157093,"38":-3.277544324606169,"39":-0.11611720276996494,"40":0.137437696102736,"41":-1.3049285955586074,"42":-3.117129384776822,"43":-1.7703850675117712,"44":-1.5444585923146588,"45":-2.304505323253964,"46":-2.4861245366492817,"47":-0.15213450977082982,"48":-0.16303860004574355,"49":-0.44713708410638875,"50":-0.949397520222795,"51":-2.5336038588153342,"52":-0.4244754923748487,"53":1.483731965122581,"54":0.4082433739519787,"55":0.22237465973024165,"56":0.12386568776809892,"57":-0.0641982042647046,"58":-0.10578425098700753,"59":-1.3071166184747285,"60":-0.20352685545937996,"61":2.1375435208283955,"62":2.1047262878135213,"63":1.1467365595642496}}},{"0":{"bias":-0.44760072651816535,"weights":{"0":0.38765438907728483,"1":0.8252573570030931,"2":-2.970141827856188,"3":-11.568406050986669,"4":0.057867007793130566,"5":-0.9580658404263712,"6":-4.560386522281092,"7":-0.54060634844301,"8":1.0275915616900095,"9":2.410691180677894,"10":-12.334509267290471,"11":-0.6347982554535982,"12":0.8327220904920364,"13":-0.021482516850213244,"14":-1.3023510176719186,"15":-0.8209439258813092,"16":4.021287923280709,"17":13.493589108320446,"18":-5.4144148359833375,"19":-1.6079252351197952,"20":-0.10611983674908317,"21":-3.4010976294300432,"22":-12.840279018526802,"23":3.475413980994474,"24":-17.33887727821808,"25":-0.9564241994797379,"26":-1.6215614977621642,"27":-0.7507435835441372,"28":-0.28321302903644124,"29":-0.8252113121298801,"30":4.449196606608989,"31":-3.5429523898369957}},"1":{"bias":-3.890324479980778,"weights":{"0":-0.5442346416654544,"1":-2.2439240365513218,"2":5.1070253502262695,"3":-6.989587702606494,"4":-1.0855718235929268,"5":-3.5313219904960196,"6":2.1764536616328645,"7":-4.390552321067704,"8":-1.4108518485080008,"9":-4.282345423203107,"10":23.532826554185096,"11":0.26372372353371576,"12":-5.196355268162388,"13":-0.9406639123651456,"14":-2.6728500805208073,"15":-4.265342773693519,"16":1.4878971615939032,"17":3.147106571798126,"18":19.373711128990966,"19":-3.4347164408026813,"20":-3.790642390178924,"21":16.623593478329393,"22":4.072317615664679,"23":-0.04435437321311886,"24":7.376500375075931,"25":-5.099062866053958,"26":-2.239045055552184,"27":-4.346468217372384,"28":-1.2406169967867353,"29":-4.378310962928645,"30":-22.652099634729314,"31":4.390757636646391}},"2":{"bias":-2.262060772786089,"weights":{"0":0.976618117266566,"1":-4.016843545410796,"2":-3.4714064747865647,"3":-15.987117984674047,"4":-2.6964148428123096,"5":-2.165432860863579,"6":-1.9633004726459002,"7":-2.604573784472951,"8":0.5688411909675143,"9":-2.4199753688475836,"10":25.896073608350815,"11":1.642467138971462,"12":-0.5921481892407611,"13":0.0810112695916047,"14":-1.8193583618307634,"15":-2.4290635029468217,"16":-2.1018569383679204,"17":-7.970018452126913,"18":-8.618783427508635,"19":-2.0539178615882574,"20":-2.724791830633105,"21":24.47302234316521,"22":-17.580007787703487,"23":-0.3201155654381338,"24":-2.8025927985873893,"25":-2.574378618682953,"26":-0.7919112733504531,"27":-2.4445239248872848,"28":-0.848705491155669,"29":-2.421668261538627,"30":6.175561633851116,"31":2.41173006658937}},"3":{"bias":-3.2604127064588546,"weights":{"0":-0.6036279970494131,"1":-7.0972204286606555,"2":-3.3602009759894447,"3":16.45070427422535,"4":-5.326887389425556,"5":-4.34892330401174,"6":-1.3570854581549379,"7":-3.6414147705644124,"8":0.8589885773678295,"9":-5.052734478769743,"10":-12.72498188409876,"11":-1.5698253776543736,"12":-2.8843762329370213,"13":0.3113087262518843,"14":-5.031934179361853,"15":-3.7495659569817628,"16":-4.34259591993491,"17":7.183944367924576,"18":7.730639054892424,"19":-3.8446099925831714,"20":-4.498280090053131,"21":25.621138926724143,"22":-5.01702239463223,"23":-1.23402089480621,"24":14.095874331153546,"25":-2.4837067831315007,"26":-2.388474413891922,"27":-3.5453648226532715,"28":-1.1970771678981633,"29":-3.575027254259277,"30":11.57205775762899,"31":2.3357381288942918}},"4":{"bias":-1.9246118364463582,"weights":{"0":-0.9369708060475684,"1":1.2369891380160274,"2":5.279444241872845,"3":-6.797541066754585,"4":0.49350741759931893,"5":-1.2117075758153624,"6":-0.728680921081184,"7":-2.088279397281627,"8":-3.086935125191793,"9":-2.5422713572579045,"10":-21.687403927147287,"11":-0.5751476889065987,"12":-3.8665247460017236,"13":-0.9172202253606486,"14":-0.4283633892825127,"15":-2.0608678409049426,"16":1.8705626305488514,"17":19.731360148387473,"18":-7.297715614545789,"19":-1.7728391434755992,"20":-1.1860107034583678,"21":-13.565915300625957,"22":23.550784503135596,"23":0.3179426098471705,"24":7.812910164046912,"25":-1.8224595385513693,"26":-3.301248309235705,"27":-1.825750487867663,"28":-0.7495510132458806,"29":-1.868596235018062,"30":-22.388405754004364,"31":-3.7398996138756133}},"5":{"bias":-3.015888294858257,"weights":{"0":-0.9360299205247465,"1":-3.1030128171772295,"2":-3.8273421141979247,"3":9.505876447175831,"4":-1.432468697456713,"5":-2.5612865501389415,"6":-4.75491301856908,"7":-3.361618988931532,"8":1.3749021994077302,"9":-4.036902813220028,"10":-29.935101090174037,"11":-0.12983365502658087,"12":-2.0847761207209903,"13":-0.04543607007438244,"14":-4.944109476033844,"15":-3.6458601415167338,"16":-1.4121573647572165,"17":-17.019026358715685,"18":16.27400303657913,"19":-0.8400908182360357,"20":-3.58539666496652,"21":-34.57755901845422,"22":10.914591693979117,"23":-2.211414332137093,"24":25.08261719440516,"25":-2.5138847891182516,"26":-4.848340277900556,"27":-3.4675069018965265,"28":-0.6204309796637225,"29":-3.434984423634949,"30":41.5804690463094,"31":-2.161286873610998}},"6":{"bias":-0.020337641710845882,"weights":{"0":0.28295404577726846,"1":1.2450414835323846,"2":4.608381234653825,"3":-18.98501287728488,"4":1.973078793540601,"5":-0.44220991104971125,"6":-1.2152221265705299,"7":-0.12699176209499513,"8":1.5329339703086824,"9":-1.2205135853234326,"10":-34.1677534182518,"11":1.6019063562857232,"12":1.5502199712634293,"13":-0.5848728088081578,"14":0.42964261269207366,"15":-0.01581455375802737,"16":-2.9275351683274,"17":-13.420883536045245,"18":8.166112598868164,"19":0.4320269175066606,"20":-0.12625912604091874,"21":4.583779826583092,"22":-12.508585954532569,"23":-1.6698328694115745,"24":5.711224616104357,"25":0.6298845379140371,"26":-1.3128339348560374,"27":-0.0930012547441475,"28":-0.03164713083272997,"29":-0.05518790961272402,"30":-26.170284794825903,"31":-3.3420823664709927}},"7":{"bias":-2.076263873727027,"weights":{"0":0.6916409386759101,"1":-5.502963351000803,"2":-3.4477480310374604,"3":12.263576422379025,"4":-4.654319905408025,"5":-1.8124103443967405,"6":1.727931350560737,"7":-2.4915703262947053,"8":-1.7851589654597693,"9":-2.5373581674476666,"10":11.34521640091044,"11":-0.9481121214852005,"12":-2.605141976328043,"13":0.5138046047772907,"14":-0.8462680043517316,"15":-2.3579149191504687,"16":-2.177831734666528,"17":15.633297148105983,"18":-17.77178836408698,"19":-3.2827698396875733,"20":-2.7471563570806086,"21":-9.442701263709859,"22":0.299222526562847,"23":-0.27295125999484493,"24":8.185263047250725,"25":-1.5591585769673713,"26":-1.1378617357417715,"27":-2.5430797056240317,"28":-1.0391995391559814,"29":-2.206520061166893,"30":6.36572314692672,"31":-1.7344490049617003}},"8":{"bias":-2.9951951815710243,"weights":{"0":0.4865753116819335,"1":-0.9126645593348666,"2":-0.8449948554054669,"3":-1.7213976531687976,"4":-4.770842479534356,"5":-3.4474284019608556,"6":2.484510053301754,"7":-3.5792561888818617,"8":1.1804046294674242,"9":-3.3928558000983435,"10":17.98827175352493,"11":-0.26714519784444396,"12":-2.488545838838592,"13":0.2277842164792335,"14":-2.5198701710756866,"15":-3.5209050867792486,"16":-7.034566647740676,"17":9.479011404957111,"18":4.258605222611055,"19":-2.65105393513926,"20":-3.646719733290899,"21":-9.17866016577055,"22":-14.6280130466768,"23":-2.213575389162093,"24":17.25722736241484,"25":-2.7607577267911396,"26":-1.9608781396904753,"27":-3.635606900266314,"28":-1.2336446910363335,"29":-3.5870886680102863,"30":-4.4730870078815705,"31":3.2447211412799146}},"9":{"bias":-5.06345697145314,"weights":{"0":-0.4048794367321721,"1":-2.5759061444428726,"2":-3.1803901658979217,"3":28.192129887223437,"4":-6.7546896574881625,"5":-5.81832699861852,"6":4.230727091820351,"7":-5.8168066924818564,"8":-0.04060824341841368,"9":-2.8729799901398643,"10":31.140773515407773,"11":-0.8562548120428617,"12":-5.4307119940340165,"13":-0.2605332652261064,"14":-6.48593689565147,"15":-5.630901974694293,"16":7.443971196341334,"17":24.130770396389455,"18":11.966181581276574,"19":-6.049065596848401,"20":-4.112869590195521,"21":-8.134198122447499,"22":4.546018038302083,"23":2.7058563791032806,"24":-19.366692894533212,"25":-4.92902295550908,"26":-3.9904278652678897,"27":-5.881011528021766,"28":-1.5328533644613105,"29":-5.954061549098096,"30":-3.379172936967755,"31":3.080922844290941}}}],"outputLookup":true,"inputLookup":false}